<?xml version="1.0" encoding="UTF-8"?>
<PMML version="3.1" xmlns="http://www.dmg.org/PMML-3_1" xmlns:xsi="http://www.w3.org/2001/XMLSchema-instance">
<Header copyright="kisilevich">
<Application name="KNIME" version="2.2"/>
</Header>
<DataDictionary numberOfFields="42">
<DataField name="photos" optype="categorical" dataType="string">
<Value value="none"/>
<Value value="normal"/>
<Value value="high"/>
<Value value="veryhigh"/>
</DataField>
<DataField name="age" optype="continuous" dataType="double">
<Interval closure="closedClosed" leftMargin="18.0" rightMargin="73.0"/>
</DataField>
<DataField name="frPairFF" optype="categorical" dataType="string">
<Value value="False"/>
<Value value="True"/>
</DataField>
<DataField name="frPairMF" optype="categorical" dataType="string">
<Value value="False"/>
<Value value="True"/>
</DataField>
<DataField name="frPairMM" optype="categorical" dataType="string">
<Value value="False"/>
<Value value="True"/>
</DataField>
<DataField name="minMaxAge" optype="categorical" dataType="string">
<Value value="nopref"/>
<Value value="18-20"/>
<Value value="18-25"/>
<Value value="18-30"/>
<Value value="18-35"/>
<Value value="18-40"/>
<Value value="18-50"/>
<Value value="18-60"/>
<Value value="18-80"/>
<Value value="21-25"/>
<Value value="21-30"/>
<Value value="21-35"/>
<Value value="21-40"/>
<Value value="21-50"/>
<Value value="21-60"/>
<Value value="21-80"/>
<Value value="26-30"/>
<Value value="26-35"/>
<Value value="26-40"/>
<Value value="26-50"/>
<Value value="26-60"/>
<Value value="26-80"/>
<Value value="31-35"/>
<Value value="31-40"/>
<Value value="31-50"/>
<Value value="31-60"/>
<Value value="31-80"/>
<Value value="36-40"/>
<Value value="36-50"/>
<Value value="36-60"/>
<Value value="36-80"/>
<Value value="41-50"/>
<Value value="41-60"/>
<Value value="41-80"/>
<Value value="51-60"/>
<Value value="51-80"/>
<Value value="61-80"/>
</DataField>
<DataField name="aimFriendship" optype="categorical" dataType="string">
<Value value="True"/>
<Value value="False"/>
</DataField>
<DataField name="aimLove" optype="categorical" dataType="string">
<Value value="True"/>
<Value value="False"/>
</DataField>
<DataField name="aimMarriage" optype="categorical" dataType="string">
<Value value="False"/>
<Value value="True"/>
</DataField>
<DataField name="aimOther" optype="categorical" dataType="string">
<Value value="False"/>
<Value value="True"/>
</DataField>
<DataField name="aimSex" optype="categorical" dataType="string">
<Value value="True"/>
<Value value="False"/>
</DataField>
<DataField name="marriage" optype="categorical" dataType="string">
<Value value="0"/>
<Value value="1"/>
<Value value="2"/>
<Value value="3"/>
<Value value="4"/>
</DataField>
<DataField name="kids" optype="categorical" dataType="string">
<Value value="0"/>
<Value value="1"/>
<Value value="2"/>
<Value value="3"/>
<Value value="4"/>
</DataField>
<DataField name="isBody" optype="categorical" dataType="string">
<Value value="True"/>
<Value value="False"/>
</DataField>
<DataField name="isProfession" optype="categorical" dataType="string">
<Value value="True"/>
<Value value="False"/>
</DataField>
<DataField name="dayRegime" optype="categorical" dataType="string">
<Value value="0"/>
<Value value="1"/>
<Value value="2"/>
</DataField>
<DataField name="isLanguages" optype="categorical" dataType="string">
<Value value="True"/>
<Value value="False"/>
</DataField>
<DataField name="materialStatus" optype="categorical" dataType="string">
<Value value="0"/>
<Value value="1"/>
<Value value="2"/>
<Value value="3"/>
<Value value="4"/>
</DataField>
<DataField name="household" optype="categorical" dataType="string">
<Value value="0"/>
<Value value="1"/>
<Value value="2"/>
<Value value="3"/>
<Value value="4"/>
<Value value="5"/>
<Value value="6"/>
</DataField>
<DataField name="isPriorities" optype="categorical" dataType="string">
<Value value="True"/>
<Value value="False"/>
</DataField>
<DataField name="priorityCareer" optype="categorical" dataType="string">
<Value value="True"/>
<Value value="False"/>
</DataField>
<DataField name="priorityEquilibrium" optype="categorical" dataType="string">
<Value value="True"/>
<Value value="False"/>
</DataField>
<DataField name="priorityFamily" optype="categorical" dataType="string">
<Value value="True"/>
<Value value="False"/>
</DataField>
<DataField name="priorityPubService" optype="categorical" dataType="string">
<Value value="True"/>
<Value value="False"/>
</DataField>
<DataField name="priorityRealization" optype="categorical" dataType="string">
<Value value="True"/>
<Value value="False"/>
</DataField>
<DataField name="prioritySex" optype="categorical" dataType="string">
<Value value="True"/>
<Value value="False"/>
</DataField>
<DataField name="priorityWealth" optype="categorical" dataType="string">
<Value value="True"/>
<Value value="False"/>
</DataField>
<DataField name="orientation" optype="categorical" dataType="string">
<Value value="0"/>
<Value value="1"/>
<Value value="2"/>
<Value value="3"/>
</DataField>
<DataField name="isHeteroExperience" optype="categorical" dataType="string">
<Value value="True"/>
<Value value="False"/>
</DataField>
<DataField name="heteroExperience" optype="categorical" dataType="string">
<Value value="0"/>
<Value value="1"/>
<Value value="2"/>
</DataField>
<DataField name="sexFrequency" optype="categorical" dataType="string">
<Value value="0"/>
<Value value="1"/>
<Value value="2"/>
<Value value="3"/>
<Value value="4"/>
<Value value="5"/>
</DataField>
<DataField name="isSexLike" optype="categorical" dataType="string">
<Value value="True"/>
<Value value="False"/>
</DataField>
<DataField name="isCar" optype="categorical" dataType="string">
<Value value="True"/>
<Value value="False"/>
</DataField>
<DataField name="isFreeDay" optype="categorical" dataType="string">
<Value value="True"/>
<Value value="False"/>
</DataField>
<DataField name="isInterest" optype="categorical" dataType="string">
<Value value="True"/>
<Value value="False"/>
</DataField>
<DataField name="isSports" optype="categorical" dataType="string">
<Value value="True"/>
<Value value="False"/>
</DataField>
<DataField name="isMusic" optype="categorical" dataType="string">
<Value value="True"/>
<Value value="False"/>
</DataField>
<DataField name="smoking" optype="categorical" dataType="string">
<Value value="0"/>
<Value value="1"/>
<Value value="2"/>
</DataField>
<DataField name="alcohol" optype="categorical" dataType="string">
<Value value="0"/>
<Value value="1"/>
<Value value="2"/>
<Value value="3"/>
</DataField>
<DataField name="drugs" optype="categorical" dataType="string">
<Value value="0"/>
<Value value="1"/>
<Value value="2"/>
<Value value="3"/>
</DataField>
<DataField name="aboutMe" optype="categorical" dataType="string">
<Value value="none"/>
<Value value="normal"/>
<Value value="high"/>
<Value value="veryhigh"/>
</DataField>
<DataField name="gender" optype="categorical" dataType="string">
<Value value="0"/>
<Value value="1"/>
</DataField>
</DataDictionary>
<TreeModel modelName="DecisionTree" functionName="classification" splitCharacteristic="multiSplit">
<MiningSchema>
<MiningField name="photos"/>
<MiningField name="age"/>
<MiningField name="frPairFF"/>
<MiningField name="frPairMF"/>
<MiningField name="frPairMM"/>
<MiningField name="minMaxAge"/>
<MiningField name="aimFriendship"/>
<MiningField name="aimLove"/>
<MiningField name="aimMarriage"/>
<MiningField name="aimOther"/>
<MiningField name="aimSex"/>
<MiningField name="marriage"/>
<MiningField name="kids"/>
<MiningField name="isBody"/>
<MiningField name="isProfession"/>
<MiningField name="dayRegime"/>
<MiningField name="isLanguages"/>
<MiningField name="materialStatus"/>
<MiningField name="household"/>
<MiningField name="isPriorities"/>
<MiningField name="priorityCareer"/>
<MiningField name="priorityEquilibrium"/>
<MiningField name="priorityFamily"/>
<MiningField name="priorityPubService"/>
<MiningField name="priorityRealization"/>
<MiningField name="prioritySex"/>
<MiningField name="priorityWealth"/>
<MiningField name="orientation"/>
<MiningField name="isHeteroExperience"/>
<MiningField name="heteroExperience"/>
<MiningField name="sexFrequency"/>
<MiningField name="isSexLike"/>
<MiningField name="isCar"/>
<MiningField name="isFreeDay"/>
<MiningField name="isInterest"/>
<MiningField name="isSports"/>
<MiningField name="isMusic"/>
<MiningField name="smoking"/>
<MiningField name="alcohol"/>
<MiningField name="drugs"/>
<MiningField name="aboutMe"/>
<MiningField name="gender" usageType="predicted"/>
</MiningSchema>
<Node id="0" score="1" recordCount="711586.0">
<True/>
<ScoreDistribution value="0" recordCount="345896.0"/>
<ScoreDistribution value="1" recordCount="365690.0"/>
<Node id="1" score="0" recordCount="585272.0">
<SimplePredicate field="isCar" operator="equal" value="False"/>
<ScoreDistribution value="0" recordCount="316478.0"/>
<ScoreDistribution value="1" recordCount="268794.0"/>
<Node id="2" score="0" recordCount="515284.0">
<SimplePredicate field="aimSex" operator="equal" value="False"/>
<ScoreDistribution value="0" recordCount="296625.0"/>
<ScoreDistribution value="1" recordCount="218659.0"/>
<Node id="3" score="1" recordCount="216729.0">
<SimplePredicate field="kids" operator="equal" value="0"/>
<ScoreDistribution value="0" recordCount="106818.0"/>
<ScoreDistribution value="1" recordCount="109911.0"/>
<Node id="4" score="1" recordCount="168007.0">
<SimplePredicate field="minMaxAge" operator="equal" value="18-20"/>
<ScoreDistribution value="0" recordCount="76085.0"/>
<ScoreDistribution value="1" recordCount="91922.0"/>
<Node id="5" score="1" recordCount="137058.0">
<SimplePredicate field="priorityFamily" operator="equal" value="False"/>
<ScoreDistribution value="0" recordCount="57824.0"/>
<ScoreDistribution value="1" recordCount="79234.0"/>
<Node id="6" score="1" recordCount="135772.0">
<SimplePredicate field="frPairFF" operator="equal" value="False"/>
<ScoreDistribution value="0" recordCount="57607.0"/>
<ScoreDistribution value="1" recordCount="78165.0"/>
<Node id="7" score="0" recordCount="7859.0">
<SimplePredicate field="aboutMe" operator="equal" value="high"/>
<ScoreDistribution value="0" recordCount="5040.0"/>
<ScoreDistribution value="1" recordCount="2819.0"/>
<Node id="8" score="0" recordCount="6970.0">
<SimplePredicate field="sexFrequency" operator="equal" value="0"/>
<ScoreDistribution value="0" recordCount="4647.0"/>
<ScoreDistribution value="1" recordCount="2323.0"/>
<Node id="9" score="0" recordCount="3167.0">
<SimplePredicate field="age" operator="lessOrEqual" value="26.0"/>
<ScoreDistribution value="0" recordCount="2398.0"/>
<ScoreDistribution value="1" recordCount="769.0"/>
<Node id="10" score="0" recordCount="2514.0">
<SimplePredicate field="orientation" operator="equal" value="0"/>
<ScoreDistribution value="0" recordCount="1957.0"/>
<ScoreDistribution value="1" recordCount="557.0"/>
</Node>
<Node id="11" score="0" recordCount="586.0">
<SimplePredicate field="orientation" operator="equal" value="1"/>
<ScoreDistribution value="0" recordCount="405.0"/>
<ScoreDistribution value="1" recordCount="181.0"/>
<Node id="12" score="0" recordCount="309.0">
<SimplePredicate field="isSports" operator="equal" value="False"/>
<ScoreDistribution value="0" recordCount="236.0"/>
<ScoreDistribution value="1" recordCount="73.0"/>
<Node id="13" score="0" recordCount="187.0">
<SimplePredicate field="age" operator="lessOrEqual" value="23.0"/>
<ScoreDistribution value="0" recordCount="157.0"/>
<ScoreDistribution value="1" recordCount="30.0"/>
</Node>
<Node id="14" score="0" recordCount="122.0">
<True/>
<ScoreDistribution value="0" recordCount="79.0"/>
<ScoreDistribution value="1" recordCount="43.0"/>
<Node id="15" score="0" recordCount="91.0">
<SimplePredicate field="isProfession" operator="equal" value="False"/>
<ScoreDistribution value="0" recordCount="65.0"/>
<ScoreDistribution value="1" recordCount="26.0"/>
</Node>
<Node id="16" score="1" recordCount="31.0">
<SimplePredicate field="isProfession" operator="equal" value="True"/>
<ScoreDistribution value="0" recordCount="14.0"/>
<ScoreDistribution value="1" recordCount="17.0"/>
<Node id="17" score="1" recordCount="15.0">
<SimplePredicate field="isMusic" operator="equal" value="False"/>
<ScoreDistribution value="0" recordCount="4.0"/>
<ScoreDistribution value="1" recordCount="11.0"/>
</Node>
<Node id="18" score="0" recordCount="16.0">
<SimplePredicate field="isMusic" operator="equal" value="True"/>
<ScoreDistribution value="0" recordCount="10.0"/>
<ScoreDistribution value="1" recordCount="6.0"/>
</Node>
</Node>
</Node>
</Node>
<Node id="19" score="0" recordCount="277.0">
<SimplePredicate field="isSports" operator="equal" value="True"/>
<ScoreDistribution value="0" recordCount="169.0"/>
<ScoreDistribution value="1" recordCount="108.0"/>
<Node id="20" score="0" recordCount="113.0">
<SimplePredicate field="dayRegime" operator="equal" value="0"/>
<ScoreDistribution value="0" recordCount="58.0"/>
<ScoreDistribution value="1" recordCount="55.0"/>
<Node id="21" score="1" recordCount="51.0">
<SimplePredicate field="drugs" operator="equal" value="0"/>
<ScoreDistribution value="0" recordCount="18.0"/>
<ScoreDistribution value="1" recordCount="33.0"/>
</Node>
<Node id="22" score="0" recordCount="61.0">
<SimplePredicate field="drugs" operator="equal" value="1"/>
<ScoreDistribution value="0" recordCount="40.0"/>
<ScoreDistribution value="1" recordCount="21.0"/>
</Node>
<Node id="23" score="1" recordCount="1.0">
<SimplePredicate field="drugs" operator="equal" value="2"/>
<ScoreDistribution value="0" recordCount="0.0"/>
<ScoreDistribution value="1" recordCount="1.0"/>
</Node>
<Node id="24" score="0" recordCount="0.0">
<SimplePredicate field="drugs" operator="equal" value="3"/>
<ScoreDistribution value="0" recordCount="0.0"/>
<ScoreDistribution value="1" recordCount="0.0"/>
</Node>
</Node>
<Node id="25" score="0" recordCount="143.0">
<SimplePredicate field="dayRegime" operator="equal" value="1"/>
<ScoreDistribution value="0" recordCount="97.0"/>
<ScoreDistribution value="1" recordCount="46.0"/>
<Node id="26" score="0" recordCount="126.0">
<SimplePredicate field="prioritySex" operator="equal" value="False"/>
<ScoreDistribution value="0" recordCount="90.0"/>
<ScoreDistribution value="1" recordCount="36.0"/>
</Node>
<Node id="27" score="1" recordCount="17.0">
<SimplePredicate field="prioritySex" operator="equal" value="True"/>
<ScoreDistribution value="0" recordCount="7.0"/>
<ScoreDistribution value="1" recordCount="10.0"/>
</Node>
</Node>
<Node id="28" score="0" recordCount="21.0">
<SimplePredicate field="dayRegime" operator="equal" value="2"/>
<ScoreDistribution value="0" recordCount="14.0"/>
<ScoreDistribution value="1" recordCount="7.0"/>
</Node>
</Node>
</Node>
<Node id="29" score="1" recordCount="19.0">
<SimplePredicate field="orientation" operator="equal" value="2"/>
<ScoreDistribution value="0" recordCount="0.0"/>
<ScoreDistribution value="1" recordCount="19.0"/>
</Node>
<Node id="30" score="0" recordCount="48.0">
<SimplePredicate field="orientation" operator="equal" value="3"/>
<ScoreDistribution value="0" recordCount="36.0"/>
<ScoreDistribution value="1" recordCount="12.0"/>
</Node>
</Node>
<Node id="31" score="0" recordCount="3803.0">
<True/>
<ScoreDistribution value="0" recordCount="2249.0"/>
<ScoreDistribution value="1" recordCount="1554.0"/>
<Node id="32" score="0" recordCount="3714.0">
<SimplePredicate field="aimOther" operator="equal" value="False"/>
<ScoreDistribution value="0" recordCount="2214.0"/>
<ScoreDistribution value="1" recordCount="1500.0"/>
<Node id="33" score="0" recordCount="3656.0">
<SimplePredicate field="priorityPubService" operator="equal" value="False"/>
<ScoreDistribution value="0" recordCount="2190.0"/>
<ScoreDistribution value="1" recordCount="1466.0"/>
<Node id="34" score="0" recordCount="3081.0">
<SimplePredicate field="materialStatus" operator="equal" value="0"/>
<ScoreDistribution value="0" recordCount="1907.0"/>
<ScoreDistribution value="1" recordCount="1174.0"/>
<Node id="35" score="0" recordCount="2858.0">
<SimplePredicate field="household" operator="equal" value="0"/>
<ScoreDistribution value="0" recordCount="1790.0"/>
<ScoreDistribution value="1" recordCount="1068.0"/>
<Node id="36" score="0" recordCount="2705.0">
<SimplePredicate field="heteroExperience" operator="equal" value="0"/>
<ScoreDistribution value="0" recordCount="1700.0"/>
<ScoreDistribution value="1" recordCount="1005.0"/>
<Node id="37" score="0" recordCount="2594.0">
<SimplePredicate field="isHeteroExperience" operator="equal" value="False"/>
<ScoreDistribution value="0" recordCount="1647.0"/>
<ScoreDistribution value="1" recordCount="947.0"/>
<Node id="38" score="0" recordCount="2085.0">
<SimplePredicate field="drugs" operator="equal" value="0"/>
<ScoreDistribution value="0" recordCount="1281.0"/>
<ScoreDistribution value="1" recordCount="804.0"/>
<Node id="39" score="0" recordCount="1946.0">
<SimplePredicate field="alcohol" operator="equal" value="0"/>
<ScoreDistribution value="0" recordCount="1209.0"/>
<ScoreDistribution value="1" recordCount="737.0"/>
<Node id="40" score="0" recordCount="1783.0">
<SimplePredicate field="isFreeDay" operator="equal" value="False"/>
<ScoreDistribution value="0" recordCount="1089.0"/>
<ScoreDistribution value="1" recordCount="694.0"/>
<Node id="41" score="0" recordCount="1717.0">
<SimplePredicate field="priorityEquilibrium" operator="equal" value="False"/>
<ScoreDistribution value="0" recordCount="1038.0"/>
<ScoreDistribution value="1" recordCount="679.0"/>
<Node id="42" score="0" recordCount="1593.0">
<SimplePredicate field="orientation" operator="equal" value="0"/>
<ScoreDistribution value="0" recordCount="966.0"/>
<ScoreDistribution value="1" recordCount="627.0"/>
<Node id="43" score="0" recordCount="1565.0">
<SimplePredicate field="aimLove" operator="equal" value="False"/>
<ScoreDistribution value="0" recordCount="952.0"/>
<ScoreDistribution value="1" recordCount="613.0"/>
<Node id="44" score="0" recordCount="1435.0">
<SimplePredicate field="marriage" operator="equal" value="0"/>
<ScoreDistribution value="0" recordCount="873.0"/>
<ScoreDistribution value="1" recordCount="562.0"/>
</Node>
<Node id="45" score="1" recordCount="27.0">
<SimplePredicate field="marriage" operator="equal" value="1"/>
<ScoreDistribution value="0" recordCount="12.0"/>
<ScoreDistribution value="1" recordCount="15.0"/>
<Node id="46" score="0" recordCount="12.0">
<SimplePredicate field="aimFriendship" operator="equal" value="False"/>
<ScoreDistribution value="0" recordCount="8.0"/>
<ScoreDistribution value="1" recordCount="4.0"/>
</Node>
<Node id="47" score="1" recordCount="15.0">
<SimplePredicate field="aimFriendship" operator="equal" value="True"/>
<ScoreDistribution value="0" recordCount="4.0"/>
<ScoreDistribution value="1" recordCount="11.0"/>
</Node>
</Node>
<Node id="48" score="0" recordCount="2.0">
<SimplePredicate field="marriage" operator="equal" value="2"/>
<ScoreDistribution value="0" recordCount="1.0"/>
<ScoreDistribution value="1" recordCount="1.0"/>
</Node>
<Node id="49" score="0" recordCount="1.0">
<SimplePredicate field="marriage" operator="equal" value="3"/>
<ScoreDistribution value="0" recordCount="1.0"/>
<ScoreDistribution value="1" recordCount="0.0"/>
</Node>
<Node id="50" score="0" recordCount="100.0">
<SimplePredicate field="marriage" operator="equal" value="4"/>
<ScoreDistribution value="0" recordCount="65.0"/>
<ScoreDistribution value="1" recordCount="35.0"/>
<Node id="51" score="0" recordCount="77.0">
<SimplePredicate field="aimFriendship" operator="equal" value="False"/>
<ScoreDistribution value="0" recordCount="53.0"/>
<ScoreDistribution value="1" recordCount="24.0"/>
</Node>
<Node id="52" score="0" recordCount="23.0">
<SimplePredicate field="aimFriendship" operator="equal" value="True"/>
<ScoreDistribution value="0" recordCount="12.0"/>
<ScoreDistribution value="1" recordCount="11.0"/>
<Node id="53" score="1" recordCount="11.0">
<SimplePredicate field="isLanguages" operator="equal" value="False"/>
<ScoreDistribution value="0" recordCount="3.0"/>
<ScoreDistribution value="1" recordCount="8.0"/>
</Node>
<Node id="54" score="0" recordCount="12.0">
<SimplePredicate field="isLanguages" operator="equal" value="True"/>
<ScoreDistribution value="0" recordCount="9.0"/>
<ScoreDistribution value="1" recordCount="3.0"/>
</Node>
</Node>
</Node>
</Node>
<Node id="55" score="0" recordCount="28.0">
<SimplePredicate field="aimLove" operator="equal" value="True"/>
<ScoreDistribution value="0" recordCount="14.0"/>
<ScoreDistribution value="1" recordCount="14.0"/>
<Node id="56" score="1" recordCount="11.0">
<SimplePredicate field="isLanguages" operator="equal" value="False"/>
<ScoreDistribution value="0" recordCount="3.0"/>
<ScoreDistribution value="1" recordCount="8.0"/>
</Node>
<Node id="57" score="0" recordCount="17.0">
<SimplePredicate field="isLanguages" operator="equal" value="True"/>
<ScoreDistribution value="0" recordCount="11.0"/>
<ScoreDistribution value="1" recordCount="6.0"/>
</Node>
</Node>
</Node>
<Node id="58" score="0" recordCount="108.0">
<SimplePredicate field="orientation" operator="equal" value="1"/>
<ScoreDistribution value="0" recordCount="63.0"/>
<ScoreDistribution value="1" recordCount="45.0"/>
<Node id="59" score="0" recordCount="85.0">
<SimplePredicate field="age" operator="lessOrEqual" value="37.0"/>
<ScoreDistribution value="0" recordCount="57.0"/>
<ScoreDistribution value="1" recordCount="28.0"/>
<Node id="60" score="0" recordCount="64.0">
<SimplePredicate field="isProfession" operator="equal" value="False"/>
<ScoreDistribution value="0" recordCount="48.0"/>
<ScoreDistribution value="1" recordCount="16.0"/>
</Node>
<Node id="61" score="1" recordCount="21.0">
<SimplePredicate field="isProfession" operator="equal" value="True"/>
<ScoreDistribution value="0" recordCount="9.0"/>
<ScoreDistribution value="1" recordCount="12.0"/>
</Node>
</Node>
<Node id="62" score="1" recordCount="23.0">
<True/>
<ScoreDistribution value="0" recordCount="6.0"/>
<ScoreDistribution value="1" recordCount="17.0"/>
</Node>
</Node>
<Node id="63" score="1" recordCount="2.0">
<SimplePredicate field="orientation" operator="equal" value="2"/>
<ScoreDistribution value="0" recordCount="0.0"/>
<ScoreDistribution value="1" recordCount="2.0"/>
</Node>
<Node id="64" score="0" recordCount="14.0">
<SimplePredicate field="orientation" operator="equal" value="3"/>
<ScoreDistribution value="0" recordCount="9.0"/>
<ScoreDistribution value="1" recordCount="5.0"/>
</Node>
</Node>
<Node id="65" score="0" recordCount="66.0">
<SimplePredicate field="priorityEquilibrium" operator="equal" value="True"/>
<ScoreDistribution value="0" recordCount="51.0"/>
<ScoreDistribution value="1" recordCount="15.0"/>
</Node>
</Node>
<Node id="66" score="0" recordCount="163.0">
<SimplePredicate field="isFreeDay" operator="equal" value="True"/>
<ScoreDistribution value="0" recordCount="120.0"/>
<ScoreDistribution value="1" recordCount="43.0"/>
</Node>
</Node>
<Node id="67" score="1" recordCount="35.0">
<SimplePredicate field="alcohol" operator="equal" value="1"/>
<ScoreDistribution value="0" recordCount="16.0"/>
<ScoreDistribution value="1" recordCount="19.0"/>
<Node id="68" score="1" recordCount="21.0">
<SimplePredicate field="isPriorities" operator="equal" value="False"/>
<ScoreDistribution value="0" recordCount="6.0"/>
<ScoreDistribution value="1" recordCount="15.0"/>
</Node>
<Node id="69" score="0" recordCount="14.0">
<SimplePredicate field="isPriorities" operator="equal" value="True"/>
<ScoreDistribution value="0" recordCount="10.0"/>
<ScoreDistribution value="1" recordCount="4.0"/>
</Node>
</Node>
<Node id="70" score="0" recordCount="91.0">
<SimplePredicate field="alcohol" operator="equal" value="2"/>
<ScoreDistribution value="0" recordCount="46.0"/>
<ScoreDistribution value="1" recordCount="45.0"/>
<Node id="71" score="0" recordCount="65.0">
<SimplePredicate field="orientation" operator="equal" value="0"/>
<ScoreDistribution value="0" recordCount="40.0"/>
<ScoreDistribution value="1" recordCount="25.0"/>
</Node>
<Node id="72" score="1" recordCount="26.0">
<SimplePredicate field="orientation" operator="equal" value="1"/>
<ScoreDistribution value="0" recordCount="6.0"/>
<ScoreDistribution value="1" recordCount="20.0"/>
</Node>
<Node id="73" score="0" recordCount="0.0">
<SimplePredicate field="orientation" operator="equal" value="2"/>
<ScoreDistribution value="0" recordCount="0.0"/>
<ScoreDistribution value="1" recordCount="0.0"/>
</Node>
<Node id="74" score="0" recordCount="0.0">
<SimplePredicate field="orientation" operator="equal" value="3"/>
<ScoreDistribution value="0" recordCount="0.0"/>
<ScoreDistribution value="1" recordCount="0.0"/>
</Node>
</Node>
<Node id="75" score="0" recordCount="13.0">
<SimplePredicate field="alcohol" operator="equal" value="3"/>
<ScoreDistribution value="0" recordCount="10.0"/>
<ScoreDistribution value="1" recordCount="3.0"/>
</Node>
</Node>
<Node id="76" score="0" recordCount="498.0">
<SimplePredicate field="drugs" operator="equal" value="1"/>
<ScoreDistribution value="0" recordCount="361.0"/>
<ScoreDistribution value="1" recordCount="137.0"/>
</Node>
<Node id="77" score="1" recordCount="11.0">
<SimplePredicate field="drugs" operator="equal" value="2"/>
<ScoreDistribution value="0" recordCount="5.0"/>
<ScoreDistribution value="1" recordCount="6.0"/>
</Node>
<Node id="78" score="0" recordCount="0.0">
<SimplePredicate field="drugs" operator="equal" value="3"/>
<ScoreDistribution value="0" recordCount="0.0"/>
<ScoreDistribution value="1" recordCount="0.0"/>
</Node>
</Node>
<Node id="79" score="1" recordCount="111.0">
<SimplePredicate field="isHeteroExperience" operator="equal" value="True"/>
<ScoreDistribution value="0" recordCount="53.0"/>
<ScoreDistribution value="1" recordCount="58.0"/>
<Node id="80" score="1" recordCount="81.0">
<SimplePredicate field="dayRegime" operator="equal" value="0"/>
<ScoreDistribution value="0" recordCount="35.0"/>
<ScoreDistribution value="1" recordCount="46.0"/>
<Node id="81" score="1" recordCount="57.0">
<SimplePredicate field="isInterest" operator="equal" value="False"/>
<ScoreDistribution value="0" recordCount="21.0"/>
<ScoreDistribution value="1" recordCount="36.0"/>
</Node>
<Node id="82" score="0" recordCount="24.0">
<SimplePredicate field="isInterest" operator="equal" value="True"/>
<ScoreDistribution value="0" recordCount="14.0"/>
<ScoreDistribution value="1" recordCount="10.0"/>
</Node>
</Node>
<Node id="83" score="0" recordCount="25.0">
<SimplePredicate field="dayRegime" operator="equal" value="1"/>
<ScoreDistribution value="0" recordCount="13.0"/>
<ScoreDistribution value="1" recordCount="12.0"/>
<Node id="84" score="0" recordCount="11.0">
<SimplePredicate field="age" operator="lessOrEqual" value="29.0"/>
<ScoreDistribution value="0" recordCount="9.0"/>
<ScoreDistribution value="1" recordCount="2.0"/>
</Node>
<Node id="85" score="1" recordCount="14.0">
<True/>
<ScoreDistribution value="0" recordCount="4.0"/>
<ScoreDistribution value="1" recordCount="10.0"/>
</Node>
</Node>
<Node id="86" score="0" recordCount="5.0">
<SimplePredicate field="dayRegime" operator="equal" value="2"/>
<ScoreDistribution value="0" recordCount="5.0"/>
<ScoreDistribution value="1" recordCount="0.0"/>
</Node>
</Node>
</Node>
<Node id="87" score="0" recordCount="146.0">
<SimplePredicate field="heteroExperience" operator="equal" value="1"/>
<ScoreDistribution value="0" recordCount="90.0"/>
<ScoreDistribution value="1" recordCount="56.0"/>
<Node id="88" score="1" recordCount="71.0">
<SimplePredicate field="isSports" operator="equal" value="False"/>
<ScoreDistribution value="0" recordCount="33.0"/>
<ScoreDistribution value="1" recordCount="38.0"/>
<Node id="89" score="1" recordCount="57.0">
<SimplePredicate field="marriage" operator="equal" value="0"/>
<ScoreDistribution value="0" recordCount="27.0"/>
<ScoreDistribution value="1" recordCount="30.0"/>
<Node id="90" score="0" recordCount="35.0">
<SimplePredicate field="isMusic" operator="equal" value="False"/>
<ScoreDistribution value="0" recordCount="20.0"/>
<ScoreDistribution value="1" recordCount="15.0"/>
</Node>
<Node id="91" score="1" recordCount="22.0">
<SimplePredicate field="isMusic" operator="equal" value="True"/>
<ScoreDistribution value="0" recordCount="7.0"/>
<ScoreDistribution value="1" recordCount="15.0"/>
</Node>
</Node>
<Node id="92" score="0" recordCount="2.0">
<SimplePredicate field="marriage" operator="equal" value="1"/>
<ScoreDistribution value="0" recordCount="2.0"/>
<ScoreDistribution value="1" recordCount="0.0"/>
</Node>
<Node id="93" score="0" recordCount="0.0">
<SimplePredicate field="marriage" operator="equal" value="2"/>
<ScoreDistribution value="0" recordCount="0.0"/>
<ScoreDistribution value="1" recordCount="0.0"/>
</Node>
<Node id="94" score="0" recordCount="0.0">
<SimplePredicate field="marriage" operator="equal" value="3"/>
<ScoreDistribution value="0" recordCount="0.0"/>
<ScoreDistribution value="1" recordCount="0.0"/>
</Node>
<Node id="95" score="1" recordCount="12.0">
<SimplePredicate field="marriage" operator="equal" value="4"/>
<ScoreDistribution value="0" recordCount="4.0"/>
<ScoreDistribution value="1" recordCount="8.0"/>
</Node>
</Node>
<Node id="96" score="0" recordCount="75.0">
<SimplePredicate field="isSports" operator="equal" value="True"/>
<ScoreDistribution value="0" recordCount="57.0"/>
<ScoreDistribution value="1" recordCount="18.0"/>
</Node>
</Node>
<Node id="97" score="1" recordCount="7.0">
<SimplePredicate field="heteroExperience" operator="equal" value="2"/>
<ScoreDistribution value="0" recordCount="0.0"/>
<ScoreDistribution value="1" recordCount="7.0"/>
</Node>
</Node>
<Node id="98" score="0" recordCount="180.0">
<SimplePredicate field="household" operator="equal" value="1"/>
<ScoreDistribution value="0" recordCount="92.0"/>
<ScoreDistribution value="1" recordCount="88.0"/>
<Node id="99" score="0" recordCount="120.0">
<SimplePredicate field="orientation" operator="equal" value="0"/>
<ScoreDistribution value="0" recordCount="70.0"/>
<ScoreDistribution value="1" recordCount="50.0"/>
<Node id="100" score="1" recordCount="58.0">
<SimplePredicate field="dayRegime" operator="equal" value="0"/>
<ScoreDistribution value="0" recordCount="24.0"/>
<ScoreDistribution value="1" recordCount="34.0"/>
<Node id="101" score="1" recordCount="47.0">
<SimplePredicate field="age" operator="lessOrEqual" value="39.0"/>
<ScoreDistribution value="0" recordCount="14.0"/>
<ScoreDistribution value="1" recordCount="33.0"/>
</Node>
<Node id="102" score="0" recordCount="11.0">
<True/>
<ScoreDistribution value="0" recordCount="10.0"/>
<ScoreDistribution value="1" recordCount="1.0"/>
</Node>
</Node>
<Node id="103" score="0" recordCount="47.0">
<SimplePredicate field="dayRegime" operator="equal" value="1"/>
<ScoreDistribution value="0" recordCount="35.0"/>
<ScoreDistribution value="1" recordCount="12.0"/>
</Node>
<Node id="104" score="0" recordCount="15.0">
<SimplePredicate field="dayRegime" operator="equal" value="2"/>
<ScoreDistribution value="0" recordCount="11.0"/>
<ScoreDistribution value="1" recordCount="4.0"/>
</Node>
</Node>
<Node id="105" score="1" recordCount="56.0">
<SimplePredicate field="orientation" operator="equal" value="1"/>
<ScoreDistribution value="0" recordCount="19.0"/>
<ScoreDistribution value="1" recordCount="37.0"/>
</Node>
<Node id="106" score="1" recordCount="1.0">
<SimplePredicate field="orientation" operator="equal" value="2"/>
<ScoreDistribution value="0" recordCount="0.0"/>
<ScoreDistribution value="1" recordCount="1.0"/>
</Node>
<Node id="107" score="0" recordCount="3.0">
<SimplePredicate field="orientation" operator="equal" value="3"/>
<ScoreDistribution value="0" recordCount="3.0"/>
<ScoreDistribution value="1" recordCount="0.0"/>
</Node>
</Node>
<Node id="108" score="0" recordCount="1.0">
<SimplePredicate field="household" operator="equal" value="2"/>
<ScoreDistribution value="0" recordCount="1.0"/>
<ScoreDistribution value="1" recordCount="0.0"/>
</Node>
<Node id="109" score="0" recordCount="20.0">
<SimplePredicate field="household" operator="equal" value="3"/>
<ScoreDistribution value="0" recordCount="15.0"/>
<ScoreDistribution value="1" recordCount="5.0"/>
</Node>
<Node id="110" score="0" recordCount="1.0">
<SimplePredicate field="household" operator="equal" value="4"/>
<ScoreDistribution value="0" recordCount="1.0"/>
<ScoreDistribution value="1" recordCount="0.0"/>
</Node>
<Node id="111" score="0" recordCount="12.0">
<SimplePredicate field="household" operator="equal" value="5"/>
<ScoreDistribution value="0" recordCount="8.0"/>
<ScoreDistribution value="1" recordCount="4.0"/>
</Node>
<Node id="112" score="1" recordCount="9.0">
<SimplePredicate field="household" operator="equal" value="6"/>
<ScoreDistribution value="0" recordCount="0.0"/>
<ScoreDistribution value="1" recordCount="9.0"/>
</Node>
</Node>
<Node id="113" score="1" recordCount="32.0">
<SimplePredicate field="materialStatus" operator="equal" value="1"/>
<ScoreDistribution value="0" recordCount="12.0"/>
<ScoreDistribution value="1" recordCount="20.0"/>
<Node id="114" score="0" recordCount="12.0">
<SimplePredicate field="isProfession" operator="equal" value="False"/>
<ScoreDistribution value="0" recordCount="7.0"/>
<ScoreDistribution value="1" recordCount="5.0"/>
</Node>
<Node id="115" score="1" recordCount="20.0">
<SimplePredicate field="isProfession" operator="equal" value="True"/>
<ScoreDistribution value="0" recordCount="5.0"/>
<ScoreDistribution value="1" recordCount="15.0"/>
</Node>
</Node>
<Node id="116" score="0" recordCount="62.0">
<SimplePredicate field="materialStatus" operator="equal" value="2"/>
<ScoreDistribution value="0" recordCount="39.0"/>
<ScoreDistribution value="1" recordCount="23.0"/>
</Node>
<Node id="117" score="0" recordCount="278.0">
<SimplePredicate field="materialStatus" operator="equal" value="3"/>
<ScoreDistribution value="0" recordCount="148.0"/>
<ScoreDistribution value="1" recordCount="130.0"/>
<Node id="118" score="1" recordCount="114.0">
<SimplePredicate field="household" operator="equal" value="0"/>
<ScoreDistribution value="0" recordCount="46.0"/>
<ScoreDistribution value="1" recordCount="68.0"/>
<Node id="119" score="0" recordCount="62.0">
<SimplePredicate field="isProfession" operator="equal" value="False"/>
<ScoreDistribution value="0" recordCount="31.0"/>
<ScoreDistribution value="1" recordCount="31.0"/>
<Node id="120" score="1" recordCount="29.0">
<SimplePredicate field="isSports" operator="equal" value="False"/>
<ScoreDistribution value="0" recordCount="11.0"/>
<ScoreDistribution value="1" recordCount="18.0"/>
</Node>
<Node id="121" score="0" recordCount="33.0">
<SimplePredicate field="isSports" operator="equal" value="True"/>
<ScoreDistribution value="0" recordCount="20.0"/>
<ScoreDistribution value="1" recordCount="13.0"/>
</Node>
</Node>
<Node id="122" score="1" recordCount="52.0">
<SimplePredicate field="isProfession" operator="equal" value="True"/>
<ScoreDistribution value="0" recordCount="15.0"/>
<ScoreDistribution value="1" recordCount="37.0"/>
</Node>
</Node>
<Node id="123" score="0" recordCount="123.0">
<SimplePredicate field="household" operator="equal" value="1"/>
<ScoreDistribution value="0" recordCount="74.0"/>
<ScoreDistribution value="1" recordCount="49.0"/>
<Node id="124" score="0" recordCount="45.0">
<SimplePredicate field="smoking" operator="equal" value="0"/>
<ScoreDistribution value="0" recordCount="34.0"/>
<ScoreDistribution value="1" recordCount="11.0"/>
</Node>
<Node id="125" score="0" recordCount="44.0">
<SimplePredicate field="smoking" operator="equal" value="1"/>
<ScoreDistribution value="0" recordCount="27.0"/>
<ScoreDistribution value="1" recordCount="17.0"/>
<Node id="126" score="0" recordCount="28.0">
<SimplePredicate field="priorityWealth" operator="equal" value="False"/>
<ScoreDistribution value="0" recordCount="14.0"/>
<ScoreDistribution value="1" recordCount="14.0"/>
<Node id="127" score="0" recordCount="15.0">
<SimplePredicate field="isProfession" operator="equal" value="False"/>
<ScoreDistribution value="0" recordCount="9.0"/>
<ScoreDistribution value="1" recordCount="6.0"/>
</Node>
<Node id="128" score="1" recordCount="13.0">
<SimplePredicate field="isProfession" operator="equal" value="True"/>
<ScoreDistribution value="0" recordCount="5.0"/>
<ScoreDistribution value="1" recordCount="8.0"/>
</Node>
</Node>
<Node id="129" score="0" recordCount="16.0">
<SimplePredicate field="priorityWealth" operator="equal" value="True"/>
<ScoreDistribution value="0" recordCount="13.0"/>
<ScoreDistribution value="1" recordCount="3.0"/>
</Node>
</Node>
<Node id="130" score="1" recordCount="34.0">
<SimplePredicate field="smoking" operator="equal" value="2"/>
<ScoreDistribution value="0" recordCount="13.0"/>
<ScoreDistribution value="1" recordCount="21.0"/>
</Node>
</Node>
<Node id="131" score="1" recordCount="2.0">
<SimplePredicate field="household" operator="equal" value="2"/>
<ScoreDistribution value="0" recordCount="0.0"/>
<ScoreDistribution value="1" recordCount="2.0"/>
</Node>
<Node id="132" score="0" recordCount="21.0">
<SimplePredicate field="household" operator="equal" value="3"/>
<ScoreDistribution value="0" recordCount="15.0"/>
<ScoreDistribution value="1" recordCount="6.0"/>
</Node>
<Node id="133" score="0" recordCount="2.0">
<SimplePredicate field="household" operator="equal" value="4"/>
<ScoreDistribution value="0" recordCount="2.0"/>
<ScoreDistribution value="1" recordCount="0.0"/>
</Node>
<Node id="134" score="0" recordCount="12.0">
<SimplePredicate field="household" operator="equal" value="5"/>
<ScoreDistribution value="0" recordCount="9.0"/>
<ScoreDistribution value="1" recordCount="3.0"/>
</Node>
<Node id="135" score="0" recordCount="4.0">
<SimplePredicate field="household" operator="equal" value="6"/>
<ScoreDistribution value="0" recordCount="2.0"/>
<ScoreDistribution value="1" recordCount="2.0"/>
</Node>
</Node>
<Node id="136" score="1" recordCount="203.0">
<SimplePredicate field="materialStatus" operator="equal" value="4"/>
<ScoreDistribution value="0" recordCount="84.0"/>
<ScoreDistribution value="1" recordCount="119.0"/>
<Node id="137" score="0" recordCount="28.0">
<SimplePredicate field="isLanguages" operator="equal" value="False"/>
<ScoreDistribution value="0" recordCount="17.0"/>
<ScoreDistribution value="1" recordCount="11.0"/>
<Node id="138" score="1" recordCount="16.0">
<SimplePredicate field="isInterest" operator="equal" value="False"/>
<ScoreDistribution value="0" recordCount="7.0"/>
<ScoreDistribution value="1" recordCount="9.0"/>
</Node>
<Node id="139" score="0" recordCount="12.0">
<SimplePredicate field="isInterest" operator="equal" value="True"/>
<ScoreDistribution value="0" recordCount="10.0"/>
<ScoreDistribution value="1" recordCount="2.0"/>
</Node>
</Node>
<Node id="140" score="1" recordCount="175.0">
<SimplePredicate field="isLanguages" operator="equal" value="True"/>
<ScoreDistribution value="0" recordCount="67.0"/>
<ScoreDistribution value="1" recordCount="108.0"/>
<Node id="141" score="1" recordCount="68.0">
<SimplePredicate field="household" operator="equal" value="0"/>
<ScoreDistribution value="0" recordCount="17.0"/>
<ScoreDistribution value="1" recordCount="51.0"/>
<Node id="142" score="1" recordCount="56.0">
<SimplePredicate field="priorityWealth" operator="equal" value="False"/>
<ScoreDistribution value="0" recordCount="17.0"/>
<ScoreDistribution value="1" recordCount="39.0"/>
<Node id="143" score="1" recordCount="26.0">
<SimplePredicate field="isPriorities" operator="equal" value="False"/>
<ScoreDistribution value="0" recordCount="3.0"/>
<ScoreDistribution value="1" recordCount="23.0"/>
</Node>
<Node id="144" score="1" recordCount="30.0">
<SimplePredicate field="isPriorities" operator="equal" value="True"/>
<ScoreDistribution value="0" recordCount="14.0"/>
<ScoreDistribution value="1" recordCount="16.0"/>
<Node id="145" score="0" recordCount="20.0">
<SimplePredicate field="age" operator="lessOrEqual" value="35.0"/>
<ScoreDistribution value="0" recordCount="12.0"/>
<ScoreDistribution value="1" recordCount="8.0"/>
</Node>
<Node id="146" score="1" recordCount="10.0">
<True/>
<ScoreDistribution value="0" recordCount="2.0"/>
<ScoreDistribution value="1" recordCount="8.0"/>
</Node>
</Node>
</Node>
<Node id="147" score="1" recordCount="12.0">
<SimplePredicate field="priorityWealth" operator="equal" value="True"/>
<ScoreDistribution value="0" recordCount="0.0"/>
<ScoreDistribution value="1" recordCount="12.0"/>
</Node>
</Node>
<Node id="148" score="1" recordCount="96.0">
<SimplePredicate field="household" operator="equal" value="1"/>
<ScoreDistribution value="0" recordCount="45.0"/>
<ScoreDistribution value="1" recordCount="51.0"/>
<Node id="149" score="0" recordCount="59.0">
<SimplePredicate field="orientation" operator="equal" value="0"/>
<ScoreDistribution value="0" recordCount="31.0"/>
<ScoreDistribution value="1" recordCount="28.0"/>
<Node id="150" score="1" recordCount="46.0">
<SimplePredicate field="isSexLike" operator="equal" value="False"/>
<ScoreDistribution value="0" recordCount="20.0"/>
<ScoreDistribution value="1" recordCount="26.0"/>
</Node>
<Node id="151" score="0" recordCount="13.0">
<SimplePredicate field="isSexLike" operator="equal" value="True"/>
<ScoreDistribution value="0" recordCount="11.0"/>
<ScoreDistribution value="1" recordCount="2.0"/>
</Node>
</Node>
<Node id="152" score="1" recordCount="36.0">
<SimplePredicate field="orientation" operator="equal" value="1"/>
<ScoreDistribution value="0" recordCount="13.0"/>
<ScoreDistribution value="1" recordCount="23.0"/>
</Node>
<Node id="153" score="0" recordCount="0.0">
<SimplePredicate field="orientation" operator="equal" value="2"/>
<ScoreDistribution value="0" recordCount="0.0"/>
<ScoreDistribution value="1" recordCount="0.0"/>
</Node>
<Node id="154" score="0" recordCount="1.0">
<SimplePredicate field="orientation" operator="equal" value="3"/>
<ScoreDistribution value="0" recordCount="1.0"/>
<ScoreDistribution value="1" recordCount="0.0"/>
</Node>
</Node>
<Node id="155" score="0" recordCount="0.0">
<SimplePredicate field="household" operator="equal" value="2"/>
<ScoreDistribution value="0" recordCount="0.0"/>
<ScoreDistribution value="1" recordCount="0.0"/>
</Node>
<Node id="156" score="0" recordCount="0.0">
<SimplePredicate field="household" operator="equal" value="3"/>
<ScoreDistribution value="0" recordCount="0.0"/>
<ScoreDistribution value="1" recordCount="0.0"/>
</Node>
<Node id="157" score="0" recordCount="1.0">
<SimplePredicate field="household" operator="equal" value="4"/>
<ScoreDistribution value="0" recordCount="1.0"/>
<ScoreDistribution value="1" recordCount="0.0"/>
</Node>
<Node id="158" score="1" recordCount="5.0">
<SimplePredicate field="household" operator="equal" value="5"/>
<ScoreDistribution value="0" recordCount="2.0"/>
<ScoreDistribution value="1" recordCount="3.0"/>
</Node>
<Node id="159" score="1" recordCount="5.0">
<SimplePredicate field="household" operator="equal" value="6"/>
<ScoreDistribution value="0" recordCount="2.0"/>
<ScoreDistribution value="1" recordCount="3.0"/>
</Node>
</Node>
</Node>
</Node>
<Node id="160" score="1" recordCount="58.0">
<SimplePredicate field="priorityPubService" operator="equal" value="True"/>
<ScoreDistribution value="0" recordCount="24.0"/>
<ScoreDistribution value="1" recordCount="34.0"/>
<Node id="161" score="1" recordCount="37.0">
<SimplePredicate field="household" operator="equal" value="0"/>
<ScoreDistribution value="0" recordCount="17.0"/>
<ScoreDistribution value="1" recordCount="20.0"/>
<Node id="162" score="0" recordCount="22.0">
<SimplePredicate field="orientation" operator="equal" value="0"/>
<ScoreDistribution value="0" recordCount="13.0"/>
<ScoreDistribution value="1" recordCount="9.0"/>
<Node id="163" score="1" recordCount="10.0">
<SimplePredicate field="priorityEquilibrium" operator="equal" value="False"/>
<ScoreDistribution value="0" recordCount="4.0"/>
<ScoreDistribution value="1" recordCount="6.0"/>
</Node>
<Node id="164" score="0" recordCount="12.0">
<SimplePredicate field="priorityEquilibrium" operator="equal" value="True"/>
<ScoreDistribution value="0" recordCount="9.0"/>
<ScoreDistribution value="1" recordCount="3.0"/>
</Node>
</Node>
<Node id="165" score="1" recordCount="15.0">
<SimplePredicate field="orientation" operator="equal" value="1"/>
<ScoreDistribution value="0" recordCount="4.0"/>
<ScoreDistribution value="1" recordCount="11.0"/>
</Node>
<Node id="166" score="0" recordCount="0.0">
<SimplePredicate field="orientation" operator="equal" value="2"/>
<ScoreDistribution value="0" recordCount="0.0"/>
<ScoreDistribution value="1" recordCount="0.0"/>
</Node>
<Node id="167" score="0" recordCount="0.0">
<SimplePredicate field="orientation" operator="equal" value="3"/>
<ScoreDistribution value="0" recordCount="0.0"/>
<ScoreDistribution value="1" recordCount="0.0"/>
</Node>
</Node>
<Node id="168" score="1" recordCount="17.0">
<SimplePredicate field="household" operator="equal" value="1"/>
<ScoreDistribution value="0" recordCount="5.0"/>
<ScoreDistribution value="1" recordCount="12.0"/>
</Node>
<Node id="169" score="0" recordCount="0.0">
<SimplePredicate field="household" operator="equal" value="2"/>
<ScoreDistribution value="0" recordCount="0.0"/>
<ScoreDistribution value="1" recordCount="0.0"/>
</Node>
<Node id="170" score="0" recordCount="2.0">
<SimplePredicate field="household" operator="equal" value="3"/>
<ScoreDistribution value="0" recordCount="2.0"/>
<ScoreDistribution value="1" recordCount="0.0"/>
</Node>
<Node id="171" score="0" recordCount="0.0">
<SimplePredicate field="household" operator="equal" value="4"/>
<ScoreDistribution value="0" recordCount="0.0"/>
<ScoreDistribution value="1" recordCount="0.0"/>
</Node>
<Node id="172" score="0" recordCount="0.0">
<SimplePredicate field="household" operator="equal" value="5"/>
<ScoreDistribution value="0" recordCount="0.0"/>
<ScoreDistribution value="1" recordCount="0.0"/>
</Node>
<Node id="173" score="1" recordCount="2.0">
<SimplePredicate field="household" operator="equal" value="6"/>
<ScoreDistribution value="0" recordCount="0.0"/>
<ScoreDistribution value="1" recordCount="2.0"/>
</Node>
</Node>
</Node>
<Node id="174" score="1" recordCount="89.0">
<SimplePredicate field="aimOther" operator="equal" value="True"/>
<ScoreDistribution value="0" recordCount="35.0"/>
<ScoreDistribution value="1" recordCount="54.0"/>
<Node id="175" score="1" recordCount="21.0">
<SimplePredicate field="aimFriendship" operator="equal" value="False"/>
<ScoreDistribution value="0" recordCount="3.0"/>
<ScoreDistribution value="1" recordCount="18.0"/>
</Node>
<Node id="176" score="1" recordCount="68.0">
<SimplePredicate field="aimFriendship" operator="equal" value="True"/>
<ScoreDistribution value="0" recordCount="32.0"/>
<ScoreDistribution value="1" recordCount="36.0"/>
<Node id="177" score="0" recordCount="24.0">
<SimplePredicate field="age" operator="lessOrEqual" value="29.0"/>
<ScoreDistribution value="0" recordCount="17.0"/>
<ScoreDistribution value="1" recordCount="7.0"/>
</Node>
<Node id="178" score="1" recordCount="44.0">
<True/>
<ScoreDistribution value="0" recordCount="15.0"/>
<ScoreDistribution value="1" recordCount="29.0"/>
</Node>
</Node>
</Node>
</Node>
</Node>
<Node id="179" score="1" recordCount="336.0">
<SimplePredicate field="sexFrequency" operator="equal" value="1"/>
<ScoreDistribution value="0" recordCount="157.0"/>
<ScoreDistribution value="1" recordCount="179.0"/>
<Node id="180" score="1" recordCount="322.0">
<SimplePredicate field="aimOther" operator="equal" value="False"/>
<ScoreDistribution value="0" recordCount="155.0"/>
<ScoreDistribution value="1" recordCount="167.0"/>
<Node id="181" score="0" recordCount="100.0">
<SimplePredicate field="age" operator="lessOrEqual" value="23.0"/>
<ScoreDistribution value="0" recordCount="64.0"/>
<ScoreDistribution value="1" recordCount="36.0"/>
</Node>
<Node id="182" score="1" recordCount="222.0">
<True/>
<ScoreDistribution value="0" recordCount="91.0"/>
<ScoreDistribution value="1" recordCount="131.0"/>
<Node id="183" score="0" recordCount="13.0">
<SimplePredicate field="isLanguages" operator="equal" value="False"/>
<ScoreDistribution value="0" recordCount="8.0"/>
<ScoreDistribution value="1" recordCount="5.0"/>
</Node>
<Node id="184" score="1" recordCount="209.0">
<SimplePredicate field="isLanguages" operator="equal" value="True"/>
<ScoreDistribution value="0" recordCount="83.0"/>
<ScoreDistribution value="1" recordCount="126.0"/>
<Node id="185" score="1" recordCount="198.0">
<SimplePredicate field="aimLove" operator="equal" value="False"/>
<ScoreDistribution value="0" recordCount="82.0"/>
<ScoreDistribution value="1" recordCount="116.0"/>
<Node id="186" score="1" recordCount="51.0">
<SimplePredicate field="orientation" operator="equal" value="0"/>
<ScoreDistribution value="0" recordCount="21.0"/>
<ScoreDistribution value="1" recordCount="30.0"/>
<Node id="187" score="1" recordCount="37.0">
<SimplePredicate field="age" operator="lessOrEqual" value="32.0"/>
<ScoreDistribution value="0" recordCount="10.0"/>
<ScoreDistribution value="1" recordCount="27.0"/>
</Node>
<Node id="188" score="0" recordCount="14.0">
<True/>
<ScoreDistribution value="0" recordCount="11.0"/>
<ScoreDistribution value="1" recordCount="3.0"/>
</Node>
</Node>
<Node id="189" score="1" recordCount="131.0">
<SimplePredicate field="orientation" operator="equal" value="1"/>
<ScoreDistribution value="0" recordCount="52.0"/>
<ScoreDistribution value="1" recordCount="79.0"/>
<Node id="190" score="1" recordCount="89.0">
<SimplePredicate field="isProfession" operator="equal" value="False"/>
<ScoreDistribution value="0" recordCount="44.0"/>
<ScoreDistribution value="1" recordCount="45.0"/>
<Node id="191" score="1" recordCount="59.0">
<SimplePredicate field="household" operator="equal" value="0"/>
<ScoreDistribution value="0" recordCount="25.0"/>
<ScoreDistribution value="1" recordCount="34.0"/>
<Node id="192" score="1" recordCount="46.0">
<SimplePredicate field="isPriorities" operator="equal" value="False"/>
<ScoreDistribution value="0" recordCount="22.0"/>
<ScoreDistribution value="1" recordCount="24.0"/>
<Node id="193" score="1" recordCount="16.0">
<SimplePredicate field="age" operator="lessOrEqual" value="26.0"/>
<ScoreDistribution value="0" recordCount="5.0"/>
<ScoreDistribution value="1" recordCount="11.0"/>
</Node>
<Node id="194" score="0" recordCount="30.0">
<True/>
<ScoreDistribution value="0" recordCount="17.0"/>
<ScoreDistribution value="1" recordCount="13.0"/>
</Node>
</Node>
<Node id="195" score="1" recordCount="13.0">
<SimplePredicate field="isPriorities" operator="equal" value="True"/>
<ScoreDistribution value="0" recordCount="3.0"/>
<ScoreDistribution value="1" recordCount="10.0"/>
</Node>
</Node>
<Node id="196" score="0" recordCount="21.0">
<SimplePredicate field="household" operator="equal" value="1"/>
<ScoreDistribution value="0" recordCount="14.0"/>
<ScoreDistribution value="1" recordCount="7.0"/>
</Node>
<Node id="197" score="0" recordCount="0.0">
<SimplePredicate field="household" operator="equal" value="2"/>
<ScoreDistribution value="0" recordCount="0.0"/>
<ScoreDistribution value="1" recordCount="0.0"/>
</Node>
<Node id="198" score="0" recordCount="6.0">
<SimplePredicate field="household" operator="equal" value="3"/>
<ScoreDistribution value="0" recordCount="4.0"/>
<ScoreDistribution value="1" recordCount="2.0"/>
</Node>
<Node id="199" score="0" recordCount="1.0">
<SimplePredicate field="household" operator="equal" value="4"/>
<ScoreDistribution value="0" recordCount="1.0"/>
<ScoreDistribution value="1" recordCount="0.0"/>
</Node>
<Node id="200" score="1" recordCount="1.0">
<SimplePredicate field="household" operator="equal" value="5"/>
<ScoreDistribution value="0" recordCount="0.0"/>
<ScoreDistribution value="1" recordCount="1.0"/>
</Node>
<Node id="201" score="1" recordCount="1.0">
<SimplePredicate field="household" operator="equal" value="6"/>
<ScoreDistribution value="0" recordCount="0.0"/>
<ScoreDistribution value="1" recordCount="1.0"/>
</Node>
</Node>
<Node id="202" score="1" recordCount="42.0">
<SimplePredicate field="isProfession" operator="equal" value="True"/>
<ScoreDistribution value="0" recordCount="8.0"/>
<ScoreDistribution value="1" recordCount="34.0"/>
</Node>
</Node>
<Node id="203" score="1" recordCount="3.0">
<SimplePredicate field="orientation" operator="equal" value="2"/>
<ScoreDistribution value="0" recordCount="0.0"/>
<ScoreDistribution value="1" recordCount="3.0"/>
</Node>
<Node id="204" score="0" recordCount="13.0">
<SimplePredicate field="orientation" operator="equal" value="3"/>
<ScoreDistribution value="0" recordCount="9.0"/>
<ScoreDistribution value="1" recordCount="4.0"/>
</Node>
</Node>
<Node id="205" score="1" recordCount="11.0">
<SimplePredicate field="aimLove" operator="equal" value="True"/>
<ScoreDistribution value="0" recordCount="1.0"/>
<ScoreDistribution value="1" recordCount="10.0"/>
</Node>
</Node>
</Node>
</Node>
<Node id="206" score="1" recordCount="14.0">
<SimplePredicate field="aimOther" operator="equal" value="True"/>
<ScoreDistribution value="0" recordCount="2.0"/>
<ScoreDistribution value="1" recordCount="12.0"/>
</Node>
</Node>
<Node id="207" score="1" recordCount="295.0">
<SimplePredicate field="sexFrequency" operator="equal" value="2"/>
<ScoreDistribution value="0" recordCount="132.0"/>
<ScoreDistribution value="1" recordCount="163.0"/>
<Node id="208" score="0" recordCount="133.0">
<SimplePredicate field="age" operator="lessOrEqual" value="26.0"/>
<ScoreDistribution value="0" recordCount="79.0"/>
<ScoreDistribution value="1" recordCount="54.0"/>
<Node id="209" score="1" recordCount="61.0">
<SimplePredicate field="dayRegime" operator="equal" value="0"/>
<ScoreDistribution value="0" recordCount="26.0"/>
<ScoreDistribution value="1" recordCount="35.0"/>
<Node id="210" score="1" recordCount="17.0">
<SimplePredicate field="alcohol" operator="equal" value="0"/>
<ScoreDistribution value="0" recordCount="7.0"/>
<ScoreDistribution value="1" recordCount="10.0"/>
</Node>
<Node id="211" score="1" recordCount="9.0">
<SimplePredicate field="alcohol" operator="equal" value="1"/>
<ScoreDistribution value="0" recordCount="1.0"/>
<ScoreDistribution value="1" recordCount="8.0"/>
</Node>
<Node id="212" score="1" recordCount="33.0">
<SimplePredicate field="alcohol" operator="equal" value="2"/>
<ScoreDistribution value="0" recordCount="16.0"/>
<ScoreDistribution value="1" recordCount="17.0"/>
<Node id="213" score="0" recordCount="2.0">
<SimplePredicate field="smoking" operator="equal" value="0"/>
<ScoreDistribution value="0" recordCount="2.0"/>
<ScoreDistribution value="1" recordCount="0.0"/>
</Node>
<Node id="214" score="0" recordCount="16.0">
<SimplePredicate field="smoking" operator="equal" value="1"/>
<ScoreDistribution value="0" recordCount="9.0"/>
<ScoreDistribution value="1" recordCount="7.0"/>
</Node>
<Node id="215" score="1" recordCount="15.0">
<SimplePredicate field="smoking" operator="equal" value="2"/>
<ScoreDistribution value="0" recordCount="5.0"/>
<ScoreDistribution value="1" recordCount="10.0"/>
</Node>
</Node>
<Node id="216" score="0" recordCount="2.0">
<SimplePredicate field="alcohol" operator="equal" value="3"/>
<ScoreDistribution value="0" recordCount="2.0"/>
<ScoreDistribution value="1" recordCount="0.0"/>
</Node>
</Node>
<Node id="217" score="0" recordCount="52.0">
<SimplePredicate field="dayRegime" operator="equal" value="1"/>
<ScoreDistribution value="0" recordCount="40.0"/>
<ScoreDistribution value="1" recordCount="12.0"/>
</Node>
<Node id="218" score="0" recordCount="20.0">
<SimplePredicate field="dayRegime" operator="equal" value="2"/>
<ScoreDistribution value="0" recordCount="13.0"/>
<ScoreDistribution value="1" recordCount="7.0"/>
</Node>
</Node>
<Node id="219" score="1" recordCount="162.0">
<True/>
<ScoreDistribution value="0" recordCount="53.0"/>
<ScoreDistribution value="1" recordCount="109.0"/>
</Node>
</Node>
<Node id="220" score="1" recordCount="183.0">
<SimplePredicate field="sexFrequency" operator="equal" value="3"/>
<ScoreDistribution value="0" recordCount="76.0"/>
<ScoreDistribution value="1" recordCount="107.0"/>
<Node id="221" score="1" recordCount="162.0">
<SimplePredicate field="prioritySex" operator="equal" value="False"/>
<ScoreDistribution value="0" recordCount="74.0"/>
<ScoreDistribution value="1" recordCount="88.0"/>
<Node id="222" score="1" recordCount="39.0">
<SimplePredicate field="isFreeDay" operator="equal" value="False"/>
<ScoreDistribution value="0" recordCount="8.0"/>
<ScoreDistribution value="1" recordCount="31.0"/>
</Node>
<Node id="223" score="0" recordCount="123.0">
<SimplePredicate field="isFreeDay" operator="equal" value="True"/>
<ScoreDistribution value="0" recordCount="66.0"/>
<ScoreDistribution value="1" recordCount="57.0"/>
<Node id="224" score="0" recordCount="75.0">
<SimplePredicate field="isProfession" operator="equal" value="False"/>
<ScoreDistribution value="0" recordCount="49.0"/>
<ScoreDistribution value="1" recordCount="26.0"/>
<Node id="225" score="0" recordCount="5.0">
<SimplePredicate field="smoking" operator="equal" value="0"/>
<ScoreDistribution value="0" recordCount="5.0"/>
<ScoreDistribution value="1" recordCount="0.0"/>
</Node>
<Node id="226" score="0" recordCount="38.0">
<SimplePredicate field="smoking" operator="equal" value="1"/>
<ScoreDistribution value="0" recordCount="29.0"/>
<ScoreDistribution value="1" recordCount="9.0"/>
</Node>
<Node id="227" score="1" recordCount="32.0">
<SimplePredicate field="smoking" operator="equal" value="2"/>
<ScoreDistribution value="0" recordCount="15.0"/>
<ScoreDistribution value="1" recordCount="17.0"/>
<Node id="228" score="0" recordCount="19.0">
<SimplePredicate field="dayRegime" operator="equal" value="0"/>
<ScoreDistribution value="0" recordCount="11.0"/>
<ScoreDistribution value="1" recordCount="8.0"/>
</Node>
<Node id="229" score="1" recordCount="10.0">
<SimplePredicate field="dayRegime" operator="equal" value="1"/>
<ScoreDistribution value="0" recordCount="2.0"/>
<ScoreDistribution value="1" recordCount="8.0"/>
</Node>
<Node id="230" score="0" recordCount="3.0">
<SimplePredicate field="dayRegime" operator="equal" value="2"/>
<ScoreDistribution value="0" recordCount="2.0"/>
<ScoreDistribution value="1" recordCount="1.0"/>
</Node>
</Node>
</Node>
<Node id="231" score="1" recordCount="48.0">
<SimplePredicate field="isProfession" operator="equal" value="True"/>
<ScoreDistribution value="0" recordCount="17.0"/>
<ScoreDistribution value="1" recordCount="31.0"/>
</Node>
</Node>
</Node>
<Node id="232" score="1" recordCount="21.0">
<SimplePredicate field="prioritySex" operator="equal" value="True"/>
<ScoreDistribution value="0" recordCount="2.0"/>
<ScoreDistribution value="1" recordCount="19.0"/>
</Node>
</Node>
<Node id="233" score="1" recordCount="19.0">
<SimplePredicate field="sexFrequency" operator="equal" value="4"/>
<ScoreDistribution value="0" recordCount="5.0"/>
<ScoreDistribution value="1" recordCount="14.0"/>
</Node>
<Node id="234" score="1" recordCount="56.0">
<SimplePredicate field="sexFrequency" operator="equal" value="5"/>
<ScoreDistribution value="0" recordCount="23.0"/>
<ScoreDistribution value="1" recordCount="33.0"/>
<Node id="235" score="1" recordCount="29.0">
<SimplePredicate field="dayRegime" operator="equal" value="0"/>
<ScoreDistribution value="0" recordCount="12.0"/>
<ScoreDistribution value="1" recordCount="17.0"/>
<Node id="236" score="0" recordCount="15.0">
<SimplePredicate field="isHeteroExperience" operator="equal" value="False"/>
<ScoreDistribution value="0" recordCount="9.0"/>
<ScoreDistribution value="1" recordCount="6.0"/>
</Node>
<Node id="237" score="1" recordCount="14.0">
<SimplePredicate field="isHeteroExperience" operator="equal" value="True"/>
<ScoreDistribution value="0" recordCount="3.0"/>
<ScoreDistribution value="1" recordCount="11.0"/>
</Node>
</Node>
<Node id="238" score="1" recordCount="20.0">
<SimplePredicate field="dayRegime" operator="equal" value="1"/>
<ScoreDistribution value="0" recordCount="5.0"/>
<ScoreDistribution value="1" recordCount="15.0"/>
</Node>
<Node id="239" score="0" recordCount="7.0">
<SimplePredicate field="dayRegime" operator="equal" value="2"/>
<ScoreDistribution value="0" recordCount="6.0"/>
<ScoreDistribution value="1" recordCount="1.0"/>
</Node>
</Node>
</Node>
<Node id="240" score="1" recordCount="104393.0">
<SimplePredicate field="aboutMe" operator="equal" value="none"/>
<ScoreDistribution value="0" recordCount="40667.0"/>
<ScoreDistribution value="1" recordCount="63726.0"/>
<Node id="241" score="1" recordCount="101888.0">
<SimplePredicate field="prioritySex" operator="equal" value="False"/>
<ScoreDistribution value="0" recordCount="40084.0"/>
<ScoreDistribution value="1" recordCount="61804.0"/>
<Node id="242" score="1" recordCount="94700.0">
<SimplePredicate field="sexFrequency" operator="equal" value="0"/>
<ScoreDistribution value="0" recordCount="38248.0"/>
<ScoreDistribution value="1" recordCount="56452.0"/>
<Node id="243" score="1" recordCount="90876.0">
<SimplePredicate field="priorityEquilibrium" operator="equal" value="False"/>
<ScoreDistribution value="0" recordCount="36098.0"/>
<ScoreDistribution value="1" recordCount="54778.0"/>
<Node id="244" score="0" recordCount="1601.0">
<SimplePredicate field="photos" operator="equal" value="high"/>
<ScoreDistribution value="0" recordCount="818.0"/>
<ScoreDistribution value="1" recordCount="783.0"/>
<Node id="245" score="0" recordCount="499.0">
<SimplePredicate field="age" operator="lessOrEqual" value="22.0"/>
<ScoreDistribution value="0" recordCount="345.0"/>
<ScoreDistribution value="1" recordCount="154.0"/>
<Node id="246" score="0" recordCount="469.0">
<SimplePredicate field="aimMarriage" operator="equal" value="False"/>
<ScoreDistribution value="0" recordCount="331.0"/>
<ScoreDistribution value="1" recordCount="138.0"/>
</Node>
<Node id="247" score="1" recordCount="30.0">
<SimplePredicate field="aimMarriage" operator="equal" value="True"/>
<ScoreDistribution value="0" recordCount="14.0"/>
<ScoreDistribution value="1" recordCount="16.0"/>
<Node id="248" score="0" recordCount="10.0">
<SimplePredicate field="age" operator="lessOrEqual" value="19.0"/>
<ScoreDistribution value="0" recordCount="8.0"/>
<ScoreDistribution value="1" recordCount="2.0"/>
</Node>
<Node id="249" score="1" recordCount="20.0">
<True/>
<ScoreDistribution value="0" recordCount="6.0"/>
<ScoreDistribution value="1" recordCount="14.0"/>
</Node>
</Node>
</Node>
<Node id="250" score="1" recordCount="1102.0">
<True/>
<ScoreDistribution value="0" recordCount="473.0"/>
<ScoreDistribution value="1" recordCount="629.0"/>
<Node id="251" score="1" recordCount="1052.0">
<SimplePredicate field="aimMarriage" operator="equal" value="False"/>
<ScoreDistribution value="0" recordCount="463.0"/>
<ScoreDistribution value="1" recordCount="589.0"/>
<Node id="252" score="1" recordCount="1042.0">
<SimplePredicate field="priorityRealization" operator="equal" value="False"/>
<ScoreDistribution value="0" recordCount="461.0"/>
<ScoreDistribution value="1" recordCount="581.0"/>
<Node id="253" score="1" recordCount="962.0">
<SimplePredicate field="household" operator="equal" value="0"/>
<ScoreDistribution value="0" recordCount="427.0"/>
<ScoreDistribution value="1" recordCount="535.0"/>
<Node id="254" score="1" recordCount="938.0">
<SimplePredicate field="materialStatus" operator="equal" value="0"/>
<ScoreDistribution value="0" recordCount="422.0"/>
<ScoreDistribution value="1" recordCount="516.0"/>
<Node id="255" score="1" recordCount="812.0">
<SimplePredicate field="drugs" operator="equal" value="0"/>
<ScoreDistribution value="0" recordCount="355.0"/>
<ScoreDistribution value="1" recordCount="457.0"/>
<Node id="256" score="1" recordCount="784.0">
<SimplePredicate field="dayRegime" operator="equal" value="0"/>
<ScoreDistribution value="0" recordCount="337.0"/>
<ScoreDistribution value="1" recordCount="447.0"/>
<Node id="257" score="1" recordCount="756.0">
<SimplePredicate field="aimFriendship" operator="equal" value="False"/>
<ScoreDistribution value="0" recordCount="320.0"/>
<ScoreDistribution value="1" recordCount="436.0"/>
</Node>
<Node id="258" score="0" recordCount="28.0">
<SimplePredicate field="aimFriendship" operator="equal" value="True"/>
<ScoreDistribution value="0" recordCount="17.0"/>
<ScoreDistribution value="1" recordCount="11.0"/>
</Node>
</Node>
<Node id="259" score="0" recordCount="23.0">
<SimplePredicate field="dayRegime" operator="equal" value="1"/>
<ScoreDistribution value="0" recordCount="14.0"/>
<ScoreDistribution value="1" recordCount="9.0"/>
</Node>
<Node id="260" score="0" recordCount="5.0">
<SimplePredicate field="dayRegime" operator="equal" value="2"/>
<ScoreDistribution value="0" recordCount="4.0"/>
<ScoreDistribution value="1" recordCount="1.0"/>
</Node>
</Node>
<Node id="261" score="0" recordCount="121.0">
<SimplePredicate field="drugs" operator="equal" value="1"/>
<ScoreDistribution value="0" recordCount="67.0"/>
<ScoreDistribution value="1" recordCount="54.0"/>
<Node id="262" score="0" recordCount="21.0">
<SimplePredicate field="smoking" operator="equal" value="0"/>
<ScoreDistribution value="0" recordCount="19.0"/>
<ScoreDistribution value="1" recordCount="2.0"/>
</Node>
<Node id="263" score="0" recordCount="65.0">
<SimplePredicate field="smoking" operator="equal" value="1"/>
<ScoreDistribution value="0" recordCount="33.0"/>
<ScoreDistribution value="1" recordCount="32.0"/>
<Node id="264" score="0" recordCount="36.0">
<SimplePredicate field="isBody" operator="equal" value="False"/>
<ScoreDistribution value="0" recordCount="23.0"/>
<ScoreDistribution value="1" recordCount="13.0"/>
</Node>
<Node id="265" score="1" recordCount="29.0">
<SimplePredicate field="isBody" operator="equal" value="True"/>
<ScoreDistribution value="0" recordCount="10.0"/>
<ScoreDistribution value="1" recordCount="19.0"/>
</Node>
</Node>
<Node id="266" score="1" recordCount="35.0">
<SimplePredicate field="smoking" operator="equal" value="2"/>
<ScoreDistribution value="0" recordCount="15.0"/>
<ScoreDistribution value="1" recordCount="20.0"/>
<Node id="267" score="0" recordCount="22.0">
<SimplePredicate field="orientation" operator="equal" value="0"/>
<ScoreDistribution value="0" recordCount="12.0"/>
<ScoreDistribution value="1" recordCount="10.0"/>
<Node id="268" score="1" recordCount="11.0">
<SimplePredicate field="age" operator="lessOrEqual" value="32.0"/>
<ScoreDistribution value="0" recordCount="4.0"/>
<ScoreDistribution value="1" recordCount="7.0"/>
</Node>
<Node id="269" score="0" recordCount="11.0">
<True/>
<ScoreDistribution value="0" recordCount="8.0"/>
<ScoreDistribution value="1" recordCount="3.0"/>
</Node>
</Node>
<Node id="270" score="1" recordCount="13.0">
<SimplePredicate field="orientation" operator="equal" value="1"/>
<ScoreDistribution value="0" recordCount="3.0"/>
<ScoreDistribution value="1" recordCount="10.0"/>
</Node>
<Node id="271" score="0" recordCount="0.0">
<SimplePredicate field="orientation" operator="equal" value="2"/>
<ScoreDistribution value="0" recordCount="0.0"/>
<ScoreDistribution value="1" recordCount="0.0"/>
</Node>
<Node id="272" score="0" recordCount="0.0">
<SimplePredicate field="orientation" operator="equal" value="3"/>
<ScoreDistribution value="0" recordCount="0.0"/>
<ScoreDistribution value="1" recordCount="0.0"/>
</Node>
</Node>
</Node>
<Node id="273" score="1" recordCount="5.0">
<SimplePredicate field="drugs" operator="equal" value="2"/>
<ScoreDistribution value="0" recordCount="0.0"/>
<ScoreDistribution value="1" recordCount="5.0"/>
</Node>
<Node id="274" score="0" recordCount="0.0">
<SimplePredicate field="drugs" operator="equal" value="3"/>
<ScoreDistribution value="0" recordCount="0.0"/>
<ScoreDistribution value="1" recordCount="0.0"/>
</Node>
</Node>
<Node id="275" score="0" recordCount="0.0">
<SimplePredicate field="materialStatus" operator="equal" value="1"/>
<ScoreDistribution value="0" recordCount="0.0"/>
<ScoreDistribution value="1" recordCount="0.0"/>
</Node>
<Node id="276" score="1" recordCount="3.0">
<SimplePredicate field="materialStatus" operator="equal" value="2"/>
<ScoreDistribution value="0" recordCount="0.0"/>
<ScoreDistribution value="1" recordCount="3.0"/>
</Node>
<Node id="277" score="1" recordCount="15.0">
<SimplePredicate field="materialStatus" operator="equal" value="3"/>
<ScoreDistribution value="0" recordCount="5.0"/>
<ScoreDistribution value="1" recordCount="10.0"/>
</Node>
<Node id="278" score="1" recordCount="6.0">
<SimplePredicate field="materialStatus" operator="equal" value="4"/>
<ScoreDistribution value="0" recordCount="0.0"/>
<ScoreDistribution value="1" recordCount="6.0"/>
</Node>
</Node>
<Node id="279" score="1" recordCount="62.0">
<SimplePredicate field="household" operator="equal" value="1"/>
<ScoreDistribution value="0" recordCount="23.0"/>
<ScoreDistribution value="1" recordCount="39.0"/>
<Node id="280" score="1" recordCount="33.0">
<SimplePredicate field="drugs" operator="equal" value="0"/>
<ScoreDistribution value="0" recordCount="6.0"/>
<ScoreDistribution value="1" recordCount="27.0"/>
</Node>
<Node id="281" score="0" recordCount="29.0">
<SimplePredicate field="drugs" operator="equal" value="1"/>
<ScoreDistribution value="0" recordCount="17.0"/>
<ScoreDistribution value="1" recordCount="12.0"/>
</Node>
<Node id="282" score="0" recordCount="0.0">
<SimplePredicate field="drugs" operator="equal" value="2"/>
<ScoreDistribution value="0" recordCount="0.0"/>
<ScoreDistribution value="1" recordCount="0.0"/>
</Node>
<Node id="283" score="0" recordCount="0.0">
<SimplePredicate field="drugs" operator="equal" value="3"/>
<ScoreDistribution value="0" recordCount="0.0"/>
<ScoreDistribution value="1" recordCount="0.0"/>
</Node>
</Node>
<Node id="284" score="1" recordCount="1.0">
<SimplePredicate field="household" operator="equal" value="2"/>
<ScoreDistribution value="0" recordCount="0.0"/>
<ScoreDistribution value="1" recordCount="1.0"/>
</Node>
<Node id="285" score="0" recordCount="14.0">
<SimplePredicate field="household" operator="equal" value="3"/>
<ScoreDistribution value="0" recordCount="11.0"/>
<ScoreDistribution value="1" recordCount="3.0"/>
</Node>
<Node id="286" score="0" recordCount="0.0">
<SimplePredicate field="household" operator="equal" value="4"/>
<ScoreDistribution value="0" recordCount="0.0"/>
<ScoreDistribution value="1" recordCount="0.0"/>
</Node>
<Node id="287" score="0" recordCount="0.0">
<SimplePredicate field="household" operator="equal" value="5"/>
<ScoreDistribution value="0" recordCount="0.0"/>
<ScoreDistribution value="1" recordCount="0.0"/>
</Node>
<Node id="288" score="1" recordCount="3.0">
<SimplePredicate field="household" operator="equal" value="6"/>
<ScoreDistribution value="0" recordCount="0.0"/>
<ScoreDistribution value="1" recordCount="3.0"/>
</Node>
</Node>
<Node id="289" score="1" recordCount="10.0">
<SimplePredicate field="priorityRealization" operator="equal" value="True"/>
<ScoreDistribution value="0" recordCount="2.0"/>
<ScoreDistribution value="1" recordCount="8.0"/>
</Node>
</Node>
<Node id="290" score="1" recordCount="50.0">
<SimplePredicate field="aimMarriage" operator="equal" value="True"/>
<ScoreDistribution value="0" recordCount="10.0"/>
<ScoreDistribution value="1" recordCount="40.0"/>
</Node>
</Node>
</Node>
<Node id="291" score="1" recordCount="14162.0">
<SimplePredicate field="photos" operator="equal" value="none"/>
<ScoreDistribution value="0" recordCount="3938.0"/>
<ScoreDistribution value="1" recordCount="10224.0"/>
<Node id="292" score="0" recordCount="1428.0">
<SimplePredicate field="isLanguages" operator="equal" value="False"/>
<ScoreDistribution value="0" recordCount="764.0"/>
<ScoreDistribution value="1" recordCount="664.0"/>
<Node id="293" score="0" recordCount="1390.0">
<SimplePredicate field="isSexLike" operator="equal" value="False"/>
<ScoreDistribution value="0" recordCount="753.0"/>
<ScoreDistribution value="1" recordCount="637.0"/>
<Node id="294" score="0" recordCount="1347.0">
<SimplePredicate field="dayRegime" operator="equal" value="0"/>
<ScoreDistribution value="0" recordCount="723.0"/>
<ScoreDistribution value="1" recordCount="624.0"/>
<Node id="295" score="0" recordCount="1332.0">
<SimplePredicate field="isPriorities" operator="equal" value="False"/>
<ScoreDistribution value="0" recordCount="711.0"/>
<ScoreDistribution value="1" recordCount="621.0"/>
<Node id="296" score="0" recordCount="486.0">
<SimplePredicate field="age" operator="lessOrEqual" value="27.0"/>
<ScoreDistribution value="0" recordCount="309.0"/>
<ScoreDistribution value="1" recordCount="177.0"/>
<Node id="297" score="0" recordCount="472.0">
<SimplePredicate field="aimMarriage" operator="equal" value="False"/>
<ScoreDistribution value="0" recordCount="303.0"/>
<ScoreDistribution value="1" recordCount="169.0"/>
</Node>
<Node id="298" score="1" recordCount="14.0">
<SimplePredicate field="aimMarriage" operator="equal" value="True"/>
<ScoreDistribution value="0" recordCount="6.0"/>
<ScoreDistribution value="1" recordCount="8.0"/>
</Node>
</Node>
<Node id="299" score="1" recordCount="846.0">
<True/>
<ScoreDistribution value="0" recordCount="402.0"/>
<ScoreDistribution value="1" recordCount="444.0"/>
<Node id="300" score="1" recordCount="792.0">
<SimplePredicate field="orientation" operator="equal" value="0"/>
<ScoreDistribution value="0" recordCount="388.0"/>
<ScoreDistribution value="1" recordCount="404.0"/>
<Node id="301" score="1" recordCount="736.0">
<SimplePredicate field="smoking" operator="equal" value="0"/>
<ScoreDistribution value="0" recordCount="362.0"/>
<ScoreDistribution value="1" recordCount="374.0"/>
<Node id="302" score="1" recordCount="719.0">
<SimplePredicate field="isMusic" operator="equal" value="False"/>
<ScoreDistribution value="0" recordCount="347.0"/>
<ScoreDistribution value="1" recordCount="372.0"/>
<Node id="303" score="1" recordCount="643.0">
<SimplePredicate field="aimFriendship" operator="equal" value="False"/>
<ScoreDistribution value="0" recordCount="303.0"/>
<ScoreDistribution value="1" recordCount="340.0"/>
<Node id="304" score="1" recordCount="621.0">
<SimplePredicate field="isBody" operator="equal" value="False"/>
<ScoreDistribution value="0" recordCount="292.0"/>
<ScoreDistribution value="1" recordCount="329.0"/>
</Node>
<Node id="305" score="0" recordCount="22.0">
<SimplePredicate field="isBody" operator="equal" value="True"/>
<ScoreDistribution value="0" recordCount="11.0"/>
<ScoreDistribution value="1" recordCount="11.0"/>
<Node id="306" score="1" recordCount="11.0">
<SimplePredicate field="age" operator="lessOrEqual" value="36.0"/>
<ScoreDistribution value="0" recordCount="3.0"/>
<ScoreDistribution value="1" recordCount="8.0"/>
</Node>
<Node id="307" score="0" recordCount="11.0">
<True/>
<ScoreDistribution value="0" recordCount="8.0"/>
<ScoreDistribution value="1" recordCount="3.0"/>
</Node>
</Node>
</Node>
<Node id="308" score="0" recordCount="76.0">
<SimplePredicate field="aimFriendship" operator="equal" value="True"/>
<ScoreDistribution value="0" recordCount="44.0"/>
<ScoreDistribution value="1" recordCount="32.0"/>
</Node>
</Node>
<Node id="309" score="0" recordCount="17.0">
<SimplePredicate field="isMusic" operator="equal" value="True"/>
<ScoreDistribution value="0" recordCount="15.0"/>
<ScoreDistribution value="1" recordCount="2.0"/>
</Node>
</Node>
<Node id="310" score="0" recordCount="35.0">
<SimplePredicate field="smoking" operator="equal" value="1"/>
<ScoreDistribution value="0" recordCount="22.0"/>
<ScoreDistribution value="1" recordCount="13.0"/>
</Node>
<Node id="311" score="1" recordCount="21.0">
<SimplePredicate field="smoking" operator="equal" value="2"/>
<ScoreDistribution value="0" recordCount="4.0"/>
<ScoreDistribution value="1" recordCount="17.0"/>
</Node>
</Node>
<Node id="312" score="1" recordCount="53.0">
<SimplePredicate field="orientation" operator="equal" value="1"/>
<ScoreDistribution value="0" recordCount="14.0"/>
<ScoreDistribution value="1" recordCount="39.0"/>
</Node>
<Node id="313" score="0" recordCount="0.0">
<SimplePredicate field="orientation" operator="equal" value="2"/>
<ScoreDistribution value="0" recordCount="0.0"/>
<ScoreDistribution value="1" recordCount="0.0"/>
</Node>
<Node id="314" score="1" recordCount="1.0">
<SimplePredicate field="orientation" operator="equal" value="3"/>
<ScoreDistribution value="0" recordCount="0.0"/>
<ScoreDistribution value="1" recordCount="1.0"/>
</Node>
</Node>
</Node>
<Node id="315" score="0" recordCount="15.0">
<SimplePredicate field="isPriorities" operator="equal" value="True"/>
<ScoreDistribution value="0" recordCount="12.0"/>
<ScoreDistribution value="1" recordCount="3.0"/>
</Node>
</Node>
<Node id="316" score="0" recordCount="37.0">
<SimplePredicate field="dayRegime" operator="equal" value="1"/>
<ScoreDistribution value="0" recordCount="28.0"/>
<ScoreDistribution value="1" recordCount="9.0"/>
</Node>
<Node id="317" score="1" recordCount="6.0">
<SimplePredicate field="dayRegime" operator="equal" value="2"/>
<ScoreDistribution value="0" recordCount="2.0"/>
<ScoreDistribution value="1" recordCount="4.0"/>
</Node>
</Node>
<Node id="318" score="1" recordCount="38.0">
<SimplePredicate field="isSexLike" operator="equal" value="True"/>
<ScoreDistribution value="0" recordCount="11.0"/>
<ScoreDistribution value="1" recordCount="27.0"/>
<Node id="319" score="0" recordCount="10.0">
<SimplePredicate field="age" operator="lessOrEqual" value="27.0"/>
<ScoreDistribution value="0" recordCount="8.0"/>
<ScoreDistribution value="1" recordCount="2.0"/>
</Node>
<Node id="320" score="1" recordCount="28.0">
<True/>
<ScoreDistribution value="0" recordCount="3.0"/>
<ScoreDistribution value="1" recordCount="25.0"/>
</Node>
</Node>
</Node>
<Node id="321" score="1" recordCount="12734.0">
<SimplePredicate field="isLanguages" operator="equal" value="True"/>
<ScoreDistribution value="0" recordCount="3174.0"/>
<ScoreDistribution value="1" recordCount="9560.0"/>
<Node id="322" score="1" recordCount="12341.0">
<SimplePredicate field="dayRegime" operator="equal" value="0"/>
<ScoreDistribution value="0" recordCount="2996.0"/>
<ScoreDistribution value="1" recordCount="9345.0"/>
</Node>
<Node id="323" score="1" recordCount="289.0">
<SimplePredicate field="dayRegime" operator="equal" value="1"/>
<ScoreDistribution value="0" recordCount="136.0"/>
<ScoreDistribution value="1" recordCount="153.0"/>
<Node id="324" score="0" recordCount="180.0">
<SimplePredicate field="materialStatus" operator="equal" value="0"/>
<ScoreDistribution value="0" recordCount="105.0"/>
<ScoreDistribution value="1" recordCount="75.0"/>
<Node id="325" score="0" recordCount="162.0">
<SimplePredicate field="isHeteroExperience" operator="equal" value="False"/>
<ScoreDistribution value="0" recordCount="99.0"/>
<ScoreDistribution value="1" recordCount="63.0"/>
<Node id="326" score="1" recordCount="28.0">
<SimplePredicate field="isBody" operator="equal" value="False"/>
<ScoreDistribution value="0" recordCount="13.0"/>
<ScoreDistribution value="1" recordCount="15.0"/>
<Node id="327" score="0" recordCount="13.0">
<SimplePredicate field="age" operator="lessOrEqual" value="26.0"/>
<ScoreDistribution value="0" recordCount="9.0"/>
<ScoreDistribution value="1" recordCount="4.0"/>
</Node>
<Node id="328" score="1" recordCount="15.0">
<True/>
<ScoreDistribution value="0" recordCount="4.0"/>
<ScoreDistribution value="1" recordCount="11.0"/>
</Node>
</Node>
<Node id="329" score="0" recordCount="134.0">
<SimplePredicate field="isBody" operator="equal" value="True"/>
<ScoreDistribution value="0" recordCount="86.0"/>
<ScoreDistribution value="1" recordCount="48.0"/>
</Node>
</Node>
<Node id="330" score="1" recordCount="18.0">
<SimplePredicate field="isHeteroExperience" operator="equal" value="True"/>
<ScoreDistribution value="0" recordCount="6.0"/>
<ScoreDistribution value="1" recordCount="12.0"/>
</Node>
</Node>
<Node id="331" score="1" recordCount="8.0">
<SimplePredicate field="materialStatus" operator="equal" value="1"/>
<ScoreDistribution value="0" recordCount="2.0"/>
<ScoreDistribution value="1" recordCount="6.0"/>
</Node>
<Node id="332" score="1" recordCount="8.0">
<SimplePredicate field="materialStatus" operator="equal" value="2"/>
<ScoreDistribution value="0" recordCount="2.0"/>
<ScoreDistribution value="1" recordCount="6.0"/>
</Node>
<Node id="333" score="1" recordCount="67.0">
<SimplePredicate field="materialStatus" operator="equal" value="3"/>
<ScoreDistribution value="0" recordCount="20.0"/>
<ScoreDistribution value="1" recordCount="47.0"/>
</Node>
<Node id="334" score="1" recordCount="26.0">
<SimplePredicate field="materialStatus" operator="equal" value="4"/>
<ScoreDistribution value="0" recordCount="7.0"/>
<ScoreDistribution value="1" recordCount="19.0"/>
</Node>
</Node>
<Node id="335" score="1" recordCount="104.0">
<SimplePredicate field="dayRegime" operator="equal" value="2"/>
<ScoreDistribution value="0" recordCount="42.0"/>
<ScoreDistribution value="1" recordCount="62.0"/>
<Node id="336" score="0" recordCount="53.0">
<SimplePredicate field="age" operator="lessOrEqual" value="31.0"/>
<ScoreDistribution value="0" recordCount="32.0"/>
<ScoreDistribution value="1" recordCount="21.0"/>
<Node id="337" score="0" recordCount="31.0">
<SimplePredicate field="materialStatus" operator="equal" value="0"/>
<ScoreDistribution value="0" recordCount="24.0"/>
<ScoreDistribution value="1" recordCount="7.0"/>
</Node>
<Node id="338" score="1" recordCount="5.0">
<SimplePredicate field="materialStatus" operator="equal" value="1"/>
<ScoreDistribution value="0" recordCount="1.0"/>
<ScoreDistribution value="1" recordCount="4.0"/>
</Node>
<Node id="339" score="1" recordCount="2.0">
<SimplePredicate field="materialStatus" operator="equal" value="2"/>
<ScoreDistribution value="0" recordCount="0.0"/>
<ScoreDistribution value="1" recordCount="2.0"/>
</Node>
<Node id="340" score="0" recordCount="10.0">
<SimplePredicate field="materialStatus" operator="equal" value="3"/>
<ScoreDistribution value="0" recordCount="6.0"/>
<ScoreDistribution value="1" recordCount="4.0"/>
</Node>
<Node id="341" score="1" recordCount="5.0">
<SimplePredicate field="materialStatus" operator="equal" value="4"/>
<ScoreDistribution value="0" recordCount="1.0"/>
<ScoreDistribution value="1" recordCount="4.0"/>
</Node>
</Node>
<Node id="342" score="1" recordCount="51.0">
<True/>
<ScoreDistribution value="0" recordCount="10.0"/>
<ScoreDistribution value="1" recordCount="41.0"/>
</Node>
</Node>
</Node>
</Node>
<Node id="343" score="1" recordCount="74604.0">
<SimplePredicate field="photos" operator="equal" value="normal"/>
<ScoreDistribution value="0" recordCount="31163.0"/>
<ScoreDistribution value="1" recordCount="43441.0"/>
<Node id="344" score="1" recordCount="74309.0">
<SimplePredicate field="aimOther" operator="equal" value="False"/>
<ScoreDistribution value="0" recordCount="31093.0"/>
<ScoreDistribution value="1" recordCount="43216.0"/>
<Node id="345" score="1" recordCount="21413.0">
<SimplePredicate field="age" operator="lessOrEqual" value="23.0"/>
<ScoreDistribution value="0" recordCount="10618.0"/>
<ScoreDistribution value="1" recordCount="10795.0"/>
<Node id="346" score="1" recordCount="21165.0">
<SimplePredicate field="priorityRealization" operator="equal" value="False"/>
<ScoreDistribution value="0" recordCount="10455.0"/>
<ScoreDistribution value="1" recordCount="10710.0"/>
<Node id="347" score="0" recordCount="1834.0">
<SimplePredicate field="isLanguages" operator="equal" value="False"/>
<ScoreDistribution value="0" recordCount="1121.0"/>
<ScoreDistribution value="1" recordCount="713.0"/>
<Node id="348" score="0" recordCount="1808.0">
<SimplePredicate field="materialStatus" operator="equal" value="0"/>
<ScoreDistribution value="0" recordCount="1118.0"/>
<ScoreDistribution value="1" recordCount="690.0"/>
<Node id="349" score="0" recordCount="1743.0">
<SimplePredicate field="aimMarriage" operator="equal" value="False"/>
<ScoreDistribution value="0" recordCount="1090.0"/>
<ScoreDistribution value="1" recordCount="653.0"/>
<Node id="350" score="0" recordCount="1537.0">
<SimplePredicate field="smoking" operator="equal" value="0"/>
<ScoreDistribution value="0" recordCount="973.0"/>
<ScoreDistribution value="1" recordCount="564.0"/>
<Node id="351" score="0" recordCount="1468.0">
<SimplePredicate field="marriage" operator="equal" value="0"/>
<ScoreDistribution value="0" recordCount="934.0"/>
<ScoreDistribution value="1" recordCount="534.0"/>
</Node>
<Node id="352" score="0" recordCount="6.0">
<SimplePredicate field="marriage" operator="equal" value="1"/>
<ScoreDistribution value="0" recordCount="5.0"/>
<ScoreDistribution value="1" recordCount="1.0"/>
</Node>
<Node id="353" score="0" recordCount="0.0">
<SimplePredicate field="marriage" operator="equal" value="2"/>
<ScoreDistribution value="0" recordCount="0.0"/>
<ScoreDistribution value="1" recordCount="0.0"/>
</Node>
<Node id="354" score="0" recordCount="2.0">
<SimplePredicate field="marriage" operator="equal" value="3"/>
<ScoreDistribution value="0" recordCount="1.0"/>
<ScoreDistribution value="1" recordCount="1.0"/>
</Node>
<Node id="355" score="0" recordCount="61.0">
<SimplePredicate field="marriage" operator="equal" value="4"/>
<ScoreDistribution value="0" recordCount="33.0"/>
<ScoreDistribution value="1" recordCount="28.0"/>
<Node id="356" score="0" recordCount="38.0">
<SimplePredicate field="isBody" operator="equal" value="False"/>
<ScoreDistribution value="0" recordCount="25.0"/>
<ScoreDistribution value="1" recordCount="13.0"/>
<Node id="357" score="0" recordCount="22.0">
<SimplePredicate field="age" operator="lessOrEqual" value="21.0"/>
<ScoreDistribution value="0" recordCount="18.0"/>
<ScoreDistribution value="1" recordCount="4.0"/>
</Node>
<Node id="358" score="1" recordCount="16.0">
<True/>
<ScoreDistribution value="0" recordCount="7.0"/>
<ScoreDistribution value="1" recordCount="9.0"/>
</Node>
</Node>
<Node id="359" score="1" recordCount="23.0">
<SimplePredicate field="isBody" operator="equal" value="True"/>
<ScoreDistribution value="0" recordCount="8.0"/>
<ScoreDistribution value="1" recordCount="15.0"/>
</Node>
</Node>
</Node>
<Node id="360" score="0" recordCount="160.0">
<SimplePredicate field="smoking" operator="equal" value="1"/>
<ScoreDistribution value="0" recordCount="103.0"/>
<ScoreDistribution value="1" recordCount="57.0"/>
</Node>
<Node id="361" score="1" recordCount="46.0">
<SimplePredicate field="smoking" operator="equal" value="2"/>
<ScoreDistribution value="0" recordCount="14.0"/>
<ScoreDistribution value="1" recordCount="32.0"/>
</Node>
</Node>
<Node id="362" score="1" recordCount="65.0">
<SimplePredicate field="aimMarriage" operator="equal" value="True"/>
<ScoreDistribution value="0" recordCount="28.0"/>
<ScoreDistribution value="1" recordCount="37.0"/>
<Node id="363" score="0" recordCount="45.0">
<SimplePredicate field="alcohol" operator="equal" value="0"/>
<ScoreDistribution value="0" recordCount="25.0"/>
<ScoreDistribution value="1" recordCount="20.0"/>
</Node>
<Node id="364" score="1" recordCount="4.0">
<SimplePredicate field="alcohol" operator="equal" value="1"/>
<ScoreDistribution value="0" recordCount="0.0"/>
<ScoreDistribution value="1" recordCount="4.0"/>
</Node>
<Node id="365" score="1" recordCount="16.0">
<SimplePredicate field="alcohol" operator="equal" value="2"/>
<ScoreDistribution value="0" recordCount="3.0"/>
<ScoreDistribution value="1" recordCount="13.0"/>
</Node>
<Node id="366" score="0" recordCount="0.0">
<SimplePredicate field="alcohol" operator="equal" value="3"/>
<ScoreDistribution value="0" recordCount="0.0"/>
<ScoreDistribution value="1" recordCount="0.0"/>
</Node>
</Node>
</Node>
<Node id="367" score="1" recordCount="3.0">
<SimplePredicate field="materialStatus" operator="equal" value="1"/>
<ScoreDistribution value="0" recordCount="0.0"/>
<ScoreDistribution value="1" recordCount="3.0"/>
</Node>
<Node id="368" score="1" recordCount="2.0">
<SimplePredicate field="materialStatus" operator="equal" value="2"/>
<ScoreDistribution value="0" recordCount="0.0"/>
<ScoreDistribution value="1" recordCount="2.0"/>
</Node>
<Node id="369" score="1" recordCount="15.0">
<SimplePredicate field="materialStatus" operator="equal" value="3"/>
<ScoreDistribution value="0" recordCount="2.0"/>
<ScoreDistribution value="1" recordCount="13.0"/>
</Node>
<Node id="370" score="1" recordCount="6.0">
<SimplePredicate field="materialStatus" operator="equal" value="4"/>
<ScoreDistribution value="0" recordCount="1.0"/>
<ScoreDistribution value="1" recordCount="5.0"/>
</Node>
</Node>
<Node id="371" score="1" recordCount="19331.0">
<SimplePredicate field="isLanguages" operator="equal" value="True"/>
<ScoreDistribution value="0" recordCount="9334.0"/>
<ScoreDistribution value="1" recordCount="9997.0"/>
<Node id="372" score="1" recordCount="16383.0">
<SimplePredicate field="smoking" operator="equal" value="0"/>
<ScoreDistribution value="0" recordCount="7819.0"/>
<ScoreDistribution value="1" recordCount="8564.0"/>
<Node id="373" score="1" recordCount="15932.0">
<SimplePredicate field="isSports" operator="equal" value="False"/>
<ScoreDistribution value="0" recordCount="7494.0"/>
<ScoreDistribution value="1" recordCount="8438.0"/>
<Node id="374" score="1" recordCount="15828.0">
<SimplePredicate field="drugs" operator="equal" value="0"/>
<ScoreDistribution value="0" recordCount="7418.0"/>
<ScoreDistribution value="1" recordCount="8410.0"/>
<Node id="375" score="1" recordCount="15221.0">
<SimplePredicate field="dayRegime" operator="equal" value="0"/>
<ScoreDistribution value="0" recordCount="7054.0"/>
<ScoreDistribution value="1" recordCount="8167.0"/>
<Node id="376" score="1" recordCount="15123.0">
<SimplePredicate field="materialStatus" operator="equal" value="0"/>
<ScoreDistribution value="0" recordCount="7023.0"/>
<ScoreDistribution value="1" recordCount="8100.0"/>
<Node id="377" score="1" recordCount="15025.0">
<SimplePredicate field="isInterest" operator="equal" value="False"/>
<ScoreDistribution value="0" recordCount="6957.0"/>
<ScoreDistribution value="1" recordCount="8068.0"/>
<Node id="378" score="1" recordCount="14959.0">
<SimplePredicate field="household" operator="equal" value="0"/>
<ScoreDistribution value="0" recordCount="6925.0"/>
<ScoreDistribution value="1" recordCount="8034.0"/>
<Node id="379" score="1" recordCount="14628.0">
<SimplePredicate field="aimFriendship" operator="equal" value="False"/>
<ScoreDistribution value="0" recordCount="6725.0"/>
<ScoreDistribution value="1" recordCount="7903.0"/>
<Node id="380" score="1" recordCount="14584.0">
<SimplePredicate field="isMusic" operator="equal" value="False"/>
<ScoreDistribution value="0" recordCount="6697.0"/>
<ScoreDistribution value="1" recordCount="7887.0"/>
<Node id="381" score="1" recordCount="14550.0">
<SimplePredicate field="aimMarriage" operator="equal" value="False"/>
<ScoreDistribution value="0" recordCount="6687.0"/>
<ScoreDistribution value="1" recordCount="7863.0"/>
<Node id="382" score="1" recordCount="14495.0">
<SimplePredicate field="marriage" operator="equal" value="0"/>
<ScoreDistribution value="0" recordCount="6657.0"/>
<ScoreDistribution value="1" recordCount="7838.0"/>
<Node id="383" score="1" recordCount="14351.0">
<SimplePredicate field="orientation" operator="equal" value="0"/>
<ScoreDistribution value="0" recordCount="6579.0"/>
<ScoreDistribution value="1" recordCount="7772.0"/>
<Node id="384" score="1" recordCount="14033.0">
<SimplePredicate field="isBody" operator="equal" value="False"/>
<ScoreDistribution value="0" recordCount="6403.0"/>
<ScoreDistribution value="1" recordCount="7630.0"/>
</Node>
<Node id="385" score="0" recordCount="318.0">
<SimplePredicate field="isBody" operator="equal" value="True"/>
<ScoreDistribution value="0" recordCount="176.0"/>
<ScoreDistribution value="1" recordCount="142.0"/>
</Node>
</Node>
<Node id="386" score="0" recordCount="129.0">
<SimplePredicate field="orientation" operator="equal" value="1"/>
<ScoreDistribution value="0" recordCount="68.0"/>
<ScoreDistribution value="1" recordCount="61.0"/>
<Node id="387" score="0" recordCount="83.0">
<SimplePredicate field="heteroExperience" operator="equal" value="0"/>
<ScoreDistribution value="0" recordCount="47.0"/>
<ScoreDistribution value="1" recordCount="36.0"/>
</Node>
<Node id="388" score="0" recordCount="36.0">
<SimplePredicate field="heteroExperience" operator="equal" value="1"/>
<ScoreDistribution value="0" recordCount="18.0"/>
<ScoreDistribution value="1" recordCount="18.0"/>
</Node>
<Node id="389" score="1" recordCount="10.0">
<SimplePredicate field="heteroExperience" operator="equal" value="2"/>
<ScoreDistribution value="0" recordCount="3.0"/>
<ScoreDistribution value="1" recordCount="7.0"/>
</Node>
</Node>
<Node id="390" score="1" recordCount="4.0">
<SimplePredicate field="orientation" operator="equal" value="2"/>
<ScoreDistribution value="0" recordCount="1.0"/>
<ScoreDistribution value="1" recordCount="3.0"/>
</Node>
<Node id="391" score="0" recordCount="11.0">
<SimplePredicate field="orientation" operator="equal" value="3"/>
<ScoreDistribution value="0" recordCount="9.0"/>
<ScoreDistribution value="1" recordCount="2.0"/>
</Node>
</Node>
<Node id="392" score="1" recordCount="3.0">
<SimplePredicate field="marriage" operator="equal" value="1"/>
<ScoreDistribution value="0" recordCount="1.0"/>
<ScoreDistribution value="1" recordCount="2.0"/>
</Node>
<Node id="393" score="1" recordCount="1.0">
<SimplePredicate field="marriage" operator="equal" value="2"/>
<ScoreDistribution value="0" recordCount="0.0"/>
<ScoreDistribution value="1" recordCount="1.0"/>
</Node>
<Node id="394" score="0" recordCount="1.0">
<SimplePredicate field="marriage" operator="equal" value="3"/>
<ScoreDistribution value="0" recordCount="1.0"/>
<ScoreDistribution value="1" recordCount="0.0"/>
</Node>
<Node id="395" score="0" recordCount="50.0">
<SimplePredicate field="marriage" operator="equal" value="4"/>
<ScoreDistribution value="0" recordCount="28.0"/>
<ScoreDistribution value="1" recordCount="22.0"/>
</Node>
</Node>
<Node id="396" score="1" recordCount="34.0">
<SimplePredicate field="aimMarriage" operator="equal" value="True"/>
<ScoreDistribution value="0" recordCount="10.0"/>
<ScoreDistribution value="1" recordCount="24.0"/>
</Node>
</Node>
<Node id="397" score="0" recordCount="44.0">
<SimplePredicate field="isMusic" operator="equal" value="True"/>
<ScoreDistribution value="0" recordCount="28.0"/>
<ScoreDistribution value="1" recordCount="16.0"/>
<Node id="398" score="1" recordCount="16.0">
<SimplePredicate field="age" operator="lessOrEqual" value="20.0"/>
<ScoreDistribution value="0" recordCount="7.0"/>
<ScoreDistribution value="1" recordCount="9.0"/>
</Node>
<Node id="399" score="0" recordCount="28.0">
<True/>
<ScoreDistribution value="0" recordCount="21.0"/>
<ScoreDistribution value="1" recordCount="7.0"/>
</Node>
</Node>
</Node>
<Node id="400" score="0" recordCount="331.0">
<SimplePredicate field="aimFriendship" operator="equal" value="True"/>
<ScoreDistribution value="0" recordCount="200.0"/>
<ScoreDistribution value="1" recordCount="131.0"/>
<Node id="401" score="0" recordCount="307.0">
<SimplePredicate field="orientation" operator="equal" value="0"/>
<ScoreDistribution value="0" recordCount="190.0"/>
<ScoreDistribution value="1" recordCount="117.0"/>
<Node id="402" score="0" recordCount="203.0">
<SimplePredicate field="aimMarriage" operator="equal" value="False"/>
<ScoreDistribution value="0" recordCount="144.0"/>
<ScoreDistribution value="1" recordCount="59.0"/>
</Node>
<Node id="403" score="1" recordCount="104.0">
<SimplePredicate field="aimMarriage" operator="equal" value="True"/>
<ScoreDistribution value="0" recordCount="46.0"/>
<ScoreDistribution value="1" recordCount="58.0"/>
<Node id="404" score="1" recordCount="85.0">
<SimplePredicate field="isBody" operator="equal" value="False"/>
<ScoreDistribution value="0" recordCount="34.0"/>
<ScoreDistribution value="1" recordCount="51.0"/>
</Node>
<Node id="405" score="0" recordCount="19.0">
<SimplePredicate field="isBody" operator="equal" value="True"/>
<ScoreDistribution value="0" recordCount="12.0"/>
<ScoreDistribution value="1" recordCount="7.0"/>
</Node>
</Node>
</Node>
<Node id="406" score="1" recordCount="20.0">
<SimplePredicate field="orientation" operator="equal" value="1"/>
<ScoreDistribution value="0" recordCount="8.0"/>
<ScoreDistribution value="1" recordCount="12.0"/>
</Node>
<Node id="407" score="1" recordCount="2.0">
<SimplePredicate field="orientation" operator="equal" value="2"/>
<ScoreDistribution value="0" recordCount="0.0"/>
<ScoreDistribution value="1" recordCount="2.0"/>
</Node>
<Node id="408" score="0" recordCount="2.0">
<SimplePredicate field="orientation" operator="equal" value="3"/>
<ScoreDistribution value="0" recordCount="2.0"/>
<ScoreDistribution value="1" recordCount="0.0"/>
</Node>
</Node>
</Node>
<Node id="409" score="1" recordCount="41.0">
<SimplePredicate field="household" operator="equal" value="1"/>
<ScoreDistribution value="0" recordCount="15.0"/>
<ScoreDistribution value="1" recordCount="26.0"/>
</Node>
<Node id="410" score="0" recordCount="4.0">
<SimplePredicate field="household" operator="equal" value="2"/>
<ScoreDistribution value="0" recordCount="4.0"/>
<ScoreDistribution value="1" recordCount="0.0"/>
</Node>
<Node id="411" score="0" recordCount="20.0">
<SimplePredicate field="household" operator="equal" value="3"/>
<ScoreDistribution value="0" recordCount="13.0"/>
<ScoreDistribution value="1" recordCount="7.0"/>
</Node>
<Node id="412" score="1" recordCount="1.0">
<SimplePredicate field="household" operator="equal" value="4"/>
<ScoreDistribution value="0" recordCount="0.0"/>
