<?xml version="1.0" encoding="UTF-8"?>
<PMML version="3.1" xmlns="http://www.dmg.org/PMML-3_1" xmlns:xsi="http://www.w3.org/2001/XMLSchema-instance">
<Header copyright="slaks">
<Application name="KNIME" version="2.2"/>
</Header>
<DataDictionary numberOfFields="42">
<DataField name="photos" optype="categorical" dataType="string">
<Value value="none"/>
<Value value="normal"/>
<Value value="high"/>
<Value value="veryhigh"/>
</DataField>
<DataField name="age" optype="continuous" dataType="double">
<Interval closure="closedClosed" leftMargin="18.0" rightMargin="73.0"/>
</DataField>
<DataField name="frPairFF" optype="categorical" dataType="string">
<Value value="False"/>
<Value value="True"/>
</DataField>
<DataField name="frPairMF" optype="categorical" dataType="string">
<Value value="False"/>
<Value value="True"/>
</DataField>
<DataField name="frPairMM" optype="categorical" dataType="string">
<Value value="False"/>
<Value value="True"/>
</DataField>
<DataField name="minMaxAge" optype="categorical" dataType="string">
<Value value="nopref"/>
<Value value="18-20"/>
<Value value="18-25"/>
<Value value="18-30"/>
<Value value="18-35"/>
<Value value="18-40"/>
<Value value="18-50"/>
<Value value="18-60"/>
<Value value="18-80"/>
<Value value="21-25"/>
<Value value="21-30"/>
<Value value="21-35"/>
<Value value="21-40"/>
<Value value="21-50"/>
<Value value="21-60"/>
<Value value="21-80"/>
<Value value="26-30"/>
<Value value="26-35"/>
<Value value="26-40"/>
<Value value="26-50"/>
<Value value="26-60"/>
<Value value="26-80"/>
<Value value="31-35"/>
<Value value="31-40"/>
<Value value="31-50"/>
<Value value="31-60"/>
<Value value="31-80"/>
<Value value="36-40"/>
<Value value="36-50"/>
<Value value="36-60"/>
<Value value="36-80"/>
<Value value="41-50"/>
<Value value="41-60"/>
<Value value="41-80"/>
<Value value="51-60"/>
<Value value="51-80"/>
<Value value="61-80"/>
</DataField>
<DataField name="aimFriendship" optype="categorical" dataType="string">
<Value value="True"/>
<Value value="False"/>
</DataField>
<DataField name="aimLove" optype="categorical" dataType="string">
<Value value="True"/>
<Value value="False"/>
</DataField>
<DataField name="aimMarriage" optype="categorical" dataType="string">
<Value value="False"/>
<Value value="True"/>
</DataField>
<DataField name="aimOther" optype="categorical" dataType="string">
<Value value="False"/>
<Value value="True"/>
</DataField>
<DataField name="aimSex" optype="categorical" dataType="string">
<Value value="True"/>
<Value value="False"/>
</DataField>
<DataField name="marriage" optype="categorical" dataType="string">
<Value value="0"/>
<Value value="1"/>
<Value value="2"/>
<Value value="3"/>
<Value value="4"/>
</DataField>
<DataField name="kids" optype="categorical" dataType="string">
<Value value="0"/>
<Value value="1"/>
<Value value="2"/>
<Value value="3"/>
<Value value="4"/>
</DataField>
<DataField name="isBody" optype="categorical" dataType="string">
<Value value="True"/>
<Value value="False"/>
</DataField>
<DataField name="isProfession" optype="categorical" dataType="string">
<Value value="True"/>
<Value value="False"/>
</DataField>
<DataField name="dayRegime" optype="categorical" dataType="string">
<Value value="0"/>
<Value value="1"/>
<Value value="2"/>
</DataField>
<DataField name="isLanguages" optype="categorical" dataType="string">
<Value value="True"/>
<Value value="False"/>
</DataField>
<DataField name="materialStatus" optype="categorical" dataType="string">
<Value value="0"/>
<Value value="1"/>
<Value value="2"/>
<Value value="3"/>
<Value value="4"/>
</DataField>
<DataField name="household" optype="categorical" dataType="string">
<Value value="0"/>
<Value value="1"/>
<Value value="2"/>
<Value value="3"/>
<Value value="4"/>
<Value value="5"/>
<Value value="6"/>
</DataField>
<DataField name="isPriorities" optype="categorical" dataType="string">
<Value value="True"/>
<Value value="False"/>
</DataField>
<DataField name="priorityCareer" optype="categorical" dataType="string">
<Value value="True"/>
<Value value="False"/>
</DataField>
<DataField name="priorityEquilibrium" optype="categorical" dataType="string">
<Value value="True"/>
<Value value="False"/>
</DataField>
<DataField name="priorityFamily" optype="categorical" dataType="string">
<Value value="True"/>
<Value value="False"/>
</DataField>
<DataField name="priorityPubService" optype="categorical" dataType="string">
<Value value="True"/>
<Value value="False"/>
</DataField>
<DataField name="priorityRealization" optype="categorical" dataType="string">
<Value value="True"/>
<Value value="False"/>
</DataField>
<DataField name="prioritySex" optype="categorical" dataType="string">
<Value value="True"/>
<Value value="False"/>
</DataField>
<DataField name="priorityWealth" optype="categorical" dataType="string">
<Value value="True"/>
<Value value="False"/>
</DataField>
<DataField name="orientation" optype="categorical" dataType="string">
<Value value="0"/>
<Value value="1"/>
<Value value="2"/>
<Value value="3"/>
</DataField>
<DataField name="isHeteroExperience" optype="categorical" dataType="string">
<Value value="True"/>
<Value value="False"/>
</DataField>
<DataField name="heteroExperience" optype="categorical" dataType="string">
<Value value="0"/>
<Value value="1"/>
<Value value="2"/>
</DataField>
<DataField name="sexFrequency" optype="categorical" dataType="string">
<Value value="0"/>
<Value value="1"/>
<Value value="2"/>
<Value value="3"/>
<Value value="4"/>
<Value value="5"/>
</DataField>
<DataField name="isSexLike" optype="categorical" dataType="string">
<Value value="True"/>
<Value value="False"/>
</DataField>
<DataField name="isCar" optype="categorical" dataType="string">
<Value value="True"/>
<Value value="False"/>
</DataField>
<DataField name="isFreeDay" optype="categorical" dataType="string">
<Value value="True"/>
<Value value="False"/>
</DataField>
<DataField name="isInterest" optype="categorical" dataType="string">
<Value value="True"/>
<Value value="False"/>
</DataField>
<DataField name="isSports" optype="categorical" dataType="string">
<Value value="True"/>
<Value value="False"/>
</DataField>
<DataField name="isMusic" optype="categorical" dataType="string">
<Value value="True"/>
<Value value="False"/>
</DataField>
<DataField name="smoking" optype="categorical" dataType="string">
<Value value="0"/>
<Value value="1"/>
<Value value="2"/>
</DataField>
<DataField name="alcohol" optype="categorical" dataType="string">
<Value value="0"/>
<Value value="1"/>
<Value value="2"/>
<Value value="3"/>
</DataField>
<DataField name="drugs" optype="categorical" dataType="string">
<Value value="0"/>
<Value value="1"/>
<Value value="2"/>
<Value value="3"/>
</DataField>
<DataField name="aboutMe" optype="categorical" dataType="string">
<Value value="none"/>
<Value value="normal"/>
<Value value="high"/>
<Value value="veryhigh"/>
</DataField>
<DataField name="gender" optype="categorical" dataType="string">
<Value value="0"/>
<Value value="1"/>
</DataField>
</DataDictionary>
<TreeModel modelName="DecisionTree" functionName="classification" splitCharacteristic="multiSplit">
<MiningSchema>
<MiningField name="photos"/>
<MiningField name="age"/>
<MiningField name="frPairFF"/>
<MiningField name="frPairMF"/>
<MiningField name="frPairMM"/>
<MiningField name="minMaxAge"/>
<MiningField name="aimFriendship"/>
<MiningField name="aimLove"/>
<MiningField name="aimMarriage"/>
<MiningField name="aimOther"/>
<MiningField name="aimSex"/>
<MiningField name="marriage"/>
<MiningField name="kids"/>
<MiningField name="isBody"/>
<MiningField name="isProfession"/>
<MiningField name="dayRegime"/>
<MiningField name="isLanguages"/>
<MiningField name="materialStatus"/>
<MiningField name="household"/>
<MiningField name="isPriorities"/>
<MiningField name="priorityCareer"/>
<MiningField name="priorityEquilibrium"/>
<MiningField name="priorityFamily"/>
<MiningField name="priorityPubService"/>
<MiningField name="priorityRealization"/>
<MiningField name="prioritySex"/>
<MiningField name="priorityWealth"/>
<MiningField name="orientation"/>
<MiningField name="isHeteroExperience"/>
<MiningField name="heteroExperience"/>
<MiningField name="sexFrequency"/>
<MiningField name="isSexLike"/>
<MiningField name="isCar"/>
<MiningField name="isFreeDay"/>
<MiningField name="isInterest"/>
<MiningField name="isSports"/>
<MiningField name="isMusic"/>
<MiningField name="smoking"/>
<MiningField name="alcohol"/>
<MiningField name="drugs"/>
<MiningField name="aboutMe"/>
<MiningField name="gender" usageType="predicted"/>
</MiningSchema>
<Node id="0" score="1" recordCount="201775.0">
<True/>
<ScoreDistribution value="0" recordCount="92389.0"/>
<ScoreDistribution value="1" recordCount="109386.0"/>
<Node id="1" score="1" recordCount="177614.0">
<SimplePredicate field="aimSex" operator="equal" value="False"/>
<ScoreDistribution value="0" recordCount="88393.0"/>
<ScoreDistribution value="1" recordCount="89221.0"/>
<Node id="2" score="0" recordCount="135493.0">
<SimplePredicate field="isCar" operator="equal" value="False"/>
<ScoreDistribution value="0" recordCount="76719.0"/>
<ScoreDistribution value="1" recordCount="58774.0"/>
<Node id="3" score="1" recordCount="71301.0">
<SimplePredicate field="minMaxAge" operator="equal" value="18-20"/>
<ScoreDistribution value="0" recordCount="31835.0"/>
<ScoreDistribution value="1" recordCount="39466.0"/>
<Node id="4" score="1" recordCount="41751.0">
<SimplePredicate field="smoking" operator="equal" value="0"/>
<ScoreDistribution value="0" recordCount="17952.0"/>
<ScoreDistribution value="1" recordCount="23799.0"/>
<Node id="5" score="1" recordCount="37133.0">
<SimplePredicate field="isFreeDay" operator="equal" value="False"/>
<ScoreDistribution value="0" recordCount="14743.0"/>
<ScoreDistribution value="1" recordCount="22390.0"/>
<Node id="6" score="1" recordCount="36913.0">
<SimplePredicate field="frPairFF" operator="equal" value="False"/>
<ScoreDistribution value="0" recordCount="14708.0"/>
<ScoreDistribution value="1" recordCount="22205.0"/>
<Node id="7" score="0" recordCount="1199.0">
<SimplePredicate field="aboutMe" operator="equal" value="high"/>
<ScoreDistribution value="0" recordCount="793.0"/>
<ScoreDistribution value="1" recordCount="406.0"/>
<Node id="8" score="0" recordCount="1021.0">
<SimplePredicate field="orientation" operator="equal" value="0"/>
<ScoreDistribution value="0" recordCount="711.0"/>
<ScoreDistribution value="1" recordCount="310.0"/>
<Node id="9" score="0" recordCount="721.0">
<SimplePredicate field="kids" operator="equal" value="0"/>
<ScoreDistribution value="0" recordCount="468.0"/>
<ScoreDistribution value="1" recordCount="253.0"/>
<Node id="10" score="0" recordCount="699.0">
<SimplePredicate field="prioritySex" operator="equal" value="False"/>
<ScoreDistribution value="0" recordCount="458.0"/>
<ScoreDistribution value="1" recordCount="241.0"/>
<Node id="11" score="0" recordCount="631.0">
<SimplePredicate field="priorityFamily" operator="equal" value="False"/>
<ScoreDistribution value="0" recordCount="403.0"/>
<ScoreDistribution value="1" recordCount="228.0"/>
<Node id="12" score="0" recordCount="593.0">
<SimplePredicate field="materialStatus" operator="equal" value="0"/>
<ScoreDistribution value="0" recordCount="387.0"/>
<ScoreDistribution value="1" recordCount="206.0"/>
<Node id="13" score="0" recordCount="556.0">
<SimplePredicate field="marriage" operator="equal" value="0"/>
<ScoreDistribution value="0" recordCount="358.0"/>
<ScoreDistribution value="1" recordCount="198.0"/>
<Node id="14" score="0" recordCount="534.0">
<SimplePredicate field="aimMarriage" operator="equal" value="False"/>
<ScoreDistribution value="0" recordCount="349.0"/>
<ScoreDistribution value="1" recordCount="185.0"/>
<Node id="15" score="0" recordCount="524.0">
<SimplePredicate field="priorityRealization" operator="equal" value="False"/>
<ScoreDistribution value="0" recordCount="345.0"/>
<ScoreDistribution value="1" recordCount="179.0"/>
</Node>
<Node id="16" score="1" recordCount="10.0">
<SimplePredicate field="priorityRealization" operator="equal" value="True"/>
<ScoreDistribution value="0" recordCount="4.0"/>
<ScoreDistribution value="1" recordCount="6.0"/>
</Node>
</Node>
<Node id="17" score="1" recordCount="22.0">
<SimplePredicate field="aimMarriage" operator="equal" value="True"/>
<ScoreDistribution value="0" recordCount="9.0"/>
<ScoreDistribution value="1" recordCount="13.0"/>
<Node id="18" score="1" recordCount="11.0">
<SimplePredicate field="age" operator="lessOrEqual" value="25.0"/>
<ScoreDistribution value="0" recordCount="2.0"/>
<ScoreDistribution value="1" recordCount="9.0"/>
</Node>
<Node id="19" score="0" recordCount="11.0">
<True/>
<ScoreDistribution value="0" recordCount="7.0"/>
<ScoreDistribution value="1" recordCount="4.0"/>
</Node>
</Node>
</Node>
<Node id="20" score="0" recordCount="2.0">
<SimplePredicate field="marriage" operator="equal" value="1"/>
<ScoreDistribution value="0" recordCount="2.0"/>
<ScoreDistribution value="1" recordCount="0.0"/>
</Node>
<Node id="21" score="0" recordCount="0.0">
<SimplePredicate field="marriage" operator="equal" value="2"/>
<ScoreDistribution value="0" recordCount="0.0"/>
<ScoreDistribution value="1" recordCount="0.0"/>
</Node>
<Node id="22" score="1" recordCount="1.0">
<SimplePredicate field="marriage" operator="equal" value="3"/>
<ScoreDistribution value="0" recordCount="0.0"/>
<ScoreDistribution value="1" recordCount="1.0"/>
</Node>
<Node id="23" score="0" recordCount="34.0">
<SimplePredicate field="marriage" operator="equal" value="4"/>
<ScoreDistribution value="0" recordCount="27.0"/>
<ScoreDistribution value="1" recordCount="7.0"/>
</Node>
</Node>
<Node id="24" score="0" recordCount="1.0">
<SimplePredicate field="materialStatus" operator="equal" value="1"/>
<ScoreDistribution value="0" recordCount="1.0"/>
<ScoreDistribution value="1" recordCount="0.0"/>
</Node>
<Node id="25" score="0" recordCount="5.0">
<SimplePredicate field="materialStatus" operator="equal" value="2"/>
<ScoreDistribution value="0" recordCount="4.0"/>
<ScoreDistribution value="1" recordCount="1.0"/>
</Node>
<Node id="26" score="1" recordCount="15.0">
<SimplePredicate field="materialStatus" operator="equal" value="3"/>
<ScoreDistribution value="0" recordCount="6.0"/>
<ScoreDistribution value="1" recordCount="9.0"/>
</Node>
<Node id="27" score="1" recordCount="17.0">
<SimplePredicate field="materialStatus" operator="equal" value="4"/>
<ScoreDistribution value="0" recordCount="5.0"/>
<ScoreDistribution value="1" recordCount="12.0"/>
</Node>
</Node>
<Node id="28" score="0" recordCount="68.0">
<SimplePredicate field="priorityFamily" operator="equal" value="True"/>
<ScoreDistribution value="0" recordCount="55.0"/>
<ScoreDistribution value="1" recordCount="13.0"/>
</Node>
</Node>
<Node id="29" score="1" recordCount="22.0">
<SimplePredicate field="prioritySex" operator="equal" value="True"/>
<ScoreDistribution value="0" recordCount="10.0"/>
<ScoreDistribution value="1" recordCount="12.0"/>
</Node>
</Node>
<Node id="30" score="0" recordCount="256.0">
<SimplePredicate field="kids" operator="equal" value="1"/>
<ScoreDistribution value="0" recordCount="207.0"/>
<ScoreDistribution value="1" recordCount="49.0"/>
<Node id="31" score="0" recordCount="209.0">
<SimplePredicate field="age" operator="lessOrEqual" value="27.0"/>
<ScoreDistribution value="0" recordCount="185.0"/>
<ScoreDistribution value="1" recordCount="24.0"/>
</Node>
<Node id="32" score="1" recordCount="47.0">
<True/>
<ScoreDistribution value="0" recordCount="22.0"/>
<ScoreDistribution value="1" recordCount="25.0"/>
<Node id="33" score="1" recordCount="36.0">
<SimplePredicate field="priorityEquilibrium" operator="equal" value="False"/>
<ScoreDistribution value="0" recordCount="15.0"/>
<ScoreDistribution value="1" recordCount="21.0"/>
<Node id="34" score="0" recordCount="18.0">
<SimplePredicate field="isBody" operator="equal" value="False"/>
<ScoreDistribution value="0" recordCount="11.0"/>
<ScoreDistribution value="1" recordCount="7.0"/>
</Node>
<Node id="35" score="1" recordCount="18.0">
<SimplePredicate field="isBody" operator="equal" value="True"/>
<ScoreDistribution value="0" recordCount="4.0"/>
<ScoreDistribution value="1" recordCount="14.0"/>
</Node>
</Node>
<Node id="36" score="0" recordCount="11.0">
<SimplePredicate field="priorityEquilibrium" operator="equal" value="True"/>
<ScoreDistribution value="0" recordCount="7.0"/>
<ScoreDistribution value="1" recordCount="4.0"/>
</Node>
</Node>
</Node>
<Node id="37" score="0" recordCount="0.0">
<SimplePredicate field="kids" operator="equal" value="2"/>
<ScoreDistribution value="0" recordCount="0.0"/>
<ScoreDistribution value="1" recordCount="0.0"/>
</Node>
<Node id="38" score="0" recordCount="36.0">
<SimplePredicate field="kids" operator="equal" value="3"/>
<ScoreDistribution value="0" recordCount="34.0"/>
<ScoreDistribution value="1" recordCount="2.0"/>
</Node>
<Node id="39" score="1" recordCount="8.0">
<SimplePredicate field="kids" operator="equal" value="4"/>
<ScoreDistribution value="0" recordCount="2.0"/>
<ScoreDistribution value="1" recordCount="6.0"/>
</Node>
</Node>
<Node id="40" score="1" recordCount="157.0">
<SimplePredicate field="orientation" operator="equal" value="1"/>
<ScoreDistribution value="0" recordCount="78.0"/>
<ScoreDistribution value="1" recordCount="79.0"/>
<Node id="41" score="1" recordCount="98.0">
<SimplePredicate field="kids" operator="equal" value="0"/>
<ScoreDistribution value="0" recordCount="39.0"/>
<ScoreDistribution value="1" recordCount="59.0"/>
</Node>
<Node id="42" score="0" recordCount="49.0">
<SimplePredicate field="kids" operator="equal" value="1"/>
<ScoreDistribution value="0" recordCount="32.0"/>
<ScoreDistribution value="1" recordCount="17.0"/>
<Node id="43" score="0" recordCount="38.0">
<SimplePredicate field="age" operator="lessOrEqual" value="26.0"/>
<ScoreDistribution value="0" recordCount="29.0"/>
<ScoreDistribution value="1" recordCount="9.0"/>
</Node>
<Node id="44" score="1" recordCount="11.0">
<True/>
<ScoreDistribution value="0" recordCount="3.0"/>
<ScoreDistribution value="1" recordCount="8.0"/>
</Node>
</Node>
<Node id="45" score="0" recordCount="0.0">
<SimplePredicate field="kids" operator="equal" value="2"/>
<ScoreDistribution value="0" recordCount="0.0"/>
<ScoreDistribution value="1" recordCount="0.0"/>
</Node>
<Node id="46" score="0" recordCount="6.0">
<SimplePredicate field="kids" operator="equal" value="3"/>
<ScoreDistribution value="0" recordCount="6.0"/>
<ScoreDistribution value="1" recordCount="0.0"/>
</Node>
<Node id="47" score="1" recordCount="4.0">
<SimplePredicate field="kids" operator="equal" value="4"/>
<ScoreDistribution value="0" recordCount="1.0"/>
<ScoreDistribution value="1" recordCount="3.0"/>
</Node>
</Node>
<Node id="48" score="1" recordCount="12.0">
<SimplePredicate field="orientation" operator="equal" value="2"/>
<ScoreDistribution value="0" recordCount="1.0"/>
<ScoreDistribution value="1" recordCount="11.0"/>
</Node>
<Node id="49" score="1" recordCount="9.0">
<SimplePredicate field="orientation" operator="equal" value="3"/>
<ScoreDistribution value="0" recordCount="3.0"/>
<ScoreDistribution value="1" recordCount="6.0"/>
</Node>
</Node>
<Node id="50" score="1" recordCount="31264.0">
<SimplePredicate field="aboutMe" operator="equal" value="none"/>
<ScoreDistribution value="0" recordCount="11615.0"/>
<ScoreDistribution value="1" recordCount="19649.0"/>
<Node id="51" score="1" recordCount="30329.0">
<SimplePredicate field="sexFrequency" operator="equal" value="0"/>
<ScoreDistribution value="0" recordCount="11464.0"/>
<ScoreDistribution value="1" recordCount="18865.0"/>
<Node id="52" score="1" recordCount="29086.0">
<SimplePredicate field="priorityFamily" operator="equal" value="False"/>
<ScoreDistribution value="0" recordCount="10762.0"/>
<ScoreDistribution value="1" recordCount="18324.0"/>
<Node id="53" score="1" recordCount="28913.0">
<SimplePredicate field="prioritySex" operator="equal" value="False"/>
<ScoreDistribution value="0" recordCount="10735.0"/>
<ScoreDistribution value="1" recordCount="18178.0"/>
<Node id="54" score="1" recordCount="27484.0">
<SimplePredicate field="age" operator="lessOrEqual" value="43.0"/>
<ScoreDistribution value="0" recordCount="9990.0"/>
<ScoreDistribution value="1" recordCount="17494.0"/>
<Node id="55" score="1" recordCount="25862.0">
<SimplePredicate field="kids" operator="equal" value="0"/>
<ScoreDistribution value="0" recordCount="9278.0"/>
<ScoreDistribution value="1" recordCount="16584.0"/>
<Node id="56" score="1" recordCount="25804.0">
<SimplePredicate field="drugs" operator="equal" value="0"/>
<ScoreDistribution value="0" recordCount="9255.0"/>
<ScoreDistribution value="1" recordCount="16549.0"/>
<Node id="57" score="1" recordCount="25732.0">
<SimplePredicate field="aimLove" operator="equal" value="False"/>
<ScoreDistribution value="0" recordCount="9214.0"/>
<ScoreDistribution value="1" recordCount="16518.0"/>
<Node id="58" score="1" recordCount="25315.0">
<SimplePredicate field="orientation" operator="equal" value="0"/>
<ScoreDistribution value="0" recordCount="9114.0"/>
<ScoreDistribution value="1" recordCount="16201.0"/>
<Node id="59" score="1" recordCount="25237.0">
<SimplePredicate field="priorityRealization" operator="equal" value="False"/>
<ScoreDistribution value="0" recordCount="9073.0"/>
<ScoreDistribution value="1" recordCount="16164.0"/>
<Node id="60" score="1" recordCount="25074.0">
<SimplePredicate field="priorityEquilibrium" operator="equal" value="False"/>
<ScoreDistribution value="0" recordCount="8990.0"/>
<ScoreDistribution value="1" recordCount="16084.0"/>
<Node id="61" score="1" recordCount="24399.0">
<SimplePredicate field="aimFriendship" operator="equal" value="False"/>
<ScoreDistribution value="0" recordCount="8664.0"/>
<ScoreDistribution value="1" recordCount="15735.0"/>
<Node id="62" score="1" recordCount="23922.0">
<SimplePredicate field="dayRegime" operator="equal" value="0"/>
<ScoreDistribution value="0" recordCount="8453.0"/>
<ScoreDistribution value="1" recordCount="15469.0"/>
<Node id="63" score="1" recordCount="23855.0">
<SimplePredicate field="isMusic" operator="equal" value="False"/>
<ScoreDistribution value="0" recordCount="8422.0"/>
<ScoreDistribution value="1" recordCount="15433.0"/>
</Node>
<Node id="64" score="1" recordCount="67.0">
<SimplePredicate field="isMusic" operator="equal" value="True"/>
<ScoreDistribution value="0" recordCount="31.0"/>
<ScoreDistribution value="1" recordCount="36.0"/>
<Node id="65" score="0" recordCount="45.0">
<SimplePredicate field="isInterest" operator="equal" value="False"/>
<ScoreDistribution value="0" recordCount="25.0"/>
<ScoreDistribution value="1" recordCount="20.0"/>
</Node>
<Node id="66" score="1" recordCount="22.0">
<SimplePredicate field="isInterest" operator="equal" value="True"/>
<ScoreDistribution value="0" recordCount="6.0"/>
<ScoreDistribution value="1" recordCount="16.0"/>
</Node>
</Node>
</Node>
<Node id="67" score="1" recordCount="377.0">
<SimplePredicate field="dayRegime" operator="equal" value="1"/>
<ScoreDistribution value="0" recordCount="164.0"/>
<ScoreDistribution value="1" recordCount="213.0"/>
<Node id="68" score="0" recordCount="36.0">
<SimplePredicate field="isBody" operator="equal" value="False"/>
<ScoreDistribution value="0" recordCount="22.0"/>
<ScoreDistribution value="1" recordCount="14.0"/>
</Node>
<Node id="69" score="1" recordCount="341.0">
<SimplePredicate field="isBody" operator="equal" value="True"/>
<ScoreDistribution value="0" recordCount="142.0"/>
<ScoreDistribution value="1" recordCount="199.0"/>
</Node>
</Node>
<Node id="70" score="1" recordCount="100.0">
<SimplePredicate field="dayRegime" operator="equal" value="2"/>
<ScoreDistribution value="0" recordCount="47.0"/>
<ScoreDistribution value="1" recordCount="53.0"/>
<Node id="71" score="0" recordCount="50.0">
<SimplePredicate field="materialStatus" operator="equal" value="0"/>
<ScoreDistribution value="0" recordCount="29.0"/>
<ScoreDistribution value="1" recordCount="21.0"/>
</Node>
<Node id="72" score="1" recordCount="1.0">
<SimplePredicate field="materialStatus" operator="equal" value="1"/>
<ScoreDistribution value="0" recordCount="0.0"/>
<ScoreDistribution value="1" recordCount="1.0"/>
</Node>
<Node id="73" score="0" recordCount="4.0">
<SimplePredicate field="materialStatus" operator="equal" value="2"/>
<ScoreDistribution value="0" recordCount="2.0"/>
<ScoreDistribution value="1" recordCount="2.0"/>
</Node>
<Node id="74" score="1" recordCount="20.0">
<SimplePredicate field="materialStatus" operator="equal" value="3"/>
<ScoreDistribution value="0" recordCount="5.0"/>
<ScoreDistribution value="1" recordCount="15.0"/>
</Node>
<Node id="75" score="1" recordCount="25.0">
<SimplePredicate field="materialStatus" operator="equal" value="4"/>
<ScoreDistribution value="0" recordCount="11.0"/>
<ScoreDistribution value="1" recordCount="14.0"/>
<Node id="76" score="0" recordCount="12.0">
<SimplePredicate field="age" operator="lessOrEqual" value="26.0"/>
<ScoreDistribution value="0" recordCount="9.0"/>
<ScoreDistribution value="1" recordCount="3.0"/>
</Node>
<Node id="77" score="1" recordCount="13.0">
<True/>
<ScoreDistribution value="0" recordCount="2.0"/>
<ScoreDistribution value="1" recordCount="11.0"/>
</Node>
</Node>
</Node>
</Node>
<Node id="78" score="1" recordCount="675.0">
<SimplePredicate field="aimFriendship" operator="equal" value="True"/>
<ScoreDistribution value="0" recordCount="326.0"/>
<ScoreDistribution value="1" recordCount="349.0"/>
<Node id="79" score="0" recordCount="632.0">
<SimplePredicate field="materialStatus" operator="equal" value="0"/>
<ScoreDistribution value="0" recordCount="318.0"/>
<ScoreDistribution value="1" recordCount="314.0"/>
<Node id="80" score="0" recordCount="486.0">
<SimplePredicate field="aimMarriage" operator="equal" value="False"/>
<ScoreDistribution value="0" recordCount="273.0"/>
<ScoreDistribution value="1" recordCount="213.0"/>
<Node id="81" score="0" recordCount="452.0">
<SimplePredicate field="dayRegime" operator="equal" value="0"/>
<ScoreDistribution value="0" recordCount="247.0"/>
<ScoreDistribution value="1" recordCount="205.0"/>
<Node id="82" score="0" recordCount="385.0">
<SimplePredicate field="isBody" operator="equal" value="False"/>
<ScoreDistribution value="0" recordCount="217.0"/>
<ScoreDistribution value="1" recordCount="168.0"/>
</Node>
<Node id="83" score="1" recordCount="67.0">
<SimplePredicate field="isBody" operator="equal" value="True"/>
<ScoreDistribution value="0" recordCount="30.0"/>
<ScoreDistribution value="1" recordCount="37.0"/>
</Node>
</Node>
<Node id="84" score="0" recordCount="27.0">
<SimplePredicate field="dayRegime" operator="equal" value="1"/>
<ScoreDistribution value="0" recordCount="19.0"/>
<ScoreDistribution value="1" recordCount="8.0"/>
</Node>
<Node id="85" score="0" recordCount="7.0">
<SimplePredicate field="dayRegime" operator="equal" value="2"/>
<ScoreDistribution value="0" recordCount="7.0"/>
<ScoreDistribution value="1" recordCount="0.0"/>
</Node>
</Node>
<Node id="86" score="1" recordCount="146.0">
<SimplePredicate field="aimMarriage" operator="equal" value="True"/>
<ScoreDistribution value="0" recordCount="45.0"/>
<ScoreDistribution value="1" recordCount="101.0"/>
</Node>
</Node>
<Node id="87" score="1" recordCount="1.0">
<SimplePredicate field="materialStatus" operator="equal" value="1"/>
<ScoreDistribution value="0" recordCount="0.0"/>
<ScoreDistribution value="1" recordCount="1.0"/>
</Node>
<Node id="88" score="0" recordCount="2.0">
<SimplePredicate field="materialStatus" operator="equal" value="2"/>
<ScoreDistribution value="0" recordCount="1.0"/>
<ScoreDistribution value="1" recordCount="1.0"/>
</Node>
<Node id="89" score="1" recordCount="22.0">
<SimplePredicate field="materialStatus" operator="equal" value="3"/>
<ScoreDistribution value="0" recordCount="3.0"/>
<ScoreDistribution value="1" recordCount="19.0"/>
</Node>
<Node id="90" score="1" recordCount="18.0">
<SimplePredicate field="materialStatus" operator="equal" value="4"/>
<ScoreDistribution value="0" recordCount="4.0"/>
<ScoreDistribution value="1" recordCount="14.0"/>
</Node>
</Node>
</Node>
<Node id="91" score="0" recordCount="163.0">
<SimplePredicate field="priorityEquilibrium" operator="equal" value="True"/>
<ScoreDistribution value="0" recordCount="83.0"/>
<ScoreDistribution value="1" recordCount="80.0"/>
<Node id="92" score="0" recordCount="68.0">
<SimplePredicate field="materialStatus" operator="equal" value="0"/>
<ScoreDistribution value="0" recordCount="45.0"/>
<ScoreDistribution value="1" recordCount="23.0"/>
</Node>
<Node id="93" score="1" recordCount="4.0">
<SimplePredicate field="materialStatus" operator="equal" value="1"/>
<ScoreDistribution value="0" recordCount="0.0"/>
<ScoreDistribution value="1" recordCount="4.0"/>
</Node>
<Node id="94" score="0" recordCount="16.0">
<SimplePredicate field="materialStatus" operator="equal" value="2"/>
<ScoreDistribution value="0" recordCount="9.0"/>
<ScoreDistribution value="1" recordCount="7.0"/>
</Node>
<Node id="95" score="1" recordCount="57.0">
<SimplePredicate field="materialStatus" operator="equal" value="3"/>
<ScoreDistribution value="0" recordCount="22.0"/>
<ScoreDistribution value="1" recordCount="35.0"/>
</Node>
<Node id="96" score="1" recordCount="18.0">
<SimplePredicate field="materialStatus" operator="equal" value="4"/>
<ScoreDistribution value="0" recordCount="7.0"/>
<ScoreDistribution value="1" recordCount="11.0"/>
</Node>
</Node>
</Node>
<Node id="97" score="0" recordCount="78.0">
<SimplePredicate field="priorityRealization" operator="equal" value="True"/>
<ScoreDistribution value="0" recordCount="41.0"/>
<ScoreDistribution value="1" recordCount="37.0"/>
<Node id="98" score="0" recordCount="10.0">
<SimplePredicate field="isBody" operator="equal" value="False"/>
<ScoreDistribution value="0" recordCount="9.0"/>
<ScoreDistribution value="1" recordCount="1.0"/>
</Node>
<Node id="99" score="1" recordCount="68.0">
<SimplePredicate field="isBody" operator="equal" value="True"/>
<ScoreDistribution value="0" recordCount="32.0"/>
<ScoreDistribution value="1" recordCount="36.0"/>
<Node id="100" score="1" recordCount="16.0">
<SimplePredicate field="dayRegime" operator="equal" value="0"/>
<ScoreDistribution value="0" recordCount="6.0"/>
<ScoreDistribution value="1" recordCount="10.0"/>
</Node>
<Node id="101" score="1" recordCount="40.0">
<SimplePredicate field="dayRegime" operator="equal" value="1"/>
<ScoreDistribution value="0" recordCount="16.0"/>
<ScoreDistribution value="1" recordCount="24.0"/>
</Node>
<Node id="102" score="0" recordCount="12.0">
<SimplePredicate field="dayRegime" operator="equal" value="2"/>
<ScoreDistribution value="0" recordCount="10.0"/>
<ScoreDistribution value="1" recordCount="2.0"/>
</Node>
</Node>
</Node>
</Node>
<Node id="103" score="1" recordCount="384.0">
<SimplePredicate field="orientation" operator="equal" value="1"/>
<ScoreDistribution value="0" recordCount="87.0"/>
<ScoreDistribution value="1" recordCount="297.0"/>
</Node>
<Node id="104" score="1" recordCount="15.0">
<SimplePredicate field="orientation" operator="equal" value="2"/>
<ScoreDistribution value="0" recordCount="3.0"/>
<ScoreDistribution value="1" recordCount="12.0"/>
</Node>
<Node id="105" score="0" recordCount="18.0">
<SimplePredicate field="orientation" operator="equal" value="3"/>
<ScoreDistribution value="0" recordCount="10.0"/>
<ScoreDistribution value="1" recordCount="8.0"/>
</Node>
</Node>
<Node id="106" score="0" recordCount="72.0">
<SimplePredicate field="aimLove" operator="equal" value="True"/>
<ScoreDistribution value="0" recordCount="41.0"/>
<ScoreDistribution value="1" recordCount="31.0"/>
<Node id="107" score="0" recordCount="54.0">
<SimplePredicate field="isBody" operator="equal" value="False"/>
<ScoreDistribution value="0" recordCount="37.0"/>
<ScoreDistribution value="1" recordCount="17.0"/>
</Node>
<Node id="108" score="1" recordCount="18.0">
<SimplePredicate field="isBody" operator="equal" value="True"/>
<ScoreDistribution value="0" recordCount="4.0"/>
<ScoreDistribution value="1" recordCount="14.0"/>
</Node>
</Node>
</Node>
<Node id="109" score="1" recordCount="47.0">
<SimplePredicate field="drugs" operator="equal" value="1"/>
<ScoreDistribution value="0" recordCount="23.0"/>
<ScoreDistribution value="1" recordCount="24.0"/>
<Node id="110" score="0" recordCount="23.0">
<SimplePredicate field="isBody" operator="equal" value="False"/>
<ScoreDistribution value="0" recordCount="15.0"/>
<ScoreDistribution value="1" recordCount="8.0"/>
</Node>
<Node id="111" score="1" recordCount="24.0">
<SimplePredicate field="isBody" operator="equal" value="True"/>
<ScoreDistribution value="0" recordCount="8.0"/>
<ScoreDistribution value="1" recordCount="16.0"/>
</Node>
</Node>
<Node id="112" score="1" recordCount="11.0">
<SimplePredicate field="drugs" operator="equal" value="2"/>
<ScoreDistribution value="0" recordCount="0.0"/>
<ScoreDistribution value="1" recordCount="11.0"/>
</Node>
<Node id="113" score="0" recordCount="0.0">
<SimplePredicate field="drugs" operator="equal" value="3"/>
<ScoreDistribution value="0" recordCount="0.0"/>
<ScoreDistribution value="1" recordCount="0.0"/>
</Node>
</Node>
<Node id="114" score="1" recordCount="1345.0">
<SimplePredicate field="kids" operator="equal" value="1"/>
<ScoreDistribution value="0" recordCount="552.0"/>
<ScoreDistribution value="1" recordCount="793.0"/>
<Node id="115" score="1" recordCount="156.0">
<SimplePredicate field="marriage" operator="equal" value="0"/>
<ScoreDistribution value="0" recordCount="76.0"/>
<ScoreDistribution value="1" recordCount="80.0"/>
<Node id="116" score="1" recordCount="39.0">
<SimplePredicate field="isLanguages" operator="equal" value="False"/>
<ScoreDistribution value="0" recordCount="12.0"/>
<ScoreDistribution value="1" recordCount="27.0"/>
</Node>
<Node id="117" score="0" recordCount="117.0">
<SimplePredicate field="isLanguages" operator="equal" value="True"/>
<ScoreDistribution value="0" recordCount="64.0"/>
<ScoreDistribution value="1" recordCount="53.0"/>
<Node id="118" score="0" recordCount="100.0">
<SimplePredicate field="dayRegime" operator="equal" value="0"/>
<ScoreDistribution value="0" recordCount="57.0"/>
<ScoreDistribution value="1" recordCount="43.0"/>
<Node id="119" score="0" recordCount="73.0">
<SimplePredicate field="aimMarriage" operator="equal" value="False"/>
<ScoreDistribution value="0" recordCount="47.0"/>
<ScoreDistribution value="1" recordCount="26.0"/>
</Node>
<Node id="120" score="1" recordCount="27.0">
<SimplePredicate field="aimMarriage" operator="equal" value="True"/>
<ScoreDistribution value="0" recordCount="10.0"/>
<ScoreDistribution value="1" recordCount="17.0"/>
</Node>
</Node>
<Node id="121" score="1" recordCount="15.0">
<SimplePredicate field="dayRegime" operator="equal" value="1"/>
<ScoreDistribution value="0" recordCount="5.0"/>
<ScoreDistribution value="1" recordCount="10.0"/>
</Node>
<Node id="122" score="0" recordCount="2.0">
<SimplePredicate field="dayRegime" operator="equal" value="2"/>
<ScoreDistribution value="0" recordCount="2.0"/>
<ScoreDistribution value="1" recordCount="0.0"/>
</Node>
</Node>
</Node>
<Node id="123" score="1" recordCount="13.0">
<SimplePredicate field="marriage" operator="equal" value="1"/>
<ScoreDistribution value="0" recordCount="6.0"/>
<ScoreDistribution value="1" recordCount="7.0"/>
</Node>
<Node id="124" score="0" recordCount="1.0">
<SimplePredicate field="marriage" operator="equal" value="2"/>
<ScoreDistribution value="0" recordCount="1.0"/>
<ScoreDistribution value="1" recordCount="0.0"/>
</Node>
<Node id="125" score="0" recordCount="52.0">
<SimplePredicate field="marriage" operator="equal" value="3"/>
<ScoreDistribution value="0" recordCount="52.0"/>
<ScoreDistribution value="1" recordCount="0.0"/>
</Node>
<Node id="126" score="1" recordCount="1123.0">
<SimplePredicate field="marriage" operator="equal" value="4"/>
<ScoreDistribution value="0" recordCount="417.0"/>
<ScoreDistribution value="1" recordCount="706.0"/>
</Node>
</Node>
<Node id="127" score="0" recordCount="0.0">
<SimplePredicate field="kids" operator="equal" value="2"/>
<ScoreDistribution value="0" recordCount="0.0"/>
<ScoreDistribution value="1" recordCount="0.0"/>
</Node>
<Node id="128" score="0" recordCount="221.0">
<SimplePredicate field="kids" operator="equal" value="3"/>
<ScoreDistribution value="0" recordCount="156.0"/>
<ScoreDistribution value="1" recordCount="65.0"/>
<Node id="129" score="0" recordCount="48.0">
<SimplePredicate field="marriage" operator="equal" value="0"/>
<ScoreDistribution value="0" recordCount="46.0"/>
<ScoreDistribution value="1" recordCount="2.0"/>
</Node>
<Node id="130" score="1" recordCount="93.0">
<SimplePredicate field="marriage" operator="equal" value="1"/>
<ScoreDistribution value="0" recordCount="35.0"/>
<ScoreDistribution value="1" recordCount="58.0"/>
<Node id="131" score="0" recordCount="55.0">
<SimplePredicate field="age" operator="lessOrEqual" value="33.0"/>
<ScoreDistribution value="0" recordCount="28.0"/>
<ScoreDistribution value="1" recordCount="27.0"/>
<Node id="132" score="0" recordCount="11.0">
<SimplePredicate field="age" operator="lessOrEqual" value="24.0"/>
<ScoreDistribution value="0" recordCount="9.0"/>
<ScoreDistribution value="1" recordCount="2.0"/>
</Node>
<Node id="133" score="1" recordCount="44.0">
<True/>
<ScoreDistribution value="0" recordCount="19.0"/>
<ScoreDistribution value="1" recordCount="25.0"/>
<Node id="134" score="1" recordCount="17.0">
<SimplePredicate field="aimFriendship" operator="equal" value="False"/>
<ScoreDistribution value="0" recordCount="4.0"/>
<ScoreDistribution value="1" recordCount="13.0"/>
</Node>
<Node id="135" score="0" recordCount="27.0">
<SimplePredicate field="aimFriendship" operator="equal" value="True"/>
<ScoreDistribution value="0" recordCount="15.0"/>
<ScoreDistribution value="1" recordCount="12.0"/>
</Node>
</Node>
</Node>
<Node id="136" score="1" recordCount="38.0">
<True/>
<ScoreDistribution value="0" recordCount="7.0"/>
<ScoreDistribution value="1" recordCount="31.0"/>
</Node>
</Node>
<Node id="137" score="0" recordCount="4.0">
<SimplePredicate field="marriage" operator="equal" value="2"/>
<ScoreDistribution value="0" recordCount="4.0"/>
<ScoreDistribution value="1" recordCount="0.0"/>
</Node>
<Node id="138" score="0" recordCount="2.0">
<SimplePredicate field="marriage" operator="equal" value="3"/>
<ScoreDistribution value="0" recordCount="2.0"/>
<ScoreDistribution value="1" recordCount="0.0"/>
</Node>
<Node id="139" score="0" recordCount="74.0">
<SimplePredicate field="marriage" operator="equal" value="4"/>
<ScoreDistribution value="0" recordCount="69.0"/>
<ScoreDistribution value="1" recordCount="5.0"/>
</Node>
</Node>
<Node id="140" score="1" recordCount="56.0">
<SimplePredicate field="kids" operator="equal" value="4"/>
<ScoreDistribution value="0" recordCount="4.0"/>
<ScoreDistribution value="1" recordCount="52.0"/>
</Node>
</Node>
<Node id="141" score="0" recordCount="1429.0">
<True/>
<ScoreDistribution value="0" recordCount="745.0"/>
<ScoreDistribution value="1" recordCount="684.0"/>
<Node id="142" score="0" recordCount="10.0">
<SimplePredicate field="photos" operator="equal" value="high"/>
<ScoreDistribution value="0" recordCount="6.0"/>
<ScoreDistribution value="1" recordCount="4.0"/>
</Node>
<Node id="143" score="1" recordCount="215.0">
<SimplePredicate field="photos" operator="equal" value="none"/>
<ScoreDistribution value="0" recordCount="66.0"/>
<ScoreDistribution value="1" recordCount="149.0"/>
<Node id="144" score="0" recordCount="36.0">
<SimplePredicate field="isLanguages" operator="equal" value="False"/>
<ScoreDistribution value="0" recordCount="20.0"/>
<ScoreDistribution value="1" recordCount="16.0"/>
</Node>
<Node id="145" score="1" recordCount="179.0">
<SimplePredicate field="isLanguages" operator="equal" value="True"/>
<ScoreDistribution value="0" recordCount="46.0"/>
<ScoreDistribution value="1" recordCount="133.0"/>
</Node>
</Node>
<Node id="146" score="0" recordCount="1203.0">
<SimplePredicate field="photos" operator="equal" value="normal"/>
<ScoreDistribution value="0" recordCount="672.0"/>
<ScoreDistribution value="1" recordCount="531.0"/>
<Node id="147" score="0" recordCount="1131.0">
<SimplePredicate field="marriage" operator="equal" value="0"/>
<ScoreDistribution value="0" recordCount="631.0"/>
<ScoreDistribution value="1" recordCount="500.0"/>
<Node id="148" score="0" recordCount="1083.0">
<SimplePredicate field="isBody" operator="equal" value="False"/>
<ScoreDistribution value="0" recordCount="611.0"/>
<ScoreDistribution value="1" recordCount="472.0"/>
<Node id="149" score="0" recordCount="1064.0">
<SimplePredicate field="aimFriendship" operator="equal" value="False"/>
<ScoreDistribution value="0" recordCount="604.0"/>
<ScoreDistribution value="1" recordCount="460.0"/>
</Node>
<Node id="150" score="1" recordCount="19.0">
<SimplePredicate field="aimFriendship" operator="equal" value="True"/>
<ScoreDistribution value="0" recordCount="7.0"/>
<ScoreDistribution value="1" recordCount="12.0"/>
</Node>
</Node>
<Node id="151" score="1" recordCount="48.0">
<SimplePredicate field="isBody" operator="equal" value="True"/>
<ScoreDistribution value="0" recordCount="20.0"/>
<ScoreDistribution value="1" recordCount="28.0"/>
</Node>
</Node>
<Node id="152" score="1" recordCount="11.0">
<SimplePredicate field="marriage" operator="equal" value="1"/>
<ScoreDistribution value="0" recordCount="3.0"/>
<ScoreDistribution value="1" recordCount="8.0"/>
</Node>
<Node id="153" score="0" recordCount="1.0">
<SimplePredicate field="marriage" operator="equal" value="2"/>
<ScoreDistribution value="0" recordCount="1.0"/>
<ScoreDistribution value="1" recordCount="0.0"/>
</Node>
<Node id="154" score="0" recordCount="0.0">
<SimplePredicate field="marriage" operator="equal" value="3"/>
<ScoreDistribution value="0" recordCount="0.0"/>
<ScoreDistribution value="1" recordCount="0.0"/>
</Node>
<Node id="155" score="0" recordCount="60.0">
<SimplePredicate field="marriage" operator="equal" value="4"/>
<ScoreDistribution value="0" recordCount="37.0"/>
<ScoreDistribution value="1" recordCount="23.0"/>
</Node>
</Node>
<Node id="156" score="0" recordCount="1.0">
<SimplePredicate field="photos" operator="equal" value="veryhigh"/>
<ScoreDistribution value="0" recordCount="1.0"/>
<ScoreDistribution value="1" recordCount="0.0"/>
</Node>
</Node>
</Node>
<Node id="157" score="1" recordCount="173.0">
<SimplePredicate field="prioritySex" operator="equal" value="True"/>
<ScoreDistribution value="0" recordCount="27.0"/>
<ScoreDistribution value="1" recordCount="146.0"/>
</Node>
</Node>
<Node id="158" score="0" recordCount="1243.0">
<SimplePredicate field="priorityFamily" operator="equal" value="True"/>
<ScoreDistribution value="0" recordCount="702.0"/>
<ScoreDistribution value="1" recordCount="541.0"/>
<Node id="159" score="0" recordCount="1041.0">
<SimplePredicate field="prioritySex" operator="equal" value="False"/>
<ScoreDistribution value="0" recordCount="643.0"/>
<ScoreDistribution value="1" recordCount="398.0"/>
<Node id="160" score="0" recordCount="991.0">
<SimplePredicate field="alcohol" operator="equal" value="0"/>
<ScoreDistribution value="0" recordCount="632.0"/>
<ScoreDistribution value="1" recordCount="359.0"/>
<Node id="161" score="0" recordCount="705.0">
<SimplePredicate field="kids" operator="equal" value="0"/>
<ScoreDistribution value="0" recordCount="461.0"/>
<ScoreDistribution value="1" recordCount="244.0"/>
<Node id="162" score="0" recordCount="284.0">
<SimplePredicate field="materialStatus" operator="equal" value="0"/>
<ScoreDistribution value="0" recordCount="213.0"/>
<ScoreDistribution value="1" recordCount="71.0"/>
</Node>
<Node id="163" score="1" recordCount="16.0">
<SimplePredicate field="materialStatus" operator="equal" value="1"/>
<ScoreDistribution value="0" recordCount="6.0"/>
<ScoreDistribution value="1" recordCount="10.0"/>
</Node>
<Node id="164" score="0" recordCount="46.0">
<SimplePredicate field="materialStatus" operator="equal" value="2"/>
<ScoreDistribution value="0" recordCount="27.0"/>
<ScoreDistribution value="1" recordCount="19.0"/>
</Node>
<Node id="165" score="0" recordCount="287.0">
<SimplePredicate field="materialStatus" operator="equal" value="3"/>
<ScoreDistribution value="0" recordCount="186.0"/>
<ScoreDistribution value="1" recordCount="101.0"/>
<Node id="166" score="0" recordCount="257.0">
<SimplePredicate field="priorityPubService" operator="equal" value="False"/>
<ScoreDistribution value="0" recordCount="173.0"/>
<ScoreDistribution value="1" recordCount="84.0"/>
<Node id="167" score="0" recordCount="57.0">
<SimplePredicate field="household" operator="equal" value="0"/>
<ScoreDistribution value="0" recordCount="29.0"/>
<ScoreDistribution value="1" recordCount="28.0"/>
<Node id="168" score="1" recordCount="39.0">
<SimplePredicate field="isProfession" operator="equal" value="False"/>
<ScoreDistribution value="0" recordCount="17.0"/>
<ScoreDistribution value="1" recordCount="22.0"/>
<Node id="169" score="0" recordCount="10.0">
<SimplePredicate field="age" operator="lessOrEqual" value="24.0"/>
<ScoreDistribution value="0" recordCount="8.0"/>
<ScoreDistribution value="1" recordCount="2.0"/>
</Node>
<Node id="170" score="1" recordCount="29.0">
<True/>
<ScoreDistribution value="0" recordCount="9.0"/>
<ScoreDistribution value="1" recordCount="20.0"/>
</Node>
</Node>
<Node id="171" score="0" recordCount="18.0">
<SimplePredicate field="isProfession" operator="equal" value="True"/>
<ScoreDistribution value="0" recordCount="12.0"/>
<ScoreDistribution value="1" recordCount="6.0"/>
</Node>
</Node>
<Node id="172" score="0" recordCount="109.0">
<SimplePredicate field="household" operator="equal" value="1"/>
<ScoreDistribution value="0" recordCount="79.0"/>
<ScoreDistribution value="1" recordCount="30.0"/>
</Node>
<Node id="173" score="0" recordCount="2.0">
<SimplePredicate field="household" operator="equal" value="2"/>
<ScoreDistribution value="0" recordCount="1.0"/>
<ScoreDistribution value="1" recordCount="1.0"/>
</Node>
<Node id="174" score="0" recordCount="81.0">
<SimplePredicate field="household" operator="equal" value="3"/>
<ScoreDistribution value="0" recordCount="61.0"/>
<ScoreDistribution value="1" recordCount="20.0"/>
</Node>
<Node id="175" score="0" recordCount="6.0">
<SimplePredicate field="household" operator="equal" value="4"/>
<ScoreDistribution value="0" recordCount="3.0"/>
<ScoreDistribution value="1" recordCount="3.0"/>
</Node>
<Node id="176" score="0" recordCount="0.0">
<SimplePredicate field="household" operator="equal" value="5"/>
<ScoreDistribution value="0" recordCount="0.0"/>
<ScoreDistribution value="1" recordCount="0.0"/>
</Node>
<Node id="177" score="1" recordCount="2.0">
<SimplePredicate field="household" operator="equal" value="6"/>
<ScoreDistribution value="0" recordCount="0.0"/>
<ScoreDistribution value="1" recordCount="2.0"/>
</Node>
</Node>
<Node id="178" score="1" recordCount="30.0">
<SimplePredicate field="priorityPubService" operator="equal" value="True"/>
<ScoreDistribution value="0" recordCount="13.0"/>
<ScoreDistribution value="1" recordCount="17.0"/>
<Node id="179" score="1" recordCount="14.0">
<SimplePredicate field="priorityRealization" operator="equal" value="False"/>
<ScoreDistribution value="0" recordCount="4.0"/>
<ScoreDistribution value="1" recordCount="10.0"/>
</Node>
<Node id="180" score="0" recordCount="16.0">
<SimplePredicate field="priorityRealization" operator="equal" value="True"/>
<ScoreDistribution value="0" recordCount="9.0"/>
<ScoreDistribution value="1" recordCount="7.0"/>
</Node>
</Node>
</Node>
<Node id="181" score="1" recordCount="72.0">
<SimplePredicate field="materialStatus" operator="equal" value="4"/>
<ScoreDistribution value="0" recordCount="29.0"/>
<ScoreDistribution value="1" recordCount="43.0"/>
<Node id="182" score="1" recordCount="11.0">
<SimplePredicate field="household" operator="equal" value="0"/>
<ScoreDistribution value="0" recordCount="1.0"/>
<ScoreDistribution value="1" recordCount="10.0"/>
</Node>
<Node id="183" score="1" recordCount="40.0">
<SimplePredicate field="household" operator="equal" value="1"/>
<ScoreDistribution value="0" recordCount="15.0"/>
<ScoreDistribution value="1" recordCount="25.0"/>
<Node id="184" score="1" recordCount="14.0">
<SimplePredicate field="dayRegime" operator="equal" value="0"/>
<ScoreDistribution value="0" recordCount="3.0"/>
<ScoreDistribution value="1" recordCount="11.0"/>
</Node>
<Node id="185" score="1" recordCount="17.0">
<SimplePredicate field="dayRegime" operator="equal" value="1"/>
<ScoreDistribution value="0" recordCount="6.0"/>
<ScoreDistribution value="1" recordCount="11.0"/>
</Node>
<Node id="186" score="0" recordCount="9.0">
<SimplePredicate field="dayRegime" operator="equal" value="2"/>
<ScoreDistribution value="0" recordCount="6.0"/>
<ScoreDistribution value="1" recordCount="3.0"/>
</Node>
</Node>
<Node id="187" score="0" recordCount="0.0">
<SimplePredicate field="household" operator="equal" value="2"/>
<ScoreDistribution value="0" recordCount="0.0"/>
<ScoreDistribution value="1" recordCount="0.0"/>
</Node>
<Node id="188" score="0" recordCount="19.0">
<SimplePredicate field="household" operator="equal" value="3"/>
<ScoreDistribution value="0" recordCount="11.0"/>
<ScoreDistribution value="1" recordCount="8.0"/>
</Node>
<Node id="189" score="0" recordCount="0.0">
<SimplePredicate field="household" operator="equal" value="4"/>
<ScoreDistribution value="0" recordCount="0.0"/>
<ScoreDistribution value="1" recordCount="0.0"/>
</Node>
<Node id="190" score="0" recordCount="2.0">
<SimplePredicate field="household" operator="equal" value="5"/>
<ScoreDistribution value="0" recordCount="2.0"/>
<ScoreDistribution value="1" recordCount="0.0"/>
</Node>
<Node id="191" score="0" recordCount="0.0">
<SimplePredicate field="household" operator="equal" value="6"/>
<ScoreDistribution value="0" recordCount="0.0"/>
<ScoreDistribution value="1" recordCount="0.0"/>
</Node>
</Node>
</Node>
<Node id="192" score="0" recordCount="228.0">
<SimplePredicate field="kids" operator="equal" value="1"/>
<ScoreDistribution value="0" recordCount="127.0"/>
<ScoreDistribution value="1" recordCount="101.0"/>
<Node id="193" score="0" recordCount="196.0">
<SimplePredicate field="orientation" operator="equal" value="0"/>
<ScoreDistribution value="0" recordCount="117.0"/>
<ScoreDistribution value="1" recordCount="79.0"/>
<Node id="194" score="0" recordCount="22.0">
<SimplePredicate field="isBody" operator="equal" value="False"/>
<ScoreDistribution value="0" recordCount="19.0"/>
<ScoreDistribution value="1" recordCount="3.0"/>
</Node>
<Node id="195" score="0" recordCount="174.0">
<SimplePredicate field="isBody" operator="equal" value="True"/>
<ScoreDistribution value="0" recordCount="98.0"/>
<ScoreDistribution value="1" recordCount="76.0"/>
<Node id="196" score="0" recordCount="1.0">
<SimplePredicate field="photos" operator="equal" value="high"/>
<ScoreDistribution value="0" recordCount="1.0"/>
<ScoreDistribution value="1" recordCount="0.0"/>
</Node>
<Node id="197" score="0" recordCount="12.0">
<SimplePredicate field="photos" operator="equal" value="none"/>
<ScoreDistribution value="0" recordCount="9.0"/>
<ScoreDistribution value="1" recordCount="3.0"/>
</Node>
<Node id="198" score="0" recordCount="160.0">
<SimplePredicate field="photos" operator="equal" value="normal"/>
<ScoreDistribution value="0" recordCount="88.0"/>
<ScoreDistribution value="1" recordCount="72.0"/>
<Node id="199" score="1" recordCount="14.0">
<SimplePredicate field="marriage" operator="equal" value="0"/>
<ScoreDistribution value="0" recordCount="5.0"/>
<ScoreDistribution value="1" recordCount="9.0"/>
</Node>
<Node id="200" score="0" recordCount="2.0">
<SimplePredicate field="marriage" operator="equal" value="1"/>
<ScoreDistribution value="0" recordCount="2.0"/>
<ScoreDistribution value="1" recordCount="0.0"/>
</Node>
<Node id="201" score="0" recordCount="0.0">
<SimplePredicate field="marriage" operator="equal" value="2"/>
<ScoreDistribution value="0" recordCount="0.0"/>
<ScoreDistribution value="1" recordCount="0.0"/>
</Node>
<Node id="202" score="0" recordCount="0.0">
<SimplePredicate field="marriage" operator="equal" value="3"/>
<ScoreDistribution value="0" recordCount="0.0"/>
<ScoreDistribution value="1" recordCount="0.0"/>
</Node>
<Node id="203" score="0" recordCount="144.0">
<SimplePredicate field="marriage" operator="equal" value="4"/>
<ScoreDistribution value="0" recordCount="81.0"/>
<ScoreDistribution value="1" recordCount="63.0"/>
<Node id="204" score="1" recordCount="51.0">
<SimplePredicate field="age" operator="lessOrEqual" value="22.0"/>
<ScoreDistribution value="0" recordCount="23.0"/>
<ScoreDistribution value="1" recordCount="28.0"/>
<Node id="205" score="0" recordCount="18.0">
<SimplePredicate field="age" operator="lessOrEqual" value="20.0"/>
<ScoreDistribution value="0" recordCount="11.0"/>
<ScoreDistribution value="1" recordCount="7.0"/>
</Node>
<Node id="206" score="1" recordCount="33.0">
<True/>
<ScoreDistribution value="0" recordCount="12.0"/>
<ScoreDistribution value="1" recordCount="21.0"/>
</Node>
</Node>
<Node id="207" score="0" recordCount="93.0">
<True/>
<ScoreDistribution value="0" recordCount="58.0"/>
<ScoreDistribution value="1" recordCount="35.0"/>
</Node>
</Node>
</Node>
<Node id="208" score="1" recordCount="1.0">
<SimplePredicate field="photos" operator="equal" value="veryhigh"/>
<ScoreDistribution value="0" recordCount="0.0"/>
<ScoreDistribution value="1" recordCount="1.0"/>
</Node>
</Node>
</Node>
<Node id="209" score="1" recordCount="32.0">
<SimplePredicate field="orientation" operator="equal" value="1"/>
<ScoreDistribution value="0" recordCount="10.0"/>
<ScoreDistribution value="1" recordCount="22.0"/>
</Node>
<Node id="210" score="0" recordCount="0.0">
<SimplePredicate field="orientation" operator="equal" value="2"/>
<ScoreDistribution value="0" recordCount="0.0"/>
<ScoreDistribution value="1" recordCount="0.0"/>
</Node>
<Node id="211" score="0" recordCount="0.0">
<SimplePredicate field="orientation" operator="equal" value="3"/>
<ScoreDistribution value="0" recordCount="0.0"/>
<ScoreDistribution value="1" recordCount="0.0"/>
</Node>
</Node>
<Node id="212" score="0" recordCount="0.0">
<SimplePredicate field="kids" operator="equal" value="2"/>
<ScoreDistribution value="0" recordCount="0.0"/>
<ScoreDistribution value="1" recordCount="0.0"/>
</Node>
<Node id="213" score="0" recordCount="43.0">
<SimplePredicate field="kids" operator="equal" value="3"/>
<ScoreDistribution value="0" recordCount="40.0"/>
<ScoreDistribution value="1" recordCount="3.0"/>
</Node>
<Node id="214" score="1" recordCount="15.0">
<SimplePredicate field="kids" operator="equal" value="4"/>
<ScoreDistribution value="0" recordCount="4.0"/>
<ScoreDistribution value="1" recordCount="11.0"/>
</Node>
</Node>
<Node id="215" score="0" recordCount="4.0">
<SimplePredicate field="alcohol" operator="equal" value="1"/>
<ScoreDistribution value="0" recordCount="2.0"/>
<ScoreDistribution value="1" recordCount="2.0"/>
</Node>
<Node id="216" score="1" recordCount="44.0">
<SimplePredicate field="alcohol" operator="equal" value="2"/>
<ScoreDistribution value="0" recordCount="8.0"/>
<ScoreDistribution value="1" recordCount="36.0"/>
<Node id="217" score="1" recordCount="34.0">
<SimplePredicate field="isBody" operator="equal" value="False"/>
<ScoreDistribution value="0" recordCount="0.0"/>
<ScoreDistribution value="1" recordCount="34.0"/>
</Node>
<Node id="218" score="0" recordCount="10.0">
<SimplePredicate field="isBody" operator="equal" value="True"/>
<ScoreDistribution value="0" recordCount="8.0"/>
<ScoreDistribution value="1" recordCount="2.0"/>
</Node>
</Node>
<Node id="219" score="0" recordCount="2.0">
<SimplePredicate field="alcohol" operator="equal" value="3"/>
<ScoreDistribution value="0" recordCount="1.0"/>
<ScoreDistribution value="1" recordCount="1.0"/>
</Node>
</Node>
<Node id="220" score="1" recordCount="202.0">
<SimplePredicate field="prioritySex" operator="equal" value="True"/>
<ScoreDistribution value="0" recordCount="59.0"/>
<ScoreDistribution value="1" recordCount="143.0"/>
<Node id="221" score="1" recordCount="143.0">
<SimplePredicate field="kids" operator="equal" value="0"/>
<ScoreDistribution value="0" recordCount="42.0"/>
<ScoreDistribution value="1" recordCount="101.0"/>
</Node>
<Node id="222" score="1" recordCount="48.0">
<SimplePredicate field="kids" operator="equal" value="1"/>
<ScoreDistribution value="0" recordCount="11.0"/>
<ScoreDistribution value="1" recordCount="37.0"/>
</Node>
<Node id="223" score="0" recordCount="0.0">
<SimplePredicate field="kids" operator="equal" value="2"/>
<ScoreDistribution value="0" recordCount="0.0"/>
<ScoreDistribution value="1" recordCount="0.0"/>
</Node>
<Node id="224" score="0" recordCount="7.0">
<SimplePredicate field="kids" operator="equal" value="3"/>
<ScoreDistribution value="0" recordCount="6.0"/>
<ScoreDistribution value="1" recordCount="1.0"/>
</Node>
<Node id="225" score="1" recordCount="4.0">
<SimplePredicate field="kids" operator="equal" value="4"/>
<ScoreDistribution value="0" recordCount="0.0"/>
<ScoreDistribution value="1" recordCount="4.0"/>
</Node>
</Node>
</Node>
</Node>
<Node id="226" score="1" recordCount="485.0">
<SimplePredicate field="sexFrequency" operator="equal" value="1"/>
<ScoreDistribution value="0" recordCount="63.0"/>
<ScoreDistribution value="1" recordCount="422.0"/>
</Node>
<Node id="227" score="1" recordCount="285.0">
<SimplePredicate field="sexFrequency" operator="equal" value="2"/>
<ScoreDistribution value="0" recordCount="46.0"/>
<ScoreDistribution value="1" recordCount="239.0"/>
</Node>
<Node id="228" score="1" recordCount="118.0">
<SimplePredicate field="sexFrequency" operator="equal" value="3"/>
<ScoreDistribution value="0" recordCount="25.0"/>
<ScoreDistribution value="1" recordCount="93.0"/>
<Node id="229" score="1" recordCount="94.0">
<SimplePredicate field="kids" operator="equal" value="0"/>
<ScoreDistribution value="0" recordCount="18.0"/>
<ScoreDistribution value="1" recordCount="76.0"/>
</Node>
<Node id="230" score="1" recordCount="12.0">
<SimplePredicate field="kids" operator="equal" value="1"/>
<ScoreDistribution value="0" recordCount="0.0"/>
<ScoreDistribution value="1" recordCount="12.0"/>
</Node>
<Node id="231" score="0" recordCount="0.0">
<SimplePredicate field="kids" operator="equal" value="2"/>
<ScoreDistribution value="0" recordCount="0.0"/>
<ScoreDistribution value="1" recordCount="0.0"/>
</Node>
<Node id="232" score="0" recordCount="9.0">
<SimplePredicate field="kids" operator="equal" value="3"/>
<ScoreDistribution value="0" recordCount="7.0"/>
<ScoreDistribution value="1" recordCount="2.0"/>
</Node>
<Node id="233" score="1" recordCount="3.0">
<SimplePredicate field="kids" operator="equal" value="4"/>
<ScoreDistribution value="0" recordCount="0.0"/>
<ScoreDistribution value="1" recordCount="3.0"/>
</Node>
</Node>
<Node id="234" score="1" recordCount="14.0">
<SimplePredicate field="sexFrequency" operator="equal" value="4"/>
<ScoreDistribution value="0" recordCount="4.0"/>
<ScoreDistribution value="1" recordCount="10.0"/>
</Node>
<Node id="235" score="1" recordCount="33.0">
<SimplePredicate field="sexFrequency" operator="equal" value="5"/>
<ScoreDistribution value="0" recordCount="13.0"/>
<ScoreDistribution value="1" recordCount="20.0"/>
<Node id="236" score="0" recordCount="13.0">
<SimplePredicate field="orientation" operator="equal" value="0"/>
<ScoreDistribution value="0" recordCount="9.0"/>
<ScoreDistribution value="1" recordCount="4.0"/>
</Node>
<Node id="237" score="1" recordCount="19.0">
<SimplePredicate field="orientation" operator="equal" value="1"/>
<ScoreDistribution value="0" recordCount="3.0"/>
<ScoreDistribution value="1" recordCount="16.0"/>
</Node>
<Node id="238" score="0" recordCount="0.0">
<SimplePredicate field="orientation" operator="equal" value="2"/>
<ScoreDistribution value="0" recordCount="0.0"/>
<ScoreDistribution value="1" recordCount="0.0"/>
</Node>
<Node id="239" score="0" recordCount="1.0">
<SimplePredicate field="orientation" operator="equal" value="3"/>
<ScoreDistribution value="0" recordCount="1.0"/>
<ScoreDistribution value="1" recordCount="0.0"/>
</Node>
</Node>
</Node>
<Node id="240" score="0" recordCount="4398.0">
<SimplePredicate field="aboutMe" operator="equal" value="normal"/>
<ScoreDistribution value="0" recordCount="2273.0"/>
<ScoreDistribution value="1" recordCount="2125.0"/>
<Node id="241" score="0" recordCount="4110.0">
<SimplePredicate field="prioritySex" operator="equal" value="False"/>
<ScoreDistribution value="0" recordCount="2184.0"/>
<ScoreDistribution value="1" recordCount="1926.0"/>
<Node id="242" score="0" recordCount="3762.0">
<SimplePredicate field="sexFrequency" operator="equal" value="0"/>
<ScoreDistribution value="0" recordCount="2072.0"/>
<ScoreDistribution value="1" recordCount="1690.0"/>
<Node id="243" score="0" recordCount="3347.0">
<SimplePredicate field="priorityFamily" operator="equal" value="False"/>
<ScoreDistribution value="0" recordCount="1778.0"/>
<ScoreDistribution value="1" recordCount="1569.0"/>
<Node id="244" score="0" recordCount="3316.0">
<SimplePredicate field="aimOther" operator="equal" value="False"/>
<ScoreDistribution value="0" recordCount="1770.0"/>
<ScoreDistribution value="1" recordCount="1546.0"/>
<Node id="245" score="0" recordCount="2657.0">
<SimplePredicate field="marriage" operator="equal" value="0"/>
<ScoreDistribution value="0" recordCount="1395.0"/>
<ScoreDistribution value="1" recordCount="1262.0"/>
<Node id="246" score="0" recordCount="2459.0">
<SimplePredicate field="orientation" operator="equal" value="0"/>
<ScoreDistribution value="0" recordCount="1323.0"/>
<ScoreDistribution value="1" recordCount="1136.0"/>
<Node id="247" score="0" recordCount="2377.0">
<SimplePredicate field="isSexLike" operator="equal" value="False"/>
<ScoreDistribution value="0" recordCount="1289.0"/>
<ScoreDistribution value="1" recordCount="1088.0"/>
<Node id="248" score="0" recordCount="511.0">
<SimplePredicate field="age" operator="lessOrEqual" value="21.0"/>
<ScoreDistribution value="0" recordCount="326.0"/>
<ScoreDistribution value="1" recordCount="185.0"/>
<Node id="249" score="0" recordCount="492.0">
<SimplePredicate field="aimMarriage" operator="equal" value="False"/>
<ScoreDistribution value="0" recordCount="320.0"/>
<ScoreDistribution value="1" recordCount="172.0"/>
</Node>
<Node id="250" score="1" recordCount="19.0">
<SimplePredicate field="aimMarriage" operator="equal" value="True"/>
<ScoreDistribution value="0" recordCount="6.0"/>
<ScoreDistribution value="1" recordCount="13.0"/>
</Node>
</Node>
<Node id="251" score="0" recordCount="1866.0">
<True/>
<ScoreDistribution value="0" recordCount="963.0"/>
<ScoreDistribution value="1" recordCount="903.0"/>
<Node id="252" score="0" recordCount="1795.0">
<SimplePredicate field="priorityEquilibrium" operator="equal" value="False"/>
<ScoreDistribution value="0" recordCount="916.0"/>
<ScoreDistribution value="1" recordCount="879.0"/>
<Node id="253" score="0" recordCount="1716.0">
<SimplePredicate field="materialStatus" operator="equal" value="0"/>
<ScoreDistribution value="0" recordCount="885.0"/>
<ScoreDistribution value="1" recordCount="831.0"/>
<Node id="254" score="0" recordCount="1659.0">
<SimplePredicate field="aimMarriage" operator="equal" value="False"/>
<ScoreDistribution value="0" recordCount="854.0"/>
<ScoreDistribution value="1" recordCount="805.0"/>
<Node id="255" score="0" recordCount="1590.0">
<SimplePredicate field="dayRegime" operator="equal" value="0"/>
<ScoreDistribution value="0" recordCount="815.0"/>
<ScoreDistribution value="1" recordCount="775.0"/>
<Node id="256" score="0" recordCount="19.0">
<SimplePredicate field="photos" operator="equal" value="high"/>
<ScoreDistribution value="0" recordCount="13.0"/>
<ScoreDistribution value="1" recordCount="6.0"/>
</Node>
<Node id="257" score="1" recordCount="179.0">
<SimplePredicate field="photos" operator="equal" value="none"/>
<ScoreDistribution value="0" recordCount="83.0"/>
<ScoreDistribution value="1" recordCount="96.0"/>
</Node>
<Node id="258" score="0" recordCount="1387.0">
<SimplePredicate field="photos" operator="equal" value="normal"/>
<ScoreDistribution value="0" recordCount="717.0"/>
<ScoreDistribution value="1" recordCount="670.0"/>
<Node id="259" score="0" recordCount="1302.0">
<SimplePredicate field="aimFriendship" operator="equal" value="False"/>
<ScoreDistribution value="0" recordCount="666.0"/>
<ScoreDistribution value="1" recordCount="636.0"/>
<Node id="260" score="0" recordCount="1161.0">
<SimplePredicate field="isBody" operator="equal" value="False"/>
<ScoreDistribution value="0" recordCount="609.0"/>
<ScoreDistribution value="1" recordCount="552.0"/>
<Node id="261" score="1" recordCount="159.0">
<SimplePredicate field="isLanguages" operator="equal" value="False"/>
<ScoreDistribution value="0" recordCount="72.0"/>
<ScoreDistribution value="1" recordCount="87.0"/>
</Node>
<Node id="262" score="0" recordCount="1002.0">
<SimplePredicate field="isLanguages" operator="equal" value="True"/>
<ScoreDistribution value="0" recordCount="537.0"/>
<ScoreDistribution value="1" recordCount="465.0"/>
</Node>
</Node>
<Node id="263" score="1" recordCount="141.0">
<SimplePredicate field="isBody" operator="equal" value="True"/>
<ScoreDistribution value="0" recordCount="57.0"/>
<ScoreDistribution value="1" recordCount="84.0"/>
</Node>
</Node>
<Node id="264" score="0" recordCount="85.0">
<SimplePredicate field="aimFriendship" operator="equal" value="True"/>
<ScoreDistribution value="0" recordCount="51.0"/>
<ScoreDistribution value="1" recordCount="34.0"/>
<Node id="265" score="0" recordCount="45.0">
<SimplePredicate field="age" operator="lessOrEqual" value="28.0"/>
<ScoreDistribution value="0" recordCount="35.0"/>
<ScoreDistribution value="1" recordCount="10.0"/>
</Node>
<Node id="266" score="1" recordCount="40.0">
<True/>
<ScoreDistribution value="0" recordCount="16.0"/>
<ScoreDistribution value="1" recordCount="24.0"/>
</Node>
</Node>
</Node>
<Node id="267" score="1" recordCount="5.0">
<SimplePredicate field="photos" operator="equal" value="veryhigh"/>
<ScoreDistribution value="0" recordCount="2.0"/>
<ScoreDistribution value="1" recordCount="3.0"/>
</Node>
</Node>
<Node id="268" score="0" recordCount="55.0">
<SimplePredicate field="dayRegime" operator="equal" value="1"/>
<ScoreDistribution value="0" recordCount="30.0"/>
<ScoreDistribution value="1" recordCount="25.0"/>
</Node>
<Node id="269" score="0" recordCount="14.0">
<SimplePredicate field="dayRegime" operator="equal" value="2"/>
<ScoreDistribution value="0" recordCount="9.0"/>
<ScoreDistribution value="1" recordCount="5.0"/>
</Node>
</Node>
<Node id="270" score="0" recordCount="57.0">
<SimplePredicate field="aimMarriage" operator="equal" value="True"/>
<ScoreDistribution value="0" recordCount="31.0"/>
<ScoreDistribution value="1" recordCount="26.0"/>
<Node id="271" score="1" recordCount="21.0">
<SimplePredicate field="age" operator="lessOrEqual" value="27.0"/>
<ScoreDistribution value="0" recordCount="6.0"/>
<ScoreDistribution value="1" recordCount="15.0"/>
</Node>
<Node id="272" score="0" recordCount="36.0">
<True/>
<ScoreDistribution value="0" recordCount="25.0"/>
<ScoreDistribution value="1" recordCount="11.0"/>
</Node>
</Node>
</Node>
<Node id="273" score="1" recordCount="6.0">
<SimplePredicate field="materialStatus" operator="equal" value="1"/>
<ScoreDistribution value="0" recordCount="1.0"/>
<ScoreDistribution value="1" recordCount="5.0"/>
</Node>
<Node id="274" score="0" recordCount="2.0">
<SimplePredicate field="materialStatus" operator="equal" value="2"/>
<ScoreDistribution value="0" recordCount="1.0"/>
<ScoreDistribution value="1" recordCount="1.0"/>
</Node>
<Node id="275" score="1" recordCount="42.0">
<SimplePredicate field="materialStatus" operator="equal" value="3"/>
<ScoreDistribution value="0" recordCount="16.0"/>
<ScoreDistribution value="1" recordCount="26.0"/>
</Node>
<Node id="276" score="1" recordCount="29.0">
<SimplePredicate field="materialStatus" operator="equal" value="4"/>
<ScoreDistribution value="0" recordCount="13.0"/>
<ScoreDistribution value="1" recordCount="16.0"/>
</Node>
</Node>
<Node id="277" score="0" recordCount="71.0">
<SimplePredicate field="priorityEquilibrium" operator="equal" value="True"/>
<ScoreDistribution value="0" recordCount="47.0"/>
<ScoreDistribution value="1" recordCount="24.0"/>
</Node>
</Node>
</Node>
<Node id="278" score="1" recordCount="82.0">
<SimplePredicate field="isSexLike" operator="equal" value="True"/>
<ScoreDistribution value="0" recordCount="34.0"/>
<ScoreDistribution value="1" recordCount="48.0"/>
<Node id="279" score="0" recordCount="4.0">
<SimplePredicate field="photos" operator="equal" value="high"/>
<ScoreDistribution value="0" recordCount="4.0"/>
<ScoreDistribution value="1" recordCount="0.0"/>
</Node>
<Node id="280" score="1" recordCount="14.0">
<SimplePredicate field="photos" operator="equal" value="none"/>
<ScoreDistribution value="0" recordCount="4.0"/>
<ScoreDistribution value="1" recordCount="10.0"/>
</Node>
<Node id="281" score="1" recordCount="64.0">
<SimplePredicate field="photos" operator="equal" value="normal"/>
<ScoreDistribution value="0" recordCount="26.0"/>
<ScoreDistribution value="1" recordCount="38.0"/>
</Node>
<Node id="282" score="0" recordCount="0.0">
<SimplePredicate field="photos" operator="equal" value="veryhigh"/>
<ScoreDistribution value="0" recordCount="0.0"/>
<ScoreDistribution value="1" recordCount="0.0"/>
</Node>
</Node>
</Node>
<Node id="283" score="1" recordCount="171.0">
<SimplePredicate field="orientation" operator="equal" value="1"/>
<ScoreDistribution value="0" recordCount="66.0"/>
<ScoreDistribution value="1" recordCount="105.0"/>
</Node>
<Node id="284" score="1" recordCount="10.0">
<SimplePredicate field="orientation" operator="equal" value="2"/>
<ScoreDistribution value="0" recordCount="3.0"/>
<ScoreDistribution value="1" recordCount="7.0"/>
</Node>
<Node id="285" score="1" recordCount="17.0">
<SimplePredicate field="orientation" operator="equal" value="3"/>
<ScoreDistribution value="0" recordCount="3.0"/>
<ScoreDistribution value="1" recordCount="14.0"/>
</Node>
</Node>
<Node id="286" score="1" recordCount="49.0">
<SimplePredicate field="marriage" operator="equal" value="1"/>
<ScoreDistribution value="0" recordCount="16.0"/>
<ScoreDistribution value="1" recordCount="33.0"/>
<Node id="287" score="0" recordCount="18.0">
<SimplePredicate field="age" operator="lessOrEqual" value="28.0"/>
<ScoreDistribution value="0" recordCount="10.0"/>
<ScoreDistribution value="1" recordCount="8.0"/>
</Node>
<Node id="288" score="1" recordCount="31.0">
<True/>
<ScoreDistribution value="0" recordCount="6.0"/>
<ScoreDistribution value="1" recordCount="25.0"/>
</Node>
</Node>
<Node id="289" score="0" recordCount="12.0">
<SimplePredicate field="marriage" operator="equal" value="2"/>
<ScoreDistribution value="0" recordCount="10.0"/>
<ScoreDistribution value="1" recordCount="2.0"/>
</Node>
<Node id="290" score="0" recordCount="51.0">
<SimplePredicate field="marriage" operator="equal" value="3"/>
<ScoreDistribution value="0" recordCount="50.0"/>
<ScoreDistribution value="1" recordCount="1.0"/>
</Node>
<Node id="291" score="0" recordCount="547.0">
<SimplePredicate field="marriage" operator="equal" value="4"/>
<ScoreDistribution value="0" recordCount="299.0"/>
<ScoreDistribution value="1" recordCount="248.0"/>
<Node id="292" score="0" recordCount="140.0">
<SimplePredicate field="kids" operator="equal" value="0"/>
<ScoreDistribution value="0" recordCount="70.0"/>
<ScoreDistribution value="1" recordCount="70.0"/>
<Node id="293" score="0" recordCount="114.0">
<SimplePredicate field="household" operator="equal" value="0"/>
<ScoreDistribution value="0" recordCount="62.0"/>
<ScoreDistribution value="1" recordCount="52.0"/>
<Node id="294" score="0" recordCount="101.0">
<SimplePredicate field="isProfession" operator="equal" value="False"/>
<ScoreDistribution value="0" recordCount="52.0"/>
<ScoreDistribution value="1" recordCount="49.0"/>
<Node id="295" score="1" recordCount="90.0">
<SimplePredicate field="age" operator="lessOrEqual" value="42.0"/>
<ScoreDistribution value="0" recordCount="42.0"/>
<ScoreDistribution value="1" recordCount="48.0"/>
<Node id="296" score="0" recordCount="64.0">
<SimplePredicate field="aimMarriage" operator="equal" value="False"/>
<ScoreDistribution value="0" recordCount="33.0"/>
<ScoreDistribution value="1" recordCount="31.0"/>
<Node id="297" score="1" recordCount="50.0">
<SimplePredicate field="aimFriendship" operator="equal" value="False"/>
<ScoreDistribution value="0" recordCount="24.0"/>
<ScoreDistribution value="1" recordCount="26.0"/>
<Node id="298" score="0" recordCount="26.0">
<SimplePredicate field="isBody" operator="equal" value="False"/>
<ScoreDistribution value="0" recordCount="14.0"/>
<ScoreDistribution value="1" recordCount="12.0"/>
</Node>
<Node id="299" score="1" recordCount="24.0">
<SimplePredicate field="isBody" operator="equal" value="True"/>
<ScoreDistribution value="0" recordCount="10.0"/>
<ScoreDistribution value="1" recordCount="14.0"/>
<Node id="300" score="1" recordCount="13.0">
<SimplePredicate field="age" operator="lessOrEqual" value="27.0"/>
<ScoreDistribution value="0" recordCount="3.0"/>
<ScoreDistribution value="1" recordCount="10.0"/>
</Node>
<Node id="301" score="0" recordCount="11.0">
<True/>
<ScoreDistribution value="0" recordCount="7.0"/>
<ScoreDistribution value="1" recordCount="4.0"/>
</Node>
</Node>
</Node>
<Node id="302" score="0" recordCount="14.0">
<SimplePredicate field="aimFriendship" operator="equal" value="True"/>
<ScoreDistribution value="0" recordCount="9.0"/>
<ScoreDistribution value="1" recordCount="5.0"/>
</Node>
</Node>
<Node id="303" score="1" recordCount="26.0">
<SimplePredicate field="aimMarriage" operator="equal" value="True"/>
<ScoreDistribution value="0" recordCount="9.0"/>
<ScoreDistribution value="1" recordCount="17.0"/>
</Node>
</Node>
<Node id="304" score="0" recordCount="11.0">
<True/>
<ScoreDistribution value="0" recordCount="10.0"/>
<ScoreDistribution value="1" recordCount="1.0"/>
</Node>
</Node>
<Node id="305" score="0" recordCount="13.0">
<SimplePredicate field="isProfession" operator="equal" value="True"/>
<ScoreDistribution value="0" recordCount="10.0"/>
<ScoreDistribution value="1" recordCount="3.0"/>
</Node>
</Node>
<Node id="306" score="1" recordCount="19.0">
<SimplePredicate field="household" operator="equal" value="1"/>
<ScoreDistribution value="0" recordCount="6.0"/>
<ScoreDistribution value="1" recordCount="13.0"/>
</Node>
<Node id="307" score="0" recordCount="0.0">
<SimplePredicate field="household" operator="equal" value="2"/>
<ScoreDistribution value="0" recordCount="0.0"/>
<ScoreDistribution value="1" recordCount="0.0"/>
</Node>
<Node id="308" score="1" recordCount="6.0">
<SimplePredicate field="household" operator="equal" value="3"/>
<ScoreDistribution value="0" recordCount="2.0"/>
<ScoreDistribution value="1" recordCount="4.0"/>
</Node>
<Node id="309" score="1" recordCount="1.0">
<SimplePredicate field="household" operator="equal" value="4"/>
<ScoreDistribution value="0" recordCount="0.0"/>
<ScoreDistribution value="1" recordCount="1.0"/>
</Node>
<Node id="310" score="0" recordCount="0.0">
<SimplePredicate field="household" operator="equal" value="5"/>
<ScoreDistribution value="0" recordCount="0.0"/>
<ScoreDistribution value="1" recordCount="0.0"/>
</Node>
<Node id="311" score="0" recordCount="0.0">
<SimplePredicate field="household" operator="equal" value="6"/>
<ScoreDistribution value="0" recordCount="0.0"/>
<ScoreDistribution value="1" recordCount="0.0"/>
</Node>
</Node>
<Node id="312" score="0" recordCount="353.0">
<SimplePredicate field="kids" operator="equal" value="1"/>
<ScoreDistribution value="0" recordCount="183.0"/>
<ScoreDistribution value="1" recordCount="170.0"/>
<Node id="313" score="0" recordCount="330.0">
<SimplePredicate field="heteroExperience" operator="equal" value="0"/>
<ScoreDistribution value="0" recordCount="167.0"/>
<ScoreDistribution value="1" recordCount="163.0"/>
<Node id="314" score="0" recordCount="209.0">
<SimplePredicate field="aimMarriage" operator="equal" value="False"/>
<ScoreDistribution value="0" recordCount="121.0"/>
<ScoreDistribution value="1" recordCount="88.0"/>
<Node id="315" score="0" recordCount="194.0">
<SimplePredicate field="isInterest" operator="equal" value="False"/>
<ScoreDistribution value="0" recordCount="110.0"/>
<ScoreDistribution value="1" recordCount="84.0"/>
<Node id="316" score="0" recordCount="76.0">
<SimplePredicate field="age" operator="lessOrEqual" value="23.0"/>
<ScoreDistribution value="0" recordCount="55.0"/>
<ScoreDistribution value="1" recordCount="21.0"/>
</Node>
<Node id="317" score="1" recordCount="118.0">
<True/>
<ScoreDistribution value="0" recordCount="55.0"/>
<ScoreDistribution value="1" recordCount="63.0"/>
<Node id="318" score="1" recordCount="74.0">
<SimplePredicate field="aimFriendship" operator="equal" value="False"/>
<ScoreDistribution value="0" recordCount="30.0"/>
<ScoreDistribution value="1" recordCount="44.0"/>
</Node>
<Node id="319" score="0" recordCount="44.0">
<SimplePredicate field="aimFriendship" operator="equal" value="True"/>
<ScoreDistribution value="0" recordCount="25.0"/>
<ScoreDistribution value="1" recordCount="19.0"/>
<Node id="320" score="1" recordCount="17.0">
<SimplePredicate field="age" operator="lessOrEqual" value="26.0"/>
<ScoreDistribution value="0" recordCount="7.0"/>
<ScoreDistribution value="1" recordCount="10.0"/>
</Node>
<Node id="321" score="0" recordCount="27.0">
<True/>
<ScoreDistribution value="0" recordCount="18.0"/>
<ScoreDistribution value="1" recordCount="9.0"/>
</Node>
</Node>
</Node>
</Node>
<Node id="322" score="0" recordCount="15.0">
<SimplePredicate field="isInterest" operator="equal" value="True"/>
<ScoreDistribution value="0" recordCount="11.0"/>
<ScoreDistribution value="1" recordCount="4.0"/>
</Node>
</Node>
<Node id="323" score="1" recordCount="121.0">
<SimplePredicate field="aimMarriage" operator="equal" value="True"/>
<ScoreDistribution value="0" recordCount="46.0"/>
<ScoreDistribution value="1" recordCount="75.0"/>
<Node id="324" score="1" recordCount="108.0">
<SimplePredicate field="orientation" operator="equal" value="0"/>
<ScoreDistribution value="0" recordCount="44.0"/>
<ScoreDistribution value="1" recordCount="64.0"/>
<Node id="325" score="1" recordCount="86.0">
<SimplePredicate field="household" operator="equal" value="0"/>
<ScoreDistribution value="0" recordCount="30.0"/>
<ScoreDistribution value="1" recordCount="56.0"/>
</Node>
<Node id="326" score="0" recordCount="6.0">
<SimplePredicate field="household" operator="equal" value="1"/>
<ScoreDistribution value="0" recordCount="4.0"/>
<ScoreDistribution value="1" recordCount="2.0"/>
</Node>
<Node id="327" score="0" recordCount="0.0">
<SimplePredicate field="household" operator="equal" value="2"/>
<ScoreDistribution value="0" recordCount="0.0"/>
<ScoreDistribution value="1" recordCount="0.0"/>
</Node>
<Node id="328" score="0" recordCount="15.0">
<SimplePredicate field="household" operator="equal" value="3"/>
<ScoreDistribution value="0" recordCount="10.0"/>
<ScoreDistribution value="1" recordCount="5.0"/>
</Node>
<Node id="329" score="1" recordCount="1.0">
<SimplePredicate field="household" operator="equal" value="4"/>
<ScoreDistribution value="0" recordCount="0.0"/>
<ScoreDistribution value="1" recordCount="1.0"/>
</Node>
<Node id="330" score="0" recordCount="0.0">
<SimplePredicate field="household" operator="equal" value="5"/>
<ScoreDistribution value="0" recordCount="0.0"/>
<ScoreDistribution value="1" recordCount="0.0"/>
</Node>
<Node id="331" score="0" recordCount="0.0">
<SimplePredicate field="household" operator="equal" value="6"/>
<ScoreDistribution value="0" recordCount="0.0"/>
<ScoreDistribution value="1" recordCount="0.0"/>
</Node>
</Node>
<Node id="332" score="1" recordCount="13.0">
<SimplePredicate field="orientation" operator="equal" value="1"/>
<ScoreDistribution value="0" recordCount="2.0"/>
<ScoreDistribution value="1" recordCount="11.0"/>
</Node>
<Node id="333" score="0" recordCount="0.0">
<SimplePredicate field="orientation" operator="equal" value="2"/>
<ScoreDistribution value="0" recordCount="0.0"/>
<ScoreDistribution value="1" recordCount="0.0"/>
</Node>
<Node id="334" score="0" recordCount="0.0">
<SimplePredicate field="orientation" operator="equal" value="3"/>
<ScoreDistribution value="0" recordCount="0.0"/>
<ScoreDistribution value="1" recordCount="0.0"/>
</Node>
</Node>
</Node>
<Node id="335" score="0" recordCount="21.0">
<SimplePredicate field="heteroExperience" operator="equal" value="1"/>
<ScoreDistribution value="0" recordCount="15.0"/>
<ScoreDistribution value="1" recordCount="6.0"/>
<Node id="336" score="1" recordCount="10.0">
<SimplePredicate field="aimMarriage" operator="equal" value="False"/>
<ScoreDistribution value="0" recordCount="4.0"/>
<ScoreDistribution value="1" recordCount="6.0"/>
</Node>
<Node id="337" score="0" recordCount="11.0">
<SimplePredicate field="aimMarriage" operator="equal" value="True"/>
<ScoreDistribution value="0" recordCount="11.0"/>
<ScoreDistribution value="1" recordCount="0.0"/>
</Node>
</Node>
<Node id="338" score="0" recordCount="2.0">
<SimplePredicate field="heteroExperience" operator="equal" value="2"/>
<ScoreDistribution value="0" recordCount="1.0"/>
<ScoreDistribution value="1" recordCount="1.0"/>
</Node>
</Node>
<Node id="339" score="0" recordCount="0.0">
<SimplePredicate field="kids" operator="equal" value="2"/>
<ScoreDistribution value="0" recordCount="0.0"/>
<ScoreDistribution value="1" recordCount="0.0"/>
</Node>
<Node id="340" score="0" recordCount="38.0">
<SimplePredicate field="kids" operator="equal" value="3"/>
<ScoreDistribution value="0" recordCount="38.0"/>
<ScoreDistribution value="1" recordCount="0.0"/>
</Node>
<Node id="341" score="0" recordCount="16.0">
<SimplePredicate field="kids" operator="equal" value="4"/>
<ScoreDistribution value="0" recordCount="8.0"/>
<ScoreDistribution value="1" recordCount="8.0"/>
</Node>
</Node>
</Node>
<Node id="342" score="1" recordCount="31.0">
<SimplePredicate field="aimOther" operator="equal" value="True"/>
<ScoreDistribution value="0" recordCount="8.0"/>
<ScoreDistribution value="1" recordCount="23.0"/>
</Node>
</Node>
<Node id="343" score="0" recordCount="415.0">
<SimplePredicate field="priorityFamily" operator="equal" value="True"/>
<ScoreDistribution value="0" recordCount="294.0"/>
<ScoreDistribution value="1" recordCount="121.0"/>
<Node id="344" score="0" recordCount="331.0">
<SimplePredicate field="aimMarriage" operator="equal" value="False"/>
<ScoreDistribution value="0" recordCount="249.0"/>
<ScoreDistribution value="1" recordCount="82.0"/>
</Node>
<Node id="345" score="0" recordCount="84.0">
<SimplePredicate field="aimMarriage" operator="equal" value="True"/>
<ScoreDistribution value="0" recordCount="45.0"/>
<ScoreDistribution value="1" recordCount="39.0"/>
<Node id="346" score="0" recordCount="29.0">
<SimplePredicate field="household" operator="equal" value="0"/>
<ScoreDistribution value="0" recordCount="17.0"/>
<ScoreDistribution value="1" recordCount="12.0"/>
</Node>
<Node id="347" score="1" recordCount="31.0">
<SimplePredicate field="household" operator="equal" value="1"/>
<ScoreDistribution value="0" recordCount="9.0"/>
<ScoreDistribution value="1" recordCount="22.0"/>
<Node id="348" score="1" recordCount="10.0">
<SimplePredicate field="kids" operator="equal" value="0"/>
<ScoreDistribution value="0" recordCount="1.0"/>
<ScoreDistribution value="1" recordCount="9.0"/>
</Node>
<Node id="349" score="1" recordCount="15.0">
<SimplePredicate field="kids" operator="equal" value="1"/>
<ScoreDistribution value="0" recordCount="3.0"/>
<ScoreDistribution value="1" recordCount="12.0"/>
</Node>
<Node id="350" score="0" recordCount="0.0">
<SimplePredicate field="kids" operator="equal" value="2"/>
<ScoreDistribution value="0" recordCount="0.0"/>
<ScoreDistribution value="1" recordCount="0.0"/>
</Node>
<Node id="351" score="0" recordCount="4.0">
<SimplePredicate field="kids" operator="equal" value="3"/>
<ScoreDistribution value="0" recordCount="4.0"/>
<ScoreDistribution value="1" recordCount="0.0"/>
</Node>
<Node id="352" score="0" recordCount="2.0">
<SimplePredicate field="kids" operator="equal" value="4"/>
<ScoreDistribution value="0" recordCount="1.0"/>
<ScoreDistribution value="1" recordCount="1.0"/>
</Node>
</Node>
<Node id="353" score="0" recordCount="1.0">
<SimplePredicate field="household" operator="equal" value="2"/>
<ScoreDistribution value="0" recordCount="1.0"/>
<ScoreDistribution value="1" recordCount="0.0"/>
</Node>
<Node id="354" score="0" recordCount="20.0">
<SimplePredicate field="household" operator="equal" value="3"/>
<ScoreDistribution value="0" recordCount="15.0"/>
<ScoreDistribution value="1" recordCount="5.0"/>
</Node>
<Node id="355" score="0" recordCount="3.0">
<SimplePredicate field="household" operator="equal" value="4"/>
<ScoreDistribution value="0" recordCount="3.0"/>
<ScoreDistribution value="1" recordCount="0.0"/>
</Node>
<Node id="356" score="0" recordCount="0.0">
<SimplePredicate field="household" operator="equal" value="5"/>
<ScoreDistribution value="0" recordCount="0.0"/>
<ScoreDistribution value="1" recordCount="0.0"/>
</Node>
<Node id="357" score="0" recordCount="0.0">
<SimplePredicate field="household" operator="equal" value="6"/>
<ScoreDistribution value="0" recordCount="0.0"/>
<ScoreDistribution value="1" recordCount="0.0"/>
</Node>
</Node>
</Node>
</Node>
<Node id="358" score="1" recordCount="154.0">
<SimplePredicate field="sexFrequency" operator="equal" value="1"/>
<ScoreDistribution value="0" recordCount="45.0"/>
<ScoreDistribution value="1" recordCount="109.0"/>
</Node>
<Node id="359" score="1" recordCount="70.0">
<SimplePredicate field="sexFrequency" operator="equal" value="2"/>
<ScoreDistribution value="0" recordCount="23.0"/>
<ScoreDistribution value="1" recordCount="47.0"/>
</Node>
<Node id="360" score="1" recordCount="85.0">
<SimplePredicate field="sexFrequency" operator="equal" value="3"/>
<ScoreDistribution value="0" recordCount="25.0"/>
<ScoreDistribution value="1" recordCount="60.0"/>
</Node>
<Node id="361" score="1" recordCount="13.0">
<SimplePredicate field="sexFrequency" operator="equal" value="4"/>
<ScoreDistribution value="0" recordCount="3.0"/>
<ScoreDistribution value="1" recordCount="10.0"/>
</Node>
<Node id="362" score="0" recordCount="26.0">
<SimplePredicate field="sexFrequency" operator="equal" value="5"/>
<ScoreDistribution value="0" recordCount="16.0"/>
<ScoreDistribution value="1" recordCount="10.0"/>
</Node>
</Node>
<Node id="363" score="1" recordCount="288.0">
<SimplePredicate field="prioritySex" operator="equal" value="True"/>
<ScoreDistribution value="0" recordCount="89.0"/>
<ScoreDistribution value="1" recordCount="199.0"/>
<Node id="364" score="1" recordCount="276.0">
<SimplePredicate field="isInterest" operator="equal" value="False"/>
<ScoreDistribution value="0" recordCount="81.0"/>
<ScoreDistribution value="1" recordCount="195.0"/>
<Node id="365" score="1" recordCount="201.0">
<SimplePredicate field="kids" operator="equal" value="0"/>
<ScoreDistribution value="0" recordCount="58.0"/>
<ScoreDistribution value="1" recordCount="143.0"/>
</Node>
<Node id="366" score="1" recordCount="57.0">
<SimplePredicate field="kids" operator="equal" value="1"/>
<ScoreDistribution value="0" recordCount="13.0"/>
<ScoreDistribution value="1" recordCount="44.0"/>
</Node>
<Node id="367" score="0" recordCount="0.0">
<SimplePredicate field="kids" operator="equal" value="2"/>
<ScoreDistribution value="0" recordCount="0.0"/>
<ScoreDistribution value="1" recordCount="0.0"/>
</Node>
<Node id="368" score="0" recordCount="12.0">
<SimplePredicate field="kids" operator="equal" value="3"/>
<ScoreDistribution value="0" recordCount="9.0"/>
<ScoreDistribution value="1" recordCount="3.0"/>
</Node>
<Node id="369" score="1" recordCount="6.0">
<SimplePredicate field="kids" operator="equal" value="4"/>
<ScoreDistribution value="0" recordCount="1.0"/>
<ScoreDistribution value="1" recordCount="5.0"/>
</Node>
</Node>
<Node id="370" score="0" recordCount="12.0">
<SimplePredicate field="isInterest" operator="equal" value="True"/>
<ScoreDistribution value="0" recordCount="8.0"/>
<ScoreDistribution value="1" recordCount="4.0"/>
</Node>
</Node>
</Node>
<Node id="371" score="0" recordCount="52.0">
<SimplePredicate field="aboutMe" operator="equal" value="veryhigh"/>
<ScoreDistribution value="0" recordCount="27.0"/>
<ScoreDistribution value="1" recordCount="25.0"/>
<Node id="372" score="0" recordCount="10.0">
<SimplePredicate field="age" operator="lessOrEqual" value="22.0"/>
<ScoreDistribution value="0" recordCount="9.0"/>
<ScoreDistribution value="1" recordCount="1.0"/>
</Node>
<Node id="373" score="1" recordCount="42.0">
<True/>
<ScoreDistribution value="0" recordCount="18.0"/>
<ScoreDistribution value="1" recordCount="24.0"/>
</Node>
</Node>
</Node>
<Node id="374" score="1" recordCount="220.0">
<SimplePredicate field="frPairFF" operator="equal" value="True"/>
<ScoreDistribution value="0" recordCount="35.0"/>
<ScoreDistribution value="1" recordCount="185.0"/>
<Node id="375" score="1" recordCount="182.0">
<SimplePredicate field="frPairMF" operator="equal" value="False"/>
<ScoreDistribution value="0" recordCount="20.0"/>
<ScoreDistribution value="1" recordCount="162.0"/>
<Node id="376" score="1" recordCount="161.0">
<SimplePredicate field="orientation" operator="equal" value="0"/>
<ScoreDistribution value="0" recordCount="14.0"/>
<ScoreDistribution value="1" recordCount="147.0"/>
</Node>
<Node id="377" score="1" recordCount="15.0">
<SimplePredicate field="orientation" operator="equal" value="1"/>
<ScoreDistribution value="0" recordCount="0.0"/>
<ScoreDistribution value="1" recordCount="15.0"/>
</Node>
<Node id="378" score="0" recordCount="1.0">
<SimplePredicate field="orientation" operator="equal" value="2"/>
<ScoreDistribution value="0" recordCount="1.0"/>
<ScoreDistribution value="1" recordCount="0.0"/>
</Node>
<Node id="379" score="0" recordCount="5.0">
<SimplePredicate field="orientation" operator="equal" value="3"/>
<ScoreDistribution value="0" recordCount="5.0"/>
<ScoreDistribution value="1" recordCount="0.0"/>
</Node>
</Node>
<Node id="380" score="1" recordCount="38.0">
<SimplePredicate field="frPairMF" operator="equal" value="True"/>
<ScoreDistribution value="0" recordCount="15.0"/>
<ScoreDistribution value="1" recordCount="23.0"/>
</Node>
</Node>
</Node>
<Node id="381" score="0" recordCount="4618.0">
<SimplePredicate field="isFreeDay" operator="equal" value="True"/>
<ScoreDistribution value="0" recordCount="3209.0"/>
<ScoreDistribution value="1" recordCount="1409.0"/>
<Node id="382" score="0" recordCount="4120.0">
<SimplePredicate field="prioritySex" operator="equal" value="False"/>
<ScoreDistribution value="0" recordCount="2960.0"/>
<ScoreDistribution value="1" recordCount="1160.0"/>
<Node id="383" score="0" recordCount="2370.0">
<SimplePredicate field="priorityFamily" operator="equal" value="False"/>
<ScoreDistribution value="0" recordCount="1531.0"/>
<ScoreDistribution value="1" recordCount="839.0"/>
<Node id="384" score="0" recordCount="2127.0">
<SimplePredicate field="sexFrequency" operator="equal" value="0"/>
<ScoreDistribution value="0" recordCount="1421.0"/>
<ScoreDistribution value="1" recordCount="706.0"/>
<Node id="385" score="0" recordCount="1387.0">
<SimplePredicate field="kids" operator="equal" value="0"/>
<ScoreDistribution value="0" recordCount="913.0"/>
<ScoreDistribution value="1" recordCount="474.0"/>
<Node id="386" score="0" recordCount="1162.0">
<SimplePredicate field="orientation" operator="equal" value="0"/>
<ScoreDistribution value="0" recordCount="790.0"/>
<ScoreDistribution value="1" recordCount="372.0"/>
<Node id="387" score="0" recordCount="1146.0">
<SimplePredicate field="heteroExperience" operator="equal" value="0"/>
<ScoreDistribution value="0" recordCount="782.0"/>
<ScoreDistribution value="1" recordCount="364.0"/>
<Node id="388" score="0" recordCount="899.0">
<SimplePredicate field="household" operator="equal" value="0"/>
<ScoreDistribution value="0" recordCount="609.0"/>
<ScoreDistribution value="1" recordCount="290.0"/>
<Node id="389" score="0" recordCount="72.0">
<SimplePredicate field="aboutMe" operator="equal" value="high"/>
<ScoreDistribution value="0" recordCount="59.0"/>
<ScoreDistribution value="1" recordCount="13.0"/>
</Node>
<Node id="390" score="0" recordCount="555.0">
<SimplePredicate field="aboutMe" operator="equal" value="none"/>
<ScoreDistribution value="0" recordCount="350.0"/>
<ScoreDistribution value="1" recordCount="205.0"/>
<Node id="391" score="0" recordCount="7.0">
<SimplePredicate field="photos" operator="equal" value="high"/>
<ScoreDistribution value="0" recordCount="6.0"/>
<ScoreDistribution value="1" recordCount="1.0"/>
</Node>
<Node id="392" score="0" recordCount="45.0">
<SimplePredicate field="photos" operator="equal" value="none"/>
<ScoreDistribution value="0" recordCount="32.0"/>
<ScoreDistribution value="1" recordCount="13.0"/>
<Node id="393" score="1" recordCount="16.0">
<SimplePredicate field="isSports" operator="equal" value="False"/>
<ScoreDistribution value="0" recordCount="7.0"/>
<ScoreDistribution value="1" recordCount="9.0"/>
</Node>
<Node id="394" score="0" recordCount="29.0">
<SimplePredicate field="isSports" operator="equal" value="True"/>
<ScoreDistribution value="0" recordCount="25.0"/>
<ScoreDistribution value="1" recordCount="4.0"/>
</Node>
</Node>
<Node id="395" score="0" recordCount="501.0">
<SimplePredicate field="photos" operator="equal" value="normal"/>
<ScoreDistribution value="0" recordCount="312.0"/>
<ScoreDistribution value="1" recordCount="189.0"/>
<Node id="396" score="0" recordCount="447.0">
<SimplePredicate field="marriage" operator="equal" value="0"/>
<ScoreDistribution value="0" recordCount="283.0"/>
<ScoreDistribution value="1" recordCount="164.0"/>
<Node id="397" score="0" recordCount="326.0">
<SimplePredicate field="alcohol" operator="equal" value="0"/>
<ScoreDistribution value="0" recordCount="216.0"/>
<ScoreDistribution value="1" recordCount="110.0"/>
</Node>
<Node id="398" score="0" recordCount="32.0">
<SimplePredicate field="alcohol" operator="equal" value="1"/>
<ScoreDistribution value="0" recordCount="23.0"/>
<ScoreDistribution value="1" recordCount="9.0"/>
</Node>
<Node id="399" score="1" recordCount="85.0">
<SimplePredicate field="alcohol" operator="equal" value="2"/>
<ScoreDistribution value="0" recordCount="42.0"/>
<ScoreDistribution value="1" recordCount="43.0"/>
<Node id="400" score="0" recordCount="70.0">
<SimplePredicate field="aimFriendship" operator="equal" value="False"/>
<ScoreDistribution value="0" recordCount="40.0"/>
<ScoreDistribution value="1" recordCount="30.0"/>
<Node id="401" score="1" recordCount="19.0">
<SimplePredicate field="isSports" operator="equal" value="False"/>
<ScoreDistribution value="0" recordCount="9.0"/>
<ScoreDistribution value="1" recordCount="10.0"/>
</Node>
<Node id="402" score="0" recordCount="51.0">
<SimplePredicate field="isSports" operator="equal" value="True"/>
<ScoreDistribution value="0" recordCount="31.0"/>
<ScoreDistribution value="1" recordCount="20.0"/>
<Node id="403" score="1" recordCount="18.0">
<SimplePredicate field="age" operator="lessOrEqual" value="23.0"/>
<ScoreDistribution value="0" recordCount="7.0"/>
<ScoreDistribution value="1" recordCount="11.0"/>
</Node>
<Node id="404" score="0" recordCount="33.0">
<True/>
<ScoreDistribution value="0" recordCount="24.0"/>
<ScoreDistribution value="1" recordCount="9.0"/>
</Node>
</Node>
</Node>
<Node id="405" score="1" recordCount="15.0">
<SimplePredicate field="aimFriendship" operator="equal" value="True"/>
<ScoreDistribution value="0" recordCount="2.0"/>
<ScoreDistribution value="1" recordCount="13.0"/>
</Node>
</Node>
<Node id="406" score="0" recordCount="4.0">
<SimplePredicate field="alcohol" operator="equal" value="3"/>
<ScoreDistribution value="0" recordCount="2.0"/>
<ScoreDistribution value="1" recordCount="2.0"/>
</Node>
</Node>
<Node id="407" score="0" recordCount="1.0">
<SimplePredicate field="marriage" operator="equal" value="1"/>
<ScoreDistribution value="0" recordCount="1.0"/>
<ScoreDistribution value="1" recordCount="0.0"/>
</Node>
<Node id="408" score="1" recordCount="1.0">
<SimplePredicate field="marriage" operator="equal" value="2"/>
<ScoreDistribution value="0" recordCount="0.0"/>
<ScoreDistribution value="1" recordCount="1.0"/>
</Node>
<Node id="409" score="0" recordCount="0.0">
<SimplePredicate field="marriage" operator="equal" value="3"/>
<ScoreDistribution value="0" recordCount="0.0"/>
<ScoreDistribution value="1" recordCount="0.0"/>
</Node>
<Node id="410" score="0" recordCount="52.0">
<SimplePredicate field="marriage" operator="equal" value="4"/>
<ScoreDistribution value="0" recordCount="28.0"/>
<ScoreDistribution value="1" recordCount="24.0"/>
<Node id="411" score="1" recordCount="21.0">
<SimplePredicate field="isMusic" operator="equal" value="False"/>
<ScoreDistribution value="0" recordCount="5.0"/>
<ScoreDistribution value="1" recordCount="16.0"/>
</Node>
<Node id="412" score="0" recordCount="31.0">
<SimplePredicate field="isMusic" operator="equal" value="True"/>
<ScoreDistribution value="0" recordCount="23.0"/>
<ScoreDistribution value="1" recordCount="8.0"/>
</Node>
</Node>
</Node>
<Node id="413" score="1" recordCount="2.0">
